<?xml version="1.0"?>
<MethodSetup Method="BDT::BDTG">
  <GeneralInfo>
    <Info name="TMVA Release" value="4.2.1 [262657]"/>
    <Info name="ROOT Release" value="6.26/04 [399876]"/>
    <Info name="Creator" value="kyoon"/>
    <Info name="Date" value="Thu Feb 23 21:11:27 2023"/>
    <Info name="Host" value="Linux centos7-docker 4.18.0-365.el8.x86_64 #1 SMP Thu Feb 10 16:11:23 UTC 2022 x86_64 x86_64 x86_64 GNU/Linux"/>
    <Info name="Dir" value="/work/submit/kyoon/CMSSW_10_6_27/src/HiggsRareDecay/macros/plot_MVA"/>
    <Info name="Training events" value="132720"/>
    <Info name="TrainingTime" value="1.25711341e+01"/>
    <Info name="AnalysisType" value="Classification"/>
  </GeneralInfo>
  <Options>
    <Option name="V" modified="Yes">False</Option>
    <Option name="VerbosityLevel" modified="No">Default</Option>
    <Option name="VarTransform" modified="No">None</Option>
    <Option name="H" modified="No">False</Option>
    <Option name="CreateMVAPdfs" modified="No">False</Option>
    <Option name="IgnoreNegWeightsInTraining" modified="No">False</Option>
    <Option name="NTrees" modified="Yes">115</Option>
    <Option name="MaxDepth" modified="Yes">3</Option>
    <Option name="MinNodeSize" modified="No">5%</Option>
    <Option name="nCuts" modified="Yes">12</Option>
    <Option name="BoostType" modified="Yes">Grad</Option>
    <Option name="AdaBoostR2Loss" modified="No">quadratic</Option>
    <Option name="UseBaggedBoost" modified="Yes">True</Option>
    <Option name="Shrinkage" modified="Yes">7.500000e-02</Option>
    <Option name="AdaBoostBeta" modified="No">5.000000e-01</Option>
    <Option name="UseRandomisedTrees" modified="Yes">True</Option>
    <Option name="UseNvars" modified="Yes">12</Option>
    <Option name="UsePoissonNvars" modified="No">True</Option>
    <Option name="BaggedSampleFraction" modified="Yes">8.000000e-01</Option>
    <Option name="UseYesNoLeaf" modified="No">True</Option>
    <Option name="NegWeightTreatment" modified="No">pray</Option>
    <Option name="Css" modified="No">1.000000e+00</Option>
    <Option name="Cts_sb" modified="No">1.000000e+00</Option>
    <Option name="Ctb_ss" modified="No">1.000000e+00</Option>
    <Option name="Cbb" modified="No">1.000000e+00</Option>
    <Option name="NodePurityLimit" modified="No">5.000000e-01</Option>
    <Option name="SeparationType" modified="Yes">giniindex</Option>
    <Option name="RegressionLossFunctionBDTG" modified="No">huber</Option>
    <Option name="HuberQuantile" modified="No">7.000000e-01</Option>
    <Option name="DoBoostMonitor" modified="No">False</Option>
    <Option name="UseFisherCuts" modified="No">False</Option>
    <Option name="MinLinCorrForFisher" modified="No">8.000000e-01</Option>
    <Option name="UseExclusiveVars" modified="No">False</Option>
    <Option name="DoPreselection" modified="No">False</Option>
    <Option name="SigToBkgFraction" modified="No">1.000000e+00</Option>
    <Option name="PruneMethod" modified="Yes">nopruning</Option>
    <Option name="PruneStrength" modified="No">0.000000e+00</Option>
    <Option name="PruningValFraction" modified="No">5.000000e-01</Option>
    <Option name="SkipNormalization" modified="No">False</Option>
    <Option name="nEventsMin" modified="No">0</Option>
    <Option name="UseBaggedGrad" modified="No">False</Option>
    <Option name="GradBaggingFraction" modified="No">8.000000e-01</Option>
    <Option name="UseNTrainEvents" modified="No">0</Option>
    <Option name="NNodesMax" modified="No">0</Option>
  </Options>
  <Variables NVar="12">
    <Variable VarIndex="0" Expression="HCandPT/HCandMass" Label="HCandPT/HCandMass" Title="HCandPT__div_HCandMass" Unit="" Internal="HCandPT_D_HCandMass" Type="F" Min="5.32339502e-04" Max="7.73472214e+00"/>
    <Variable VarIndex="1" Expression="photon_pt[index_pair[1]]/HCandPT" Label="photon_pt[index_pair[1]]/HCandPT" Title="photon_pt__div_HCandPT" Unit="" Internal="photon_pt_index_pair_1___D_HCandPT" Type="F" Min="1.01529032e-01" Max="6.76482910e+02"/>
    <Variable VarIndex="2" Expression="meson_pt[index_pair[0]]/HCandPT" Label="meson_pt[index_pair[0]]/HCandPT" Title="meson_pt__div_HCandPT" Unit="" Internal="meson_pt_index_pair_0___D_HCandPT" Type="F" Min="5.85008487e-02" Max="6.77121765e+02"/>
    <Variable VarIndex="3" Expression="photon_eta[index_pair[1]]" Label="photon_eta[index_pair[1]]" Title="photon_eta" Unit="" Internal="photon_eta_index_pair_1__" Type="F" Min="-2.09960938e+00" Max="2.09960938e+00"/>
    <Variable VarIndex="4" Expression="photon_mvaID[index_pair[1]]" Label="photon_mvaID[index_pair[1]]" Title="photon_mvaID" Unit="" Internal="photon_mvaID_index_pair_1__" Type="F" Min="-2.00042725e-02" Max="9.90234375e-01"/>
    <Variable VarIndex="5" Expression="DeepMETResolutionTune_pt" Label="DeepMETResolutionTune_pt" Title="DeepMETResolutionTune_pt" Unit="GeV/c" Internal="DeepMETResolutionTune_pt" Type="F" Min="1.36302009e-01" Max="3.52037689e+02"/>
    <Variable VarIndex="6" Expression="meson_iso[index_pair[0]]" Label="meson_iso[index_pair[0]]" Title="meson_iso" Unit="" Internal="meson_iso_index_pair_0__" Type="F" Min="9.00001168e-01" Max="1.00000000e+00"/>
    <Variable VarIndex="7" Expression="meson_sipPV[index_pair[0]]" Label="meson_sipPV[index_pair[0]]" Title="meson_sipPV" Unit="" Internal="meson_sipPV_index_pair_0__" Type="F" Min="2.68806296e-04" Max="1.09508286e+02"/>
    <Variable VarIndex="8" Expression="meson_trk1_eta[index_pair[0]]" Label="meson_trk1_eta[index_pair[0]]" Title="meson_trk1_eta" Unit="" Internal="meson_trk1_eta_index_pair_0__" Type="F" Min="-2.09936833e+00" Max="2.10321355e+00"/>
    <Variable VarIndex="9" Expression="dPhiGammaMesonCand" Label="dPhiGammaMesonCand" Title="dPhiGammaMesonCand" Unit="" Internal="dPhiGammaMesonCand" Type="F" Min="4.41074371e-05" Max="3.14158702e+00"/>
    <Variable VarIndex="10" Expression="dEtaGammaMesonCand/HCandMass" Label="dEtaGammaMesonCand/HCandMass" Title="dEtaGammaMesonCand__div_HCandMass" Unit="" Internal="dEtaGammaMesonCand_D_HCandMass" Type="F" Min="1.61379088e-08" Max="2.00010538e-02"/>
    <Variable VarIndex="11" Expression="nGoodJets" Label="nGoodJets" Title="nGoodJets" Unit="" Internal="nGoodJets" Type="F" Min="0.00000000e+00" Max="1.20000000e+01"/>
  </Variables>
  <Spectators NSpec="0"/>
  <Classes NClass="2">
    <Class Name="Signal" Index="0"/>
    <Class Name="Background" Index="1"/>
  </Classes>
  <Transformations NTransformations="0"/>
  <MVAPdfs/>
  <Weights NTrees="115" AnalysisType="1">
    <BinaryTree type="DecisionTree" boostWeight="1.0000000000000000e+00" itree="0">
      <Node pos="s" depth="0" NCoef="0" IVar="10" Cut="7.6927496120333672e-03" cType="1" res="0.0000000000000000e+00" rms="0.0000000000000000e+00" purity="4.8391750454902649e-01" nType="0">
        <Node pos="l" depth="1" NCoef="0" IVar="6" Cut="9.8462450504302979e-01" cType="1" res="4.7996573150157928e-02" rms="4.9769100546836853e-01" purity="5.4799658060073853e-01" nType="0">
          <Node pos="l" depth="2" NCoef="0" IVar="-1" Cut="0.0000000000000000e+00" cType="1" res="-5.5804930627346039e-02" rms="3.3405321836471558e-01" purity="1.2796713411808014e-01" nType="-99"/>
          <Node pos="r" depth="2" NCoef="0" IVar="9" Cut="2.9002411365509033e+00" cType="1" res="2.7835395932197571e-01" rms="4.1535416245460510e-01" purity="7.7835398912429810e-01" nType="0">
            <Node pos="l" depth="3" NCoef="0" IVar="-1" Cut="0.0000000000000000e+00" cType="1" res="5.4523143917322159e-02" rms="3.4333181381225586e-01" purity="8.6348766088485718e-01" nType="-99"/>
            <Node pos="r" depth="3" NCoef="0" IVar="-1" Cut="0.0000000000000000e+00" cType="1" res="2.8976492583751678e-02" rms="4.6117544174194336e-01" purity="6.9317662715911865e-01" nType="-99"/>
          </Node>
        </Node>
        <Node pos="r" depth="1" NCoef="0" IVar="10" Cut="1.2426765635609627e-02" cType="1" res="-1.2991005182266235e-01" rms="4.8282852768898010e-01" purity="3.7008994817733765e-01" nType="0">
          <Node pos="l" depth="2" NCoef="0" IVar="9" Cut="2.8998968601226807e+00" cType="1" res="-9.2871375381946564e-02" rms="4.9129921197891235e-01" purity="4.0712860226631165e-01" nType="0">
            <Node pos="l" depth="3" NCoef="0" IVar="-1" Cut="0.0000000000000000e+00" cType="1" res="-2.5411481037735939e-03" rms="4.9971291422843933e-01" purity="4.8305898904800415e-01" nType="-99"/>
            <Node pos="r" depth="3" NCoef="0" IVar="-1" Cut="0.0000000000000000e+00" cType="1" res="-2.5222042575478554e-02" rms="4.7087854146957397e-01" purity="3.3185306191444397e-01" nType="-99"/>
          </Node>
          <Node pos="r" depth="2" NCoef="0" IVar="-1" Cut="0.0000000000000000e+00" cType="1" res="-3.4906789660453796e-02" rms="4.4254395365715027e-01" purity="2.6728805899620056e-01" nType="-99"/>
        </Node>
      </Node>
    </BinaryTree>
    <BinaryTree type="DecisionTree" boostWeight="1.0000000000000000e+00" itree="1">
      <Node pos="s" depth="0" NCoef="0" IVar="4" Cut="8.3481538295745850e-01" cType="1" res="0.0000000000000000e+00" rms="0.0000000000000000e+00" purity="4.9331042170524597e-01" nType="0">
        <Node pos="l" depth="1" NCoef="0" IVar="10" Cut="7.5661237351596355e-03" cType="1" res="0.0000000000000000e+00" rms="0.0000000000000000e+00" purity="4.0882864594459534e-01" nType="0">
          <Node pos="l" depth="2" NCoef="0" IVar="9" Cut="2.9025790691375732e+00" cType="1" res="-1.8191400915384293e-02" rms="4.8265048861503601e-01" purity="4.8107880353927612e-01" nType="0">
            <Node pos="l" depth="3" NCoef="0" IVar="-1" Cut="0.0000000000000000e+00" cType="1" res="5.2641220390796661e-03" rms="4.7905907034873962e-01" purity="5.3989303112030029e-01" nType="-99"/>
            <Node pos="r" depth="3" NCoef="0" IVar="-1" Cut="0.0000000000000000e+00" cType="1" res="-1.0053710080683231e-02" rms="4.8078328371047974e-01" purity="4.2721447348594666e-01" nType="-99"/>
          </Node>
          <Node pos="r" depth="2" NCoef="0" IVar="-1" Cut="0.0000000000000000e+00" cType="1" res="-2.9121197760105133e-02" rms="4.5615893602371216e-01" purity="2.9709634184837341e-01" nType="-99"/>
        </Node>
        <Node pos="r" depth="1" NCoef="0" IVar="6" Cut="9.8462450504302979e-01" cType="1" res="2.1722273901104927e-02" rms="4.8913380503654480e-01" purity="5.2201253175735474e-01" nType="0">
          <Node pos="l" depth="2" NCoef="0" IVar="-1" Cut="0.0000000000000000e+00" cType="1" res="-5.2930492907762527e-02" rms="3.3330774307250977e-01" purity="1.2675233185291290e-01" nType="-99"/>
          <Node pos="r" depth="2" NCoef="0" IVar="10" Cut="1.0227888822555542e-02" cType="1" res="2.1331427991390228e-01" rms="4.4339725375175476e-01" purity="7.2458386421203613e-01" nType="0">
            <Node pos="l" depth="3" NCoef="0" IVar="-1" Cut="0.0000000000000000e+00" cType="1" res="3.6987200379371643e-02" rms="4.2399880290031433e-01" purity="7.6219677925109863e-01" nType="-99"/>
            <Node pos="r" depth="3" NCoef="0" IVar="-1" Cut="0.0000000000000000e+00" cType="1" res="8.5227116942405701e-03" rms="4.9707132577896118e-01" purity="5.4546684026718140e-01" nType="-99"/>
          </Node>
        </Node>
      </Node>
    </BinaryTree>
    <BinaryTree type="DecisionTree" boostWeight="1.0000000000000000e+00" itree="2">
      <Node pos="s" depth="0" NCoef="0" IVar="6" Cut="9.7692334651947021e-01" cType="1" res="-5.5528488010168076e-03" rms="4.7830224037170410e-01" purity="4.9161091446876526e-01" nType="0">
        <Node pos="l" depth="1" NCoef="0" IVar="-1" Cut="0.0000000000000000e+00" cType="1" res="-6.0525137931108475e-02" rms="2.3506927490234375e-01" purity="5.8247949928045273e-02" nType="-99"/>
        <Node pos="r" depth="1" NCoef="0" IVar="6" Cut="9.9112623929977417e-01" cType="1" res="0.0000000000000000e+00" rms="0.0000000000000000e+00" purity="7.2353583574295044e-01" nType="0">
          <Node pos="l" depth="2" NCoef="0" IVar="-1" Cut="0.0000000000000000e+00" cType="1" res="-1.6087206313386559e-03" rms="4.9488428235054016e-01" purity="4.5960870385169983e-01" nType="-99"/>
          <Node pos="r" depth="2" NCoef="0" IVar="10" Cut="1.0591882281005383e-02" cType="1" res="2.2706399857997894e-01" rms="4.2821997404098511e-01" purity="7.4943608045578003e-01" nType="0">
            <Node pos="l" depth="3" NCoef="0" IVar="-1" Cut="0.0000000000000000e+00" cType="1" res="3.8813475519418716e-02" rms="4.0731936693191528e-01" purity="7.8639167547225952e-01" nType="-99"/>
            <Node pos="r" depth="3" NCoef="0" IVar="-1" Cut="0.0000000000000000e+00" cType="1" res="9.1553460806608200e-03" rms="4.9571320414543152e-01" purity="5.4835987091064453e-01" nType="-99"/>
          </Node>
        </Node>
      </Node>
    </BinaryTree>
    <BinaryTree type="DecisionTree" boostWeight="1.0000000000000000e+00" itree="3">
      <Node pos="s" depth="0" NCoef="0" IVar="6" Cut="9.7694808244705200e-01" cType="1" res="1.3692000648006797e-03" rms="4.6726074814796448e-01" purity="5.0089222192764282e-01" nType="0">
        <Node pos="l" depth="1" NCoef="0" IVar="-1" Cut="0.0000000000000000e+00" cType="1" res="-5.6279238313436508e-02" rms="2.4090661108493805e-01" purity="6.1418883502483368e-02" nType="-99"/>
        <Node pos="r" depth="1" NCoef="0" IVar="8" Cut="-8.0587184429168701e-01" cType="1" res="1.7917460203170776e-01" rms="4.4547992944717407e-01" purity="7.1281081438064575e-01" nType="0">
          <Node pos="l" depth="2" NCoef="0" IVar="5" Cut="1.6990278244018555e+01" cType="1" res="8.6167052388191223e-02" rms="4.8166912794113159e-01" purity="6.0760414600372314e-01" nType="0">
            <Node pos="l" depth="3" NCoef="0" IVar="-1" Cut="0.0000000000000000e+00" cType="1" res="-1.9607034046202898e-03" rms="4.9252200126647949e-01" purity="5.0455963611602783e-01" nType="-99"/>
            <Node pos="r" depth="3" NCoef="0" IVar="-1" Cut="0.0000000000000000e+00" cType="1" res="2.5948978960514069e-02" rms="4.5500242710113525e-01" purity="6.9666421413421631e-01" nType="-99"/>
          </Node>
          <Node pos="r" depth="2" NCoef="0" IVar="9" Cut="2.8999414443969727e+00" cType="1" res="2.0643946528434753e-01" rms="4.3050816655158997e-01" purity="7.4365186691284180e-01" nType="0">
            <Node pos="l" depth="3" NCoef="0" IVar="-1" Cut="0.0000000000000000e+00" cType="1" res="3.7667896598577499e-02" rms="3.9927026629447937e-01" purity="7.8987854719161987e-01" nType="-99"/>
            <Node pos="r" depth="3" NCoef="0" IVar="-1" Cut="0.0000000000000000e+00" cType="1" res="2.3943077772855759e-02" rms="4.5907318592071533e-01" purity="6.9062966108322144e-01" nType="-99"/>
          </Node>
        </Node>
      </Node>
    </BinaryTree>
    <BinaryTree type="DecisionTree" boostWeight="1.0000000000000000e+00" itree="4">
      <Node pos="s" depth="0" NCoef="0" IVar="6" Cut="9.7697746753692627e-01" cType="1" res="-1.5674758469685912e-03" rms="4.5496761798858643e-01" purity="4.9653238058090210e-01" nType="0">
        <Node pos="l" depth="1" NCoef="0" IVar="-1" Cut="0.0000000000000000e+00" cType="1" res="-5.3315084427595139e-02" rms="2.3747281730175018e-01" purity="5.9672281146049500e-02" nType="-99"/>
        <Node pos="r" depth="1" NCoef="0" IVar="10" Cut="1.2308518402278423e-02" cType="1" res="1.6916283965110779e-01" rms="4.4219207763671875e-01" purity="7.1608275175094604e-01" nType="0">
          <Node pos="l" depth="2" NCoef="0" IVar="9" Cut="2.8999297618865967e+00" cType="1" res="1.9301359355449677e-01" rms="4.2983910441398621e-01" purity="7.4511796236038208e-01" nType="0">
            <Node pos="l" depth="3" NCoef="0" IVar="-1" Cut="0.0000000000000000e+00" cType="1" res="3.8549251854419708e-02" rms="3.8408395648002625e-01" purity="8.1319624185562134e-01" nType="-99"/>
            <Node pos="r" depth="3" NCoef="0" IVar="-1" Cut="0.0000000000000000e+00" cType="1" res="1.9757596775889397e-02" rms="4.6537226438522339e-01" purity="6.7298913002014160e-01" nType="-99"/>
          </Node>
          <Node pos="r" depth="2" NCoef="0" IVar="-1" Cut="0.0000000000000000e+00" cType="1" res="-1.0389761999249458e-02" rms="4.9060013890266418e-01" purity="4.2591136693954468e-01" nType="-99"/>
        </Node>
      </Node>
    </BinaryTree>
    <BinaryTree type="DecisionTree" boostWeight="1.0000000000000000e+00" itree="5">
      <Node pos="s" depth="0" NCoef="0" IVar="6" Cut="9.7692334651947021e-01" cType="1" res="-5.4960381239652634e-03" rms="4.4617074728012085e-01" purity="4.9354413151741028e-01" nType="0">
        <Node pos="l" depth="1" NCoef="0" IVar="-1" Cut="0.0000000000000000e+00" cType="1" res="-5.0774767994880676e-02" rms="2.3620554804801941e-01" purity="5.8859802782535553e-02" nType="-99"/>
        <Node pos="r" depth="1" NCoef="0" IVar="8" Cut="-1.1291191577911377e+00" cType="1" res="1.5029893815517426e-01" rms="4.4459828734397888e-01" purity="7.1048492193222046e-01" nType="0">
          <Node pos="l" depth="2" NCoef="0" IVar="-1" Cut="0.0000000000000000e+00" cType="1" res="1.4001087401993573e-04" rms="4.8838850855827332e-01" purity="5.2896791696548462e-01" nType="-99"/>
          <Node pos="r" depth="2" NCoef="0" IVar="8" Cut="6.1139369010925293e-01" cType="1" res="0.0000000000000000e+00" rms="0.0000000000000000e+00" purity="7.3922163248062134e-01" nType="0">
            <Node pos="l" depth="3" NCoef="0" IVar="-1" Cut="0.0000000000000000e+00" cType="1" res="3.0268371105194092e-02" rms="4.1838961839675903e-01" purity="7.6776015758514404e-01" nType="-99"/>
            <Node pos="r" depth="3" NCoef="0" IVar="-1" Cut="0.0000000000000000e+00" cType="1" res="1.8608812242746353e-02" rms="4.5889893174171448e-01" purity="6.7443275451660156e-01" nType="-99"/>
          </Node>
        </Node>
      </Node>
    </BinaryTree>
    <BinaryTree type="DecisionTree" boostWeight="1.0000000000000000e+00" itree="6">
      <Node pos="s" depth="0" NCoef="0" IVar="6" Cut="9.7692465782165527e-01" cType="1" res="0.0000000000000000e+00" rms="0.0000000000000000e+00" purity="5.1452600955963135e-01" nType="0">
        <Node pos="l" depth="1" NCoef="0" IVar="-1" Cut="0.0000000000000000e+00" cType="1" res="-4.7256462275981903e-02" rms="2.4857360124588013e-01" purity="6.5646536648273468e-02" nType="-99"/>
        <Node pos="r" depth="1" NCoef="0" IVar="10" Cut="1.2308363802731037e-02" cType="1" res="1.5711484849452972e-01" rms="4.3608886003494263e-01" purity="7.2972697019577026e-01" nType="0">
          <Node pos="l" depth="2" NCoef="0" IVar="9" Cut="2.8999865055084229e+00" cType="1" res="1.6959168016910553e-01" rms="4.2809069156646729e-01" purity="7.4839162826538086e-01" nType="0">
            <Node pos="l" depth="3" NCoef="0" IVar="-1" Cut="0.0000000000000000e+00" cType="1" res="3.2255347818136215e-02" rms="3.9603069424629211e-01" purity="7.9860252141952515e-01" nType="-99"/>
            <Node pos="r" depth="3" NCoef="0" IVar="-1" Cut="0.0000000000000000e+00" cType="1" res="1.9594337791204453e-02" rms="4.5767048001289368e-01" purity="6.9235026836395264e-01" nType="-99"/>
          </Node>
          <Node pos="r" depth="2" NCoef="0" IVar="-1" Cut="0.0000000000000000e+00" cType="1" res="1.4432708267122507e-03" rms="4.9828633666038513e-01" purity="5.0906872749328613e-01" nType="-99"/>
        </Node>
      </Node>
    </BinaryTree>
    <BinaryTree type="DecisionTree" boostWeight="1.0000000000000000e+00" itree="7">
      <Node pos="s" depth="0" NCoef="0" IVar="6" Cut="9.8461645841598511e-01" cType="1" res="-5.1186382770538330e-03" rms="4.2921912670135498e-01" purity="4.9299260973930359e-01" nType="0">
        <Node pos="l" depth="1" NCoef="0" IVar="-1" Cut="0.0000000000000000e+00" cType="1" res="-4.2128909379243851e-02" rms="2.8857123851776123e-01" purity="1.0269678384065628e-01" nType="-99"/>
        <Node pos="r" depth="1" NCoef="0" IVar="10" Cut="7.6927230693399906e-03" cType="1" res="1.5252348780632019e-01" rms="4.2943301796913147e-01" purity="7.4098247289657593e-01" nType="0">
          <Node pos="l" depth="2" NCoef="0" IVar="9" Cut="2.9001667499542236e+00" cType="1" res="1.9246517121791840e-01" rms="3.9625483751296997e-01" purity="7.9972475767135620e-01" nType="0">
            <Node pos="l" depth="3" NCoef="0" IVar="-1" Cut="0.0000000000000000e+00" cType="1" res="3.8318417966365814e-02" rms="3.4197983145713806e-01" purity="8.6389368772506714e-01" nType="-99"/>
            <Node pos="r" depth="3" NCoef="0" IVar="-1" Cut="0.0000000000000000e+00" cType="1" res="2.2112933918833733e-02" rms="4.4109591841697693e-01" purity="7.3185819387435913e-01" nType="-99"/>
          </Node>
          <Node pos="r" depth="2" NCoef="0" IVar="11" Cut="1.2307692766189575e+00" cType="1" res="7.0595405995845795e-02" rms="4.8022934794425964e-01" purity="6.2049061059951782e-01" nType="0">
            <Node pos="l" depth="3" NCoef="0" IVar="-1" Cut="0.0000000000000000e+00" cType="1" res="1.8015237525105476e-02" rms="4.6525552868843079e-01" purity="6.6568863391876221e-01" nType="-99"/>
            <Node pos="r" depth="3" NCoef="0" IVar="-1" Cut="0.0000000000000000e+00" cType="1" res="-9.8959971219301224e-03" rms="4.9589660763740540e-01" purity="4.9257674813270569e-01" nType="-99"/>
          </Node>
        </Node>
      </Node>
    </BinaryTree>
    <BinaryTree type="DecisionTree" boostWeight="1.0000000000000000e+00" itree="8">
      <Node pos="s" depth="0" NCoef="0" IVar="6" Cut="9.8461556434631348e-01" cType="1" res="-3.9733969606459141e-03" rms="4.2474690079689026e-01" purity="4.9664995074272156e-01" nType="0">
        <Node pos="l" depth="1" NCoef="0" IVar="10" Cut="5.6907669641077518e-03" cType="1" res="-2.3120528459548950e-01" rms="2.9328915476799011e-01" purity="1.0675382614135742e-01" nType="0">
          <Node pos="l" depth="2" NCoef="0" IVar="-1" Cut="0.0000000000000000e+00" cType="1" res="-3.6241095513105392e-02" rms="3.1709295511245728e-01" purity="1.2817357480525970e-01" nType="-99"/>
          <Node pos="r" depth="2" NCoef="0" IVar="-1" Cut="0.0000000000000000e+00" cType="1" res="-4.2140360921621323e-02" rms="2.7015528082847595e-01" purity="8.8413216173648834e-02" nType="-99"/>
        </Node>
        <Node pos="r" depth="1" NCoef="0" IVar="10" Cut="7.6927496120333672e-03" cType="1" res="1.3601087033748627e-01" rms="4.3261349201202393e-01" purity="7.3684209585189819e-01" nType="0">
          <Node pos="l" depth="2" NCoef="0" IVar="8" Cut="-8.0656200647354126e-01" cType="1" res="0.0000000000000000e+00" rms="0.0000000000000000e+00" purity="7.9122567176818848e-01" nType="0">
            <Node pos="l" depth="3" NCoef="0" IVar="-1" Cut="0.0000000000000000e+00" cType="1" res="1.5982374548912048e-02" rms="4.5138266682624817e-01" purity="7.1373724937438965e-01" nType="-99"/>
            <Node pos="r" depth="3" NCoef="0" IVar="-1" Cut="0.0000000000000000e+00" cType="1" res="2.8944073244929314e-02" rms="3.9333489537239075e-01" purity="8.0401694774627686e-01" nType="-99"/>
          </Node>
          <Node pos="r" depth="2" NCoef="0" IVar="11" Cut="6.1538463830947876e-01" cType="1" res="6.5795950591564178e-02" rms="4.8131209611892700e-01" purity="6.2289273738861084e-01" nType="0">
            <Node pos="l" depth="3" NCoef="0" IVar="-1" Cut="0.0000000000000000e+00" cType="1" res="2.4478342384099960e-02" rms="4.4991713762283325e-01" purity="7.1654862165451050e-01" nType="-99"/>
            <Node pos="r" depth="3" NCoef="0" IVar="-1" Cut="0.0000000000000000e+00" cType="1" res="1.1404701508581638e-03" rms="4.9066543579101562e-01" purity="5.6517356634140015e-01" nType="-99"/>
          </Node>
        </Node>
      </Node>
    </BinaryTree>
    <BinaryTree type="DecisionTree" boostWeight="1.0000000000000000e+00" itree="9">
      <Node pos="s" depth="0" NCoef="0" IVar="10" Cut="1.2308347038924694e-02" cType="1" res="-1.3589244335889816e-03" rms="4.1808485984802246e-01" purity="4.9784591794013977e-01" nType="0">
        <Node pos="l" depth="1" NCoef="0" IVar="6" Cut="9.7693675756454468e-01" cType="1" res="7.6052588410675526e-03" rms="4.1768673062324524e-01" purity="5.1545256376266479e-01" nType="0">
          <Node pos="l" depth="2" NCoef="0" IVar="-1" Cut="0.0000000000000000e+00" cType="1" res="-4.1735392063856125e-02" rms="2.4566510319709778e-01" purity="6.4173512160778046e-02" nType="-99"/>
          <Node pos="r" depth="2" NCoef="0" IVar="6" Cut="9.9113214015960693e-01" cType="1" res="1.2169969826936722e-01" rms="4.3419459462165833e-01" purity="7.3055428266525269e-01" nType="0">
            <Node pos="l" depth="3" NCoef="0" IVar="-1" Cut="0.0000000000000000e+00" cType="1" res="-4.9217822961509228e-03" rms="4.9628832936286926e-01" purity="4.6765190362930298e-01" nType="-99"/>
            <Node pos="r" depth="3" NCoef="0" IVar="-1" Cut="0.0000000000000000e+00" cType="1" res="2.2049307823181152e-02" rms="4.2395809292793274e-01" purity="7.5806146860122681e-01" nType="-99"/>
          </Node>
        </Node>
        <Node pos="r" depth="1" NCoef="0" IVar="-1" Cut="0.0000000000000000e+00" cType="1" res="-1.5600414946675301e-02" rms="4.1050580143928528e-01" purity="3.1211018562316895e-01" nType="-99"/>
      </Node>
    </BinaryTree>
    <BinaryTree type="DecisionTree" boostWeight="1.0000000000000000e+00" itree="10">
      <Node pos="s" depth="0" NCoef="0" IVar="6" Cut="9.7692334651947021e-01" cType="1" res="-2.2517739853356034e-04" rms="4.1090738773345947e-01" purity="4.9774554371833801e-01" nType="0">
        <Node pos="l" depth="1" NCoef="0" IVar="-1" Cut="0.0000000000000000e+00" cType="1" res="-4.1095815598964691e-02" rms="2.3747651278972626e-01" purity="5.9589084237813950e-02" nType="-99"/>
        <Node pos="r" depth="1" NCoef="0" IVar="10" Cut="1.2105005793273449e-02" cType="1" res="1.1127960681915283e-01" rms="4.3418341875076294e-01" purity="7.1884328126907349e-01" nType="0">
          <Node pos="l" depth="2" NCoef="0" IVar="9" Cut="2.8999941349029541e+00" cType="1" res="1.2606731057167053e-01" rms="4.2559191584587097e-01" purity="7.4448716640472412e-01" nType="0">
            <Node pos="l" depth="3" NCoef="0" IVar="-1" Cut="0.0000000000000000e+00" cType="1" res="2.8673946857452393e-02" rms="3.7950432300567627e-01" purity="8.0955249071121216e-01" nType="-99"/>
            <Node pos="r" depth="3" NCoef="0" IVar="-1" Cut="0.0000000000000000e+00" cType="1" res="1.1683423072099686e-02" rms="4.6391046047210693e-01" purity="6.7546880245208740e-01" nType="-99"/>
          </Node>
          <Node pos="r" depth="2" NCoef="0" IVar="-1" Cut="0.0000000000000000e+00" cType="1" res="-5.5990684777498245e-03" rms="4.8829653859138489e-01" purity="4.6143952012062073e-01" nType="-99"/>
        </Node>
      </Node>
    </BinaryTree>
    <BinaryTree type="DecisionTree" boostWeight="1.0000000000000000e+00" itree="11">
      <Node pos="s" depth="0" NCoef="0" IVar="10" Cut="7.6927640475332737e-03" cType="1" res="3.7193628959357738e-03" rms="4.0765702724456787e-01" purity="5.0510215759277344e-01" nType="0">
        <Node pos="l" depth="1" NCoef="0" IVar="6" Cut="9.8461645841598511e-01" cType="1" res="3.5297561436891556e-02" rms="4.0040928125381470e-01" purity="5.6530767679214478e-01" nType="0">
          <Node pos="l" depth="2" NCoef="0" IVar="-1" Cut="0.0000000000000000e+00" cType="1" res="-3.0365850776433945e-02" rms="3.1662172079086304e-01" purity="1.3259950280189514e-01" nType="-99"/>
          <Node pos="r" depth="2" NCoef="0" IVar="9" Cut="2.9000091552734375e+00" cType="1" res="1.3995037972927094e-01" rms="4.0028220415115356e-01" purity="7.9322052001953125e-01" nType="0">
            <Node pos="l" depth="3" NCoef="0" IVar="-1" Cut="0.0000000000000000e+00" cType="1" res="3.3117603510618210e-02" rms="3.3494591712951660e-01" purity="8.6972892284393311e-01" nType="-99"/>
            <Node pos="r" depth="3" NCoef="0" IVar="-1" Cut="0.0000000000000000e+00" cType="1" res="1.3752499595284462e-02" rms="4.5116248726844788e-01" purity="7.1488457918167114e-01" nType="-99"/>
          </Node>
        </Node>
        <Node pos="r" depth="1" NCoef="0" IVar="4" Cut="9.1252487897872925e-01" cType="1" res="-5.4790005087852478e-02" rms="4.1444510221481323e-01" purity="3.9355099201202393e-01" nType="0">
          <Node pos="l" depth="2" NCoef="0" IVar="9" Cut="2.8999235630035400e+00" cType="1" res="-1.2230444699525833e-01" rms="3.9970830082893372e-01" purity="3.1027531623840332e-01" nType="0">
            <Node pos="l" depth="3" NCoef="0" IVar="-1" Cut="0.0000000000000000e+00" cType="1" res="-1.5638697892427444e-02" rms="4.0447768568992615e-01" purity="3.4770363569259644e-01" nType="-99"/>
            <Node pos="r" depth="3" NCoef="0" IVar="-1" Cut="0.0000000000000000e+00" cType="1" res="-2.6083774864673615e-02" rms="3.9149129390716553e-01" purity="2.6665535569190979e-01" nType="-99"/>
          </Node>
          <Node pos="r" depth="2" NCoef="0" IVar="10" Cut="1.0299967601895332e-02" cType="1" res="1.1437420733273029e-02" rms="4.1794338822364807e-01" purity="4.7523915767669678e-01" nType="0">
            <Node pos="l" depth="3" NCoef="0" IVar="-1" Cut="0.0000000000000000e+00" cType="1" res="1.1561311781406403e-02" rms="3.9790511131286621e-01" purity="5.5918848514556885e-01" nType="-99"/>
            <Node pos="r" depth="3" NCoef="0" IVar="-1" Cut="0.0000000000000000e+00" cType="1" res="-6.0607977211475372e-03" rms="4.2817884683609009e-01" purity="4.0470388531684875e-01" nType="-99"/>
          </Node>
        </Node>
      </Node>
    </BinaryTree>
    <BinaryTree type="DecisionTree" boostWeight="1.0000000000000000e+00" itree="12">
      <Node pos="s" depth="0" NCoef="0" IVar="10" Cut="9.1218668967485428e-03" cType="1" res="-6.3189648790284991e-04" rms="4.0099546313285828e-01" purity="4.9481365084648132e-01" nType="0">
        <Node pos="l" depth="1" NCoef="0" IVar="6" Cut="9.8461645841598511e-01" cType="1" res="2.5928327813744545e-02" rms="3.9276510477066040e-01" purity="5.4178494215011597e-01" nType="0">
          <Node pos="l" depth="2" NCoef="0" IVar="-1" Cut="0.0000000000000000e+00" cType="1" res="-3.1180303543806076e-02" rms="3.0096155405044556e-01" purity="1.1795855313539505e-01" nType="-99"/>
          <Node pos="r" depth="2" NCoef="0" IVar="3" Cut="-1.6150841116905212e-01" cType="1" res="1.4103072881698608e-01" rms="3.9746218919754028e-01" purity="7.9959613084793091e-01" nType="0">
            <Node pos="l" depth="3" NCoef="0" IVar="-1" Cut="0.0000000000000000e+00" cType="1" res="1.6453297808766365e-02" rms="4.2777514457702637e-01" purity="7.5439965724945068e-01" nType="-99"/>
            <Node pos="r" depth="3" NCoef="0" IVar="-1" Cut="0.0000000000000000e+00" cType="1" res="2.8665993362665176e-02" rms="3.7219130992889404e-01" purity="8.3089858293533325e-01" nType="-99"/>
          </Node>
        </Node>
        <Node pos="r" depth="1" NCoef="0" IVar="11" Cut="5.3846156597137451e-01" cType="1" res="-7.7252395451068878e-02" rms="4.1441249847412109e-01" purity="3.5931155085563660e-01" nType="0">
          <Node pos="l" depth="2" NCoef="0" IVar="-1" Cut="0.0000000000000000e+00" cType="1" res="-4.6045565977692604e-03" rms="4.1081288456916809e-01" purity="4.0422087907791138e-01" nType="-99"/>
          <Node pos="r" depth="2" NCoef="0" IVar="9" Cut="2.4165480136871338e+00" cType="1" res="0.0000000000000000e+00" rms="0.0000000000000000e+00" purity="3.3052840828895569e-01" nType="0">
            <Node pos="l" depth="3" NCoef="0" IVar="-1" Cut="0.0000000000000000e+00" cType="1" res="-1.1138416826725006e-02" rms="4.2607706785202026e-01" purity="3.8083970546722412e-01" nType="-99"/>
            <Node pos="r" depth="3" NCoef="0" IVar="-1" Cut="0.0000000000000000e+00" cType="1" res="-2.3054821416735649e-02" rms="4.0180772542953491e-01" purity="2.9461070895195007e-01" nType="-99"/>
          </Node>
        </Node>
      </Node>
    </BinaryTree>
    <BinaryTree type="DecisionTree" boostWeight="1.0000000000000000e+00" itree="13">
      <Node pos="s" depth="0" NCoef="0" IVar="6" Cut="9.7692465782165527e-01" cType="1" res="-4.4603697024285793e-03" rms="4.0391296148300171e-01" purity="4.9597084522247314e-01" nType="0">
        <Node pos="l" depth="1" NCoef="0" IVar="-1" Cut="0.0000000000000000e+00" cType="1" res="-3.7086550146341324e-02" rms="2.4512228369712830e-01" purity="6.3493907451629639e-02" nType="-99"/>
        <Node pos="r" depth="1" NCoef="0" IVar="8" Cut="-1.1286966800689697e+00" cType="1" res="8.3607852458953857e-02" rms="4.3606197834014893e-01" purity="7.0816969871520996e-01" nType="0">
          <Node pos="l" depth="2" NCoef="0" IVar="-1" Cut="0.0000000000000000e+00" cType="1" res="-5.2028726786375046e-03" rms="4.7806403040885925e-01" purity="5.2046430110931396e-01" nType="-99"/>
          <Node pos="r" depth="2" NCoef="0" IVar="8" Cut="6.1156272888183594e-01" cType="1" res="1.0255173593759537e-01" rms="4.2586660385131836e-01" purity="7.3852908611297607e-01" nType="0">
            <Node pos="l" depth="3" NCoef="0" IVar="-1" Cut="0.0000000000000000e+00" cType="1" res="2.1138707175850868e-02" rms="4.0779018402099609e-01" purity="7.7327650785446167e-01" nType="-99"/>
            <Node pos="r" depth="3" NCoef="0" IVar="-1" Cut="0.0000000000000000e+00" cType="1" res="8.1569235771894455e-03" rms="4.5961791276931763e-01" purity="6.6055762767791748e-01" nType="-99"/>
          </Node>
        </Node>
      </Node>
    </BinaryTree>
    <BinaryTree type="DecisionTree" boostWeight="1.0000000000000000e+00" itree="14">
      <Node pos="s" depth="0" NCoef="0" IVar="6" Cut="9.7692465782165527e-01" cType="1" res="8.4739755839109421e-03" rms="3.9619573950767517e-01" purity="5.0914061069488525e-01" nType="0">
        <Node pos="l" depth="1" NCoef="0" IVar="-1" Cut="0.0000000000000000e+00" cType="1" res="-3.5642150789499283e-02" rms="2.4431462585926056e-01" purity="6.3222490251064301e-02" nType="-99"/>
        <Node pos="r" depth="1" NCoef="0" IVar="8" Cut="-1.1286966800689697e+00" cType="1" res="9.6292316913604736e-02" rms="4.2615580558776855e-01" purity="7.2909283638000488e-01" nType="0">
          <Node pos="l" depth="2" NCoef="0" IVar="-1" Cut="0.0000000000000000e+00" cType="1" res="-4.1798595339059830e-03" rms="4.8053699731826782e-01" purity="5.2723467350006104e-01" nType="-99"/>
          <Node pos="r" depth="2" NCoef="0" IVar="4" Cut="7.5710237026214600e-01" cType="1" res="1.1628776788711548e-01" rms="4.1320806741714478e-01" purity="7.6186668872833252e-01" nType="0">
            <Node pos="l" depth="3" NCoef="0" IVar="-1" Cut="0.0000000000000000e+00" cType="1" res="3.3049718476831913e-03" rms="4.6058210730552673e-01" purity="6.4146417379379272e-01" nType="-99"/>
            <Node pos="r" depth="3" NCoef="0" IVar="-1" Cut="0.0000000000000000e+00" cType="1" res="2.2775964811444283e-02" rms="4.0074515342712402e-01" purity="7.8517436981201172e-01" nType="-99"/>
          </Node>
        </Node>
      </Node>
    </BinaryTree>
    <BinaryTree type="DecisionTree" boostWeight="1.0000000000000000e+00" itree="15">
      <Node pos="s" depth="0" NCoef="0" IVar="6" Cut="9.7692465782165527e-01" cType="1" res="-5.6286482140421867e-03" rms="4.0010279417037964e-01" purity="4.9915999174118042e-01" nType="0">
        <Node pos="l" depth="1" NCoef="0" IVar="-1" Cut="0.0000000000000000e+00" cType="1" res="-3.4377459436655045e-02" rms="2.4497160315513611e-01" purity="6.3476651906967163e-02" nType="-99"/>
        <Node pos="r" depth="1" NCoef="0" IVar="4" Cut="5.2397036552429199e-01" cType="1" res="6.6978819668292999e-02" rms="4.3761181831359863e-01" purity="7.0702290534973145e-01" nType="0">
          <Node pos="l" depth="2" NCoef="0" IVar="-1" Cut="0.0000000000000000e+00" cType="1" res="-1.5248754061758518e-02" rms="4.7947335243225098e-01" purity="5.0980824232101440e-01" nType="-99"/>
          <Node pos="r" depth="2" NCoef="0" IVar="9" Cut="2.8999941349029541e+00" cType="1" res="8.0271340906620026e-02" rms="4.3129986524581909e-01" purity="7.2327589988708496e-01" nType="0">
            <Node pos="l" depth="3" NCoef="0" IVar="-1" Cut="0.0000000000000000e+00" cType="1" res="2.0537363365292549e-02" rms="3.9580395817756653e-01" purity="7.8020507097244263e-01" nType="-99"/>
            <Node pos="r" depth="3" NCoef="0" IVar="-1" Cut="0.0000000000000000e+00" cType="1" res="6.1582294292747974e-03" rms="4.6372491121292114e-01" purity="6.6031306982040405e-01" nType="-99"/>
          </Node>
        </Node>
      </Node>
    </BinaryTree>
    <BinaryTree type="DecisionTree" boostWeight="1.0000000000000000e+00" itree="16">
      <Node pos="s" depth="0" NCoef="0" IVar="10" Cut="1.2028485536575317e-02" cType="1" res="1.5414972789585590e-02" rms="3.8824698328971863e-01" purity="5.1852035522460938e-01" nType="0">
        <Node pos="l" depth="1" NCoef="0" IVar="6" Cut="9.9230819940567017e-01" cType="1" res="2.9789481312036514e-02" rms="3.8589105010032654e-01" purity="5.5035471916198730e-01" nType="0">
          <Node pos="l" depth="2" NCoef="0" IVar="4" Cut="9.1173374652862549e-01" cType="1" res="-1.1932471394538879e-01" rms="3.1289938092231750e-01" purity="1.4210177958011627e-01" nType="0">
            <Node pos="l" depth="3" NCoef="0" IVar="-1" Cut="0.0000000000000000e+00" cType="1" res="-2.9314562678337097e-02" rms="2.9753336310386658e-01" purity="1.2371382862329483e-01" nType="-99"/>
            <Node pos="r" depth="3" NCoef="0" IVar="-1" Cut="0.0000000000000000e+00" cType="1" res="-2.1794747561216354e-02" rms="3.2328233122825623e-01" purity="1.5643842518329620e-01" nType="-99"/>
          </Node>
          <Node pos="r" depth="2" NCoef="0" IVar="11" Cut="2.7692308425903320e+00" cType="1" res="1.1941485106945038e-01" rms="3.9770835638046265e-01" purity="7.9573595523834229e-01" nType="0">
            <Node pos="l" depth="3" NCoef="0" IVar="-1" Cut="0.0000000000000000e+00" cType="1" res="2.2549845278263092e-02" rms="3.9096885919570923e-01" purity="8.0569213628768921e-01" nType="-99"/>
            <Node pos="r" depth="3" NCoef="0" IVar="-1" Cut="0.0000000000000000e+00" cType="1" res="3.2029040157794952e-03" rms="4.4213679432868958e-01" purity="7.0452570915222168e-01" nType="-99"/>
          </Node>
        </Node>
        <Node pos="r" depth="1" NCoef="0" IVar="-1" Cut="0.0000000000000000e+00" cType="1" res="-1.6121206805109978e-02" rms="3.8890245556831360e-01" purity="2.7983164787292480e-01" nType="-99"/>
      </Node>
    </BinaryTree>
    <BinaryTree type="DecisionTree" boostWeight="1.0000000000000000e+00" itree="17">
      <Node pos="s" depth="0" NCoef="0" IVar="6" Cut="9.7692334651947021e-01" cType="1" res="2.6683553587645292e-03" rms="3.9209192991256714e-01" purity="5.0761187076568604e-01" nType="0">
        <Node pos="l" depth="1" NCoef="0" IVar="-1" Cut="0.0000000000000000e+00" cType="1" res="-3.2202899456024170e-02" rms="2.4395409226417542e-01" purity="6.3168890774250031e-02" nType="-99"/>
        <Node pos="r" depth="1" NCoef="0" IVar="4" Cut="5.2370744943618774e-01" cType="1" res="7.0813179016113281e-02" rms="4.3042552471160889e-01" purity="7.2336399555206299e-01" nType="0">
          <Node pos="l" depth="2" NCoef="0" IVar="-1" Cut="0.0000000000000000e+00" cType="1" res="-8.9518101885914803e-03" rms="4.5422938466072083e-01" purity="5.2755779027938843e-01" nType="-99"/>
          <Node pos="r" depth="2" NCoef="0" IVar="9" Cut="2.1749584674835205e+00" cType="1" res="8.1248000264167786e-02" rms="4.2673131823539734e-01" purity="7.3953795433044434e-01" nType="0">
            <Node pos="l" depth="3" NCoef="0" IVar="-1" Cut="0.0000000000000000e+00" cType="1" res="2.5319732725620270e-02" rms="3.7708079814910889e-01" purity="8.1077617406845093e-01" nType="-99"/>
            <Node pos="r" depth="3" NCoef="0" IVar="-1" Cut="0.0000000000000000e+00" cType="1" res="1.2189756147563457e-02" rms="4.3342998623847961e-01" purity="7.2789704799652100e-01" nType="-99"/>
          </Node>
        </Node>
      </Node>
    </BinaryTree>
    <BinaryTree type="DecisionTree" boostWeight="1.0000000000000000e+00" itree="18">
      <Node pos="s" depth="0" NCoef="0" IVar="6" Cut="9.7692334651947021e-01" cType="1" res="-6.5681436099112034e-03" rms="3.9178460836410522e-01" purity="4.9615594744682312e-01" nType="0">
        <Node pos="l" depth="1" NCoef="0" IVar="-1" Cut="0.0000000000000000e+00" cType="1" res="-3.1756121665239334e-02" rms="2.3930956423282623e-01" purity="6.0468629002571106e-02" nType="-99"/>
        <Node pos="r" depth="1" NCoef="0" IVar="4" Cut="5.2370744943618774e-01" cType="1" res="5.4544761776924133e-02" rms="4.3526592850685120e-01" purity="7.1029496192932129e-01" nType="0">
          <Node pos="l" depth="2" NCoef="0" IVar="-1" Cut="0.0000000000000000e+00" cType="1" res="-1.2880323454737663e-02" rms="4.6900984644889832e-01" purity="5.0957870483398438e-01" nType="-99"/>
          <Node pos="r" depth="2" NCoef="0" IVar="8" Cut="-1.1284149885177612e+00" cType="1" res="6.5670207142829895e-02" rms="4.3047541379928589e-01" purity="7.2694885730743408e-01" nType="0">
            <Node pos="l" depth="3" NCoef="0" IVar="-1" Cut="0.0000000000000000e+00" cType="1" res="-9.2075037537142634e-04" rms="4.7500038146972656e-01" purity="5.6293749809265137e-01" nType="-99"/>
            <Node pos="r" depth="3" NCoef="0" IVar="-1" Cut="0.0000000000000000e+00" cType="1" res="1.3465802185237408e-02" rms="4.2225229740142822e-01" purity="7.5183826684951782e-01" nType="-99"/>
          </Node>
        </Node>
      </Node>
    </BinaryTree>
    <BinaryTree type="DecisionTree" boostWeight="1.0000000000000000e+00" itree="19">
      <Node pos="s" depth="0" NCoef="0" IVar="6" Cut="9.8461645841598511e-01" cType="1" res="-9.1031398624181747e-03" rms="3.9066407084465027e-01" purity="4.9312207102775574e-01" nType="0">
        <Node pos="l" depth="1" NCoef="0" IVar="-1" Cut="0.0000000000000000e+00" cType="1" res="-2.5871425867080688e-02" rms="2.8420239686965942e-01" purity="1.0629109293222427e-01" nType="-99"/>
        <Node pos="r" depth="1" NCoef="0" IVar="9" Cut="2.9000091552734375e+00" cType="1" res="5.3275663405656815e-02" rms="4.3157607316970825e-01" purity="7.2947710752487183e-01" nType="0">
          <Node pos="l" depth="2" NCoef="0" IVar="1" Cut="2.2975187301635742e+00" cType="1" res="0.0000000000000000e+00" rms="0.0000000000000000e+00" purity="8.0146104097366333e-01" nType="0">
            <Node pos="l" depth="3" NCoef="0" IVar="-1" Cut="0.0000000000000000e+00" cType="1" res="1.5738667920231819e-02" rms="4.0205851197242737e-01" purity="7.8212970495223999e-01" nType="-99"/>
            <Node pos="r" depth="3" NCoef="0" IVar="-1" Cut="0.0000000000000000e+00" cType="1" res="3.4123439341783524e-02" rms="2.9365900158882141e-01" purity="8.8195067644119263e-01" nType="-99"/>
          </Node>
          <Node pos="r" depth="2" NCoef="0" IVar="5" Cut="2.7915294647216797e+01" cType="1" res="0.0000000000000000e+00" rms="0.0000000000000000e+00" purity="6.5205770730972290e-01" nType="0">
            <Node pos="l" depth="3" NCoef="0" IVar="-1" Cut="0.0000000000000000e+00" cType="1" res="-6.2711839564144611e-03" rms="4.8027721047401428e-01" purity="6.1758637428283691e-01" nType="-99"/>
            <Node pos="r" depth="3" NCoef="0" IVar="-1" Cut="0.0000000000000000e+00" cType="1" res="2.2407587617635727e-02" rms="3.9623165130615234e-01" purity="7.9014450311660767e-01" nType="-99"/>
          </Node>
        </Node>
      </Node>
    </BinaryTree>
    <BinaryTree type="DecisionTree" boostWeight="1.0000000000000000e+00" itree="20">
      <Node pos="s" depth="0" NCoef="0" IVar="6" Cut="9.9230778217315674e-01" cType="1" res="-8.3525304216891527e-04" rms="3.8773092627525330e-01" purity="5.0293701887130737e-01" nType="0">
        <Node pos="l" depth="1" NCoef="0" IVar="6" Cut="9.7809880971908569e-01" cType="1" res="-1.0056171566247940e-01" rms="2.9773655533790588e-01" purity="1.2579241394996643e-01" nType="0">
          <Node pos="l" depth="2" NCoef="0" IVar="-1" Cut="0.0000000000000000e+00" cType="1" res="-2.9611721634864807e-02" rms="2.5101104378700256e-01" purity="6.7567154765129089e-02" nType="-99"/>
          <Node pos="r" depth="2" NCoef="0" IVar="-1" Cut="0.0000000000000000e+00" cType="1" res="4.0064298082143068e-04" rms="4.9338647723197937e-01" purity="5.0512689352035522e-01" nType="-99"/>
        </Node>
        <Node pos="r" depth="1" NCoef="0" IVar="9" Cut="2.8999531269073486e+00" cType="1" res="6.2621042132377625e-02" rms="4.2335885763168335e-01" purity="7.4291551113128662e-01" nType="0">
          <Node pos="l" depth="2" NCoef="0" IVar="2" Cut="1.9658221006393433e+00" cType="1" res="9.7050867974758148e-02" rms="3.8756337761878967e-01" purity="8.0213940143585205e-01" nType="0">
            <Node pos="l" depth="3" NCoef="0" IVar="-1" Cut="0.0000000000000000e+00" cType="1" res="1.0810361243784428e-02" rms="4.1772669553756714e-01" purity="7.6161700487136841e-01" nType="-99"/>
            <Node pos="r" depth="3" NCoef="0" IVar="-1" Cut="0.0000000000000000e+00" cType="1" res="3.7997528910636902e-02" rms="2.6151874661445618e-01" purity="9.1327750682830811e-01" nType="-99"/>
          </Node>
          <Node pos="r" depth="2" NCoef="0" IVar="0" Cut="1.1831115931272507e-01" cType="1" res="2.4670615792274475e-02" rms="4.5659762620925903e-01" purity="6.7763578891754150e-01" nType="0">
            <Node pos="l" depth="3" NCoef="0" IVar="-1" Cut="0.0000000000000000e+00" cType="1" res="2.7387943118810654e-02" rms="3.6977958679199219e-01" purity="8.0577069520950317e-01" nType="-99"/>
            <Node pos="r" depth="3" NCoef="0" IVar="-1" Cut="0.0000000000000000e+00" cType="1" res="-2.0310563966631889e-02" rms="4.9161556363105774e-01" purity="5.4524922370910645e-01" nType="-99"/>
          </Node>
        </Node>
      </Node>
    </BinaryTree>
    <BinaryTree type="DecisionTree" boostWeight="1.0000000000000000e+00" itree="21">
      <Node pos="s" depth="0" NCoef="0" IVar="8" Cut="1.1333729028701782e+00" cType="1" res="7.3412400670349598e-03" rms="3.7598153948783875e-01" purity="5.0251626968383789e-01" nType="0">
        <Node pos="l" depth="1" NCoef="0" IVar="6" Cut="9.7694361209869385e-01" cType="1" res="1.8346592783927917e-02" rms="3.7338221073150635e-01" purity="5.2277982234954834e-01" nType="0">
          <Node pos="l" depth="2" NCoef="0" IVar="-1" Cut="0.0000000000000000e+00" cType="1" res="-2.7510540559887886e-02" rms="2.4326671659946442e-01" purity="6.3036538660526276e-02" nType="-99"/>
          <Node pos="r" depth="2" NCoef="0" IVar="9" Cut="2.1750514507293701e+00" cType="1" res="7.7173598110675812e-02" rms="4.1092264652252197e-01" purity="7.5122195482254028e-01" nType="0">
            <Node pos="l" depth="3" NCoef="0" IVar="-1" Cut="0.0000000000000000e+00" cType="1" res="3.1359337270259857e-02" rms="3.2374966144561768e-01" purity="8.6422455310821533e-01" nType="-99"/>
            <Node pos="r" depth="3" NCoef="0" IVar="-1" Cut="0.0000000000000000e+00" cType="1" res="1.1158938519656658e-02" rms="4.2076423764228821e-01" purity="7.3412895202636719e-01" nType="-99"/>
          </Node>
        </Node>
        <Node pos="r" depth="1" NCoef="0" IVar="4" Cut="9.1253310441970825e-01" cType="1" res="0.0000000000000000e+00" rms="0.0000000000000000e+00" purity="3.7221607565879822e-01" nType="0">
          <Node pos="l" depth="2" NCoef="0" IVar="-1" Cut="0.0000000000000000e+00" cType="1" res="-2.5234526023268700e-02" rms="3.8437825441360474e-01" purity="2.8624424338340759e-01" nType="-99"/>
          <Node pos="r" depth="2" NCoef="0" IVar="-1" Cut="0.0000000000000000e+00" cType="1" res="1.7823404632508755e-03" rms="3.7210458517074585e-01" purity="4.6761617064476013e-01" nType="-99"/>
        </Node>
      </Node>
    </BinaryTree>
    <BinaryTree type="DecisionTree" boostWeight="1.0000000000000000e+00" itree="22">
      <Node pos="s" depth="0" NCoef="0" IVar="6" Cut="9.8461556434631348e-01" cType="1" res="-3.0877070967108011e-03" rms="3.8054126501083374e-01" purity="4.9648985266685486e-01" nType="0">
        <Node pos="l" depth="1" NCoef="0" IVar="-1" Cut="0.0000000000000000e+00" cType="1" res="-2.3495968431234360e-02" rms="2.8233715891838074e-01" purity="1.0467155277729034e-01" nType="-99"/>
        <Node pos="r" depth="1" NCoef="0" IVar="9" Cut="2.8999938964843750e+00" cType="1" res="5.3749244660139084e-02" rms="4.2137956619262695e-01" purity="7.4384838342666626e-01" nType="0">
          <Node pos="l" depth="2" NCoef="0" IVar="2" Cut="7.0536512136459351e-01" cType="1" res="8.5981830954551697e-02" rms="3.8326606154441833e-01" purity="8.0205851793289185e-01" nType="0">
            <Node pos="l" depth="3" NCoef="0" IVar="-1" Cut="0.0000000000000000e+00" cType="1" res="-5.2264132536947727e-03" rms="4.4992917776107788e-01" purity="6.7025971412658691e-01" nType="-99"/>
            <Node pos="r" depth="3" NCoef="0" IVar="-1" Cut="0.0000000000000000e+00" cType="1" res="2.1958887577056885e-02" rms="3.5874018073081970e-01" purity="8.3541768789291382e-01" nType="-99"/>
          </Node>
          <Node pos="r" depth="2" NCoef="0" IVar="0" Cut="2.0479901134967804e-01" cType="1" res="1.7881380394101143e-02" rms="4.5743280649185181e-01" purity="6.7907315492630005e-01" nType="0">
            <Node pos="l" depth="3" NCoef="0" IVar="-1" Cut="0.0000000000000000e+00" cType="1" res="1.8041599541902542e-02" rms="4.0941557288169861e-01" purity="7.6526606082916260e-01" nType="-99"/>
            <Node pos="r" depth="3" NCoef="0" IVar="-1" Cut="0.0000000000000000e+00" cType="1" res="-4.4663093984127045e-02" rms="4.8790481686592102e-01" purity="4.0527078509330750e-01" nType="-99"/>
          </Node>
        </Node>
      </Node>
    </BinaryTree>
    <BinaryTree type="DecisionTree" boostWeight="1.0000000000000000e+00" itree="23">
      <Node pos="s" depth="0" NCoef="0" IVar="6" Cut="9.8463207483291626e-01" cType="1" res="6.4285988919436932e-03" rms="3.7567839026451111e-01" purity="5.1096999645233154e-01" nType="0">
        <Node pos="l" depth="1" NCoef="0" IVar="-1" Cut="0.0000000000000000e+00" cType="1" res="-2.1745095029473305e-02" rms="2.9070764780044556e-01" purity="1.1021741479635239e-01" nType="-99"/>
        <Node pos="r" depth="1" NCoef="0" IVar="10" Cut="1.2308347038924694e-02" cType="1" res="0.0000000000000000e+00" rms="0.0000000000000000e+00" purity="7.5460052490234375e-01" nType="0">
          <Node pos="l" depth="2" NCoef="0" IVar="9" Cut="1.9334176778793335e+00" cType="1" res="0.0000000000000000e+00" rms="0.0000000000000000e+00" purity="7.8373360633850098e-01" nType="0">
            <Node pos="l" depth="3" NCoef="0" IVar="-1" Cut="0.0000000000000000e+00" cType="1" res="3.2451819628477097e-02" rms="2.9549381136894226e-01" purity="9.0073746442794800e-01" nType="-99"/>
            <Node pos="r" depth="3" NCoef="0" IVar="-1" Cut="0.0000000000000000e+00" cType="1" res="1.2004914693534374e-02" rms="4.0634372830390930e-01" purity="7.7179509401321411e-01" nType="-99"/>
          </Node>
          <Node pos="r" depth="2" NCoef="0" IVar="-1" Cut="0.0000000000000000e+00" cType="1" res="-1.0153087787330151e-02" rms="4.8671695590019226e-01" purity="4.5815008878707886e-01" nType="-99"/>
        </Node>
      </Node>
    </BinaryTree>
    <BinaryTree type="DecisionTree" boostWeight="1.0000000000000000e+00" itree="24">
      <Node pos="s" depth="0" NCoef="0" IVar="6" Cut="9.7692334651947021e-01" cType="1" res="-1.2031164951622486e-02" rms="3.7938952445983887e-01" purity="4.8338854312896729e-01" nType="0">
        <Node pos="l" depth="1" NCoef="0" IVar="-1" Cut="0.0000000000000000e+00" cType="1" res="-2.7265526354312897e-02" rms="2.3075081408023834e-01" purity="5.6079391390085220e-02" nType="-99"/>
        <Node pos="r" depth="1" NCoef="0" IVar="8" Cut="-1.4521975517272949e+00" cType="1" res="2.9978880658745766e-02" rms="4.3235233426094055e-01" purity="7.0995444059371948e-01" nType="0">
          <Node pos="l" depth="2" NCoef="0" IVar="-1" Cut="0.0000000000000000e+00" cType="1" res="-1.3116549700498581e-02" rms="4.8429328203201294e-01" purity="4.9834406375885010e-01" nType="-99"/>
          <Node pos="r" depth="2" NCoef="0" IVar="4" Cut="7.5719743967056274e-01" cType="1" res="3.9612155407667160e-02" rms="4.2622679471969604e-01" purity="7.2810947895050049e-01" nType="0">
            <Node pos="l" depth="3" NCoef="0" IVar="-1" Cut="0.0000000000000000e+00" cType="1" res="-5.9143332764506340e-03" rms="4.5845419168472290e-01" purity="6.0241228342056274e-01" nType="-99"/>
            <Node pos="r" depth="3" NCoef="0" IVar="-1" Cut="0.0000000000000000e+00" cType="1" res="1.0095091536641121e-02" rms="4.1793569922447205e-01" purity="7.5315862894058228e-01" nType="-99"/>
          </Node>
        </Node>
      </Node>
    </BinaryTree>
    <BinaryTree type="DecisionTree" boostWeight="1.0000000000000000e+00" itree="25">
      <Node pos="s" depth="0" NCoef="0" IVar="6" Cut="9.7692334651947021e-01" cType="1" res="0.0000000000000000e+00" rms="0.0000000000000000e+00" purity="4.9669662117958069e-01" nType="0">
        <Node pos="l" depth="1" NCoef="0" IVar="-1" Cut="0.0000000000000000e+00" cType="1" res="-2.5171792134642601e-02" rms="2.3744492232799530e-01" purity="5.9597995132207870e-02" nType="-99"/>
        <Node pos="r" depth="1" NCoef="0" IVar="8" Cut="-1.1291191577911377e+00" cType="1" res="4.1878577321767807e-02" rms="4.2322567105293274e-01" purity="7.2288185358047485e-01" nType="0">
          <Node pos="l" depth="2" NCoef="0" IVar="-1" Cut="0.0000000000000000e+00" cType="1" res="-4.3782768771052361e-03" rms="4.6314707398414612e-01" purity="5.4914873838424683e-01" nType="-99"/>
          <Node pos="r" depth="2" NCoef="0" IVar="4" Cut="8.3481305837631226e-01" cType="1" res="5.2531063556671143e-02" rms="4.1571173071861267e-01" purity="7.4965995550155640e-01" nType="0">
            <Node pos="l" depth="3" NCoef="0" IVar="-1" Cut="0.0000000000000000e+00" cType="1" res="1.3230623444542289e-03" rms="4.4688275456428528e-01" purity="6.6323333978652954e-01" nType="-99"/>
            <Node pos="r" depth="3" NCoef="0" IVar="-1" Cut="0.0000000000000000e+00" cType="1" res="1.2521847151219845e-02" rms="4.0477201342582703e-01" purity="7.7593821287155151e-01" nType="-99"/>
          </Node>
        </Node>
      </Node>
    </BinaryTree>
    <BinaryTree type="DecisionTree" boostWeight="1.0000000000000000e+00" itree="26">
      <Node pos="s" depth="0" NCoef="0" IVar="6" Cut="9.7692334651947021e-01" cType="1" res="8.7233865633606911e-03" rms="3.7166294455528259e-01" purity="5.0668621063232422e-01" nType="0">
        <Node pos="l" depth="1" NCoef="0" IVar="-1" Cut="0.0000000000000000e+00" cType="1" res="-2.3668464273214340e-02" rms="2.3975543677806854e-01" purity="6.0932084918022156e-02" nType="-99"/>
        <Node pos="r" depth="1" NCoef="0" IVar="10" Cut="4.6156402677297592e-03" cType="1" res="5.1210828125476837e-02" rms="4.1789236664772034e-01" purity="7.3765689134597778e-01" nType="0">
          <Node pos="l" depth="2" NCoef="0" IVar="9" Cut="2.6595861911773682e+00" cType="1" res="9.3749716877937317e-02" rms="3.7031215429306030e-01" purity="8.1400674581527710e-01" nType="0">
            <Node pos="l" depth="3" NCoef="0" IVar="-1" Cut="0.0000000000000000e+00" cType="1" res="3.2704699784517288e-02" rms="2.7447941899299622e-01" purity="9.1514015197753906e-01" nType="-99"/>
            <Node pos="r" depth="3" NCoef="0" IVar="-1" Cut="0.0000000000000000e+00" cType="1" res="1.3180934824049473e-02" rms="3.9890256524085999e-01" purity="7.7478122711181641e-01" nType="-99"/>
          </Node>
          <Node pos="r" depth="2" NCoef="0" IVar="3" Cut="1.6150841116905212e-01" cType="1" res="1.8038211390376091e-02" rms="4.4874045252799988e-01" purity="6.7811793088912964e-01" nType="0">
            <Node pos="l" depth="3" NCoef="0" IVar="-1" Cut="0.0000000000000000e+00" cType="1" res="-3.1028941739350557e-03" rms="4.6411469578742981e-01" purity="6.3659286499023438e-01" nType="-99"/>
            <Node pos="r" depth="3" NCoef="0" IVar="-1" Cut="0.0000000000000000e+00" cType="1" res="1.4633248560130596e-02" rms="4.1226193308830261e-01" purity="7.5217539072036743e-01" nType="-99"/>
          </Node>
        </Node>
      </Node>
    </BinaryTree>
    <BinaryTree type="DecisionTree" boostWeight="1.0000000000000000e+00" itree="27">
      <Node pos="s" depth="0" NCoef="0" IVar="6" Cut="9.8461556434631348e-01" cType="1" res="1.9346200861036777e-03" rms="3.7422803044319153e-01" purity="5.0574868917465210e-01" nType="0">
        <Node pos="l" depth="1" NCoef="0" IVar="-1" Cut="0.0000000000000000e+00" cType="1" res="-1.9106684252619743e-02" rms="2.8738561272621155e-01" purity="1.0749148577451706e-01" nType="-99"/>
        <Node pos="r" depth="1" NCoef="0" IVar="3" Cut="-1.6150841116905212e-01" cType="1" res="4.4657096266746521e-02" rms="4.1340139508247375e-01" purity="7.5267058610916138e-01" nType="0">
          <Node pos="l" depth="2" NCoef="0" IVar="3" Cut="-3.1066894531250000e-01" cType="1" res="7.5831827707588673e-03" rms="4.3818643689155579e-01" purity="7.0907765626907349e-01" nType="0">
            <Node pos="l" depth="3" NCoef="0" IVar="-1" Cut="0.0000000000000000e+00" cType="1" res="8.1157023087143898e-03" rms="4.1921979188919067e-01" purity="7.4652349948883057e-01" nType="-99"/>
            <Node pos="r" depth="3" NCoef="0" IVar="-1" Cut="0.0000000000000000e+00" cType="1" res="-1.5543272718787193e-02" rms="4.7034370899200439e-01" purity="6.1479079723358154e-01" nType="-99"/>
          </Node>
          <Node pos="r" depth="2" NCoef="0" IVar="9" Cut="2.6582727432250977e+00" cType="1" res="7.0501349866390228e-02" rms="3.9314270019531250e-01" purity="7.8305923938751221e-01" nType="0">
            <Node pos="l" depth="3" NCoef="0" IVar="-1" Cut="0.0000000000000000e+00" cType="1" res="2.3749200627207756e-02" rms="3.3455589413642883e-01" purity="8.5216724872589111e-01" nType="-99"/>
            <Node pos="r" depth="3" NCoef="0" IVar="-1" Cut="0.0000000000000000e+00" cType="1" res="8.9289564639329910e-03" rms="4.1538465023040771e-01" purity="7.5136995315551758e-01" nType="-99"/>
          </Node>
        </Node>
      </Node>
    </BinaryTree>
    <BinaryTree type="DecisionTree" boostWeight="1.0000000000000000e+00" itree="28">
      <Node pos="s" depth="0" NCoef="0" IVar="6" Cut="9.9230778217315674e-01" cType="1" res="-6.8615208147093654e-04" rms="3.7396115064620972e-01" purity="5.0112831592559814e-01" nType="0">
        <Node pos="l" depth="1" NCoef="0" IVar="10" Cut="4.5623080804944038e-03" cType="1" res="-5.6807246059179306e-02" rms="2.9346302151679993e-01" purity="1.2379467487335205e-01" nType="0">
          <Node pos="l" depth="2" NCoef="0" IVar="-1" Cut="0.0000000000000000e+00" cType="1" res="-1.0347658768296242e-02" rms="3.2440859079360962e-01" purity="1.6198986768722534e-01" nType="-99"/>
          <Node pos="r" depth="2" NCoef="0" IVar="-1" Cut="0.0000000000000000e+00" cType="1" res="-1.9953366369009018e-02" rms="2.7371805906295776e-01" purity="1.0219019651412964e-01" nType="-99"/>
        </Node>
        <Node pos="r" depth="1" NCoef="0" IVar="9" Cut="2.8999297618865967e+00" cType="1" res="3.5534784197807312e-02" rms="4.1373616456985474e-01" purity="7.4466198682785034e-01" nType="0">
          <Node pos="l" depth="2" NCoef="0" IVar="2" Cut="1.9682981967926025e+00" cType="1" res="6.8631507456302643e-02" rms="3.7439376115798950e-01" purity="8.0892950296401978e-01" nType="0">
            <Node pos="l" depth="3" NCoef="0" IVar="-1" Cut="0.0000000000000000e+00" cType="1" res="7.0867724716663361e-03" rms="4.0367466211318970e-01" purity="7.7285522222518921e-01" nType="-99"/>
            <Node pos="r" depth="3" NCoef="0" IVar="-1" Cut="0.0000000000000000e+00" cType="1" res="3.2224901020526886e-02" rms="2.6358479261398315e-01" purity="9.0400528907775879e-01" nType="-99"/>
          </Node>
          <Node pos="r" depth="2" NCoef="0" IVar="0" Cut="1.9248172640800476e-01" cType="1" res="-8.1109457823913544e-05" rms="4.4955241680145264e-01" purity="6.7550271749496460e-01" nType="0">
            <Node pos="l" depth="3" NCoef="0" IVar="-1" Cut="0.0000000000000000e+00" cType="1" res="1.5185219235718250e-02" rms="4.0140584111213684e-01" purity="7.6537227630615234e-01" nType="-99"/>
            <Node pos="r" depth="3" NCoef="0" IVar="-1" Cut="0.0000000000000000e+00" cType="1" res="-4.0848121047019958e-02" rms="4.8769801855087280e-01" purity="4.2496311664581299e-01" nType="-99"/>
          </Node>
        </Node>
      </Node>
    </BinaryTree>
    <BinaryTree type="DecisionTree" boostWeight="1.0000000000000000e+00" itree="29">
      <Node pos="s" depth="0" NCoef="0" IVar="6" Cut="9.7692334651947021e-01" cType="1" res="-9.3840640038251877e-03" rms="3.7644019722938538e-01" purity="4.9237671494483948e-01" nType="0">
        <Node pos="l" depth="1" NCoef="0" IVar="-1" Cut="0.0000000000000000e+00" cType="1" res="-2.1544979885220528e-02" rms="2.3809459805488586e-01" purity="6.0084048658609390e-02" nType="-99"/>
        <Node pos="r" depth="1" NCoef="0" IVar="9" Cut="2.8999297618865967e+00" cType="1" res="1.6320537775754929e-02" rms="4.2650628089904785e-01" purity="7.0691329240798950e-01" nType="0">
          <Node pos="l" depth="2" NCoef="0" IVar="11" Cut="9.2307692766189575e-01" cType="1" res="5.4408304393291473e-02" rms="3.8672572374343872e-01" purity="7.7651774883270264e-01" nType="0">
            <Node pos="l" depth="3" NCoef="0" IVar="-1" Cut="0.0000000000000000e+00" cType="1" res="2.1711861714720726e-02" rms="3.5112142562866211e-01" purity="8.4074878692626953e-01" nType="-99"/>
            <Node pos="r" depth="3" NCoef="0" IVar="-1" Cut="0.0000000000000000e+00" cType="1" res="7.8314719721674919e-03" rms="3.9514294266700745e-01" purity="7.5795561075210571e-01" nType="-99"/>
          </Node>
          <Node pos="r" depth="2" NCoef="0" IVar="0" Cut="1.1374765634536743e-01" cType="1" res="-2.4069365113973618e-02" rms="4.6156701445579529e-01" purity="6.3310170173645020e-01" nType="0">
            <Node pos="l" depth="3" NCoef="0" IVar="-1" Cut="0.0000000000000000e+00" cType="1" res="1.5847295522689819e-02" rms="4.0533620119094849e-01" purity="7.5735956430435181e-01" nType="-99"/>
            <Node pos="r" depth="3" NCoef="0" IVar="-1" Cut="0.0000000000000000e+00" cType="1" res="-2.1349940448999405e-02" rms="4.8435455560684204e-01" purity="5.2278178930282593e-01" nType="-99"/>
          </Node>
        </Node>
      </Node>
    </BinaryTree>
    <BinaryTree type="DecisionTree" boostWeight="1.0000000000000000e+00" itree="30">
      <Node pos="s" depth="0" NCoef="0" IVar="6" Cut="9.7692334651947021e-01" cType="1" res="4.1799116879701614e-03" rms="3.7071773409843445e-01" purity="5.0959306955337524e-01" nType="0">
        <Node pos="l" depth="1" NCoef="0" IVar="-1" Cut="0.0000000000000000e+00" cType="1" res="-1.9621064886450768e-02" rms="2.4259495735168457e-01" purity="6.2616959214210510e-02" nType="-99"/>
        <Node pos="r" depth="1" NCoef="0" IVar="10" Cut="1.2028485536575317e-02" cType="1" res="3.2014079391956329e-02" rms="4.1567093133926392e-01" purity="7.2425836324691772e-01" nType="0">
          <Node pos="l" depth="2" NCoef="0" IVar="9" Cut="2.1749584674835205e+00" cType="1" res="4.2505521327257156e-02" rms="4.0705281496047974e-01" purity="7.5180631875991821e-01" nType="0">
            <Node pos="l" depth="3" NCoef="0" IVar="-1" Cut="0.0000000000000000e+00" cType="1" res="2.5979164987802505e-02" rms="3.1675261259078979e-01" purity="8.7994354963302612e-01" nType="-99"/>
            <Node pos="r" depth="3" NCoef="0" IVar="-1" Cut="0.0000000000000000e+00" cType="1" res="5.8416253887116909e-03" rms="4.1721382737159729e-01" purity="7.3329985141754150e-01" nType="-99"/>
          </Node>
          <Node pos="r" depth="2" NCoef="0" IVar="-1" Cut="0.0000000000000000e+00" cType="1" res="-1.0023270733654499e-02" rms="4.7748121619224548e-01" purity="4.6912431716918945e-01" nType="-99"/>
        </Node>
      </Node>
    </BinaryTree>
    <BinaryTree type="DecisionTree" boostWeight="1.0000000000000000e+00" itree="31">
      <Node pos="s" depth="0" NCoef="0" IVar="6" Cut="9.8461556434631348e-01" cType="1" res="-1.3457073830068111e-02" rms="3.7590402364730835e-01" purity="4.8498407006263733e-01" nType="0">
        <Node pos="l" depth="1" NCoef="0" IVar="-1" Cut="0.0000000000000000e+00" cType="1" res="-1.6225418075919151e-02" rms="2.7822491526603699e-01" purity="1.0155506432056427e-01" nType="-99"/>
        <Node pos="r" depth="1" NCoef="0" IVar="11" Cut="2.0769231319427490e+00" cType="1" res="1.0612204670906067e-02" rms="4.2505601048469543e-01" purity="7.3014771938323975e-01" nType="0">
          <Node pos="l" depth="2" NCoef="0" IVar="5" Cut="1.3967950820922852e+01" cType="1" res="2.2847635671496391e-02" rms="4.1820755600929260e-01" purity="7.4025768041610718e-01" nType="0">
            <Node pos="l" depth="3" NCoef="0" IVar="-1" Cut="0.0000000000000000e+00" cType="1" res="-5.7306136004626751e-03" rms="4.4521236419677734e-01" purity="6.7120420932769775e-01" nType="-99"/>
            <Node pos="r" depth="3" NCoef="0" IVar="-1" Cut="0.0000000000000000e+00" cType="1" res="8.8551742956042290e-03" rms="4.0407487750053406e-01" purity="7.6952528953552246e-01" nType="-99"/>
          </Node>
          <Node pos="r" depth="2" NCoef="0" IVar="-1" Cut="0.0000000000000000e+00" cType="1" res="-2.0029544830322266e-02" rms="4.6817821264266968e-01" purity="6.3910120725631714e-01" nType="-99"/>
        </Node>
      </Node>
    </BinaryTree>
    <BinaryTree type="DecisionTree" boostWeight="1.0000000000000000e+00" itree="32">
      <Node pos="s" depth="0" NCoef="0" IVar="6" Cut="9.7692334651947021e-01" cType="1" res="-2.1654979791492224e-03" rms="3.7039500474929810e-01" purity="4.9523186683654785e-01" nType="0">
        <Node pos="l" depth="1" NCoef="0" IVar="-1" Cut="0.0000000000000000e+00" cType="1" res="-1.9231075420975685e-02" rms="2.3700864613056183e-01" purity="5.9524334967136383e-02" nType="-99"/>
        <Node pos="r" depth="1" NCoef="0" IVar="11" Cut="9.2307692766189575e-01" cType="1" res="2.2326035425066948e-02" rms="4.2062795162200928e-01" purity="7.1844416856765747e-01" nType="0">
          <Node pos="l" depth="2" NCoef="0" IVar="0" Cut="1.9198243319988251e-01" cType="1" res="7.8601017594337463e-02" rms="3.9125508069992065e-01" purity="7.6631838083267212e-01" nType="0">
            <Node pos="l" depth="3" NCoef="0" IVar="-1" Cut="0.0000000000000000e+00" cType="1" res="3.2325569540262222e-02" rms="3.2030344009399414e-01" purity="8.6565852165222168e-01" nType="-99"/>
            <Node pos="r" depth="3" NCoef="0" IVar="-1" Cut="0.0000000000000000e+00" cType="1" res="-2.1025910973548889e-02" rms="4.4610017538070679e-01" purity="5.6652265787124634e-01" nType="-99"/>
          </Node>
          <Node pos="r" depth="2" NCoef="0" IVar="10" Cut="6.1541814357042313e-03" cType="1" res="-1.3191093690693378e-02" rms="4.3441748619079590e-01" purity="6.8822914361953735e-01" nType="0">
            <Node pos="l" depth="3" NCoef="0" IVar="-1" Cut="0.0000000000000000e+00" cType="1" res="6.3544451259076595e-03" rms="3.9808765053749084e-01" purity="7.6985830068588257e-01" nType="-99"/>
            <Node pos="r" depth="3" NCoef="0" IVar="-1" Cut="0.0000000000000000e+00" cType="1" res="-1.2125900015234947e-02" rms="4.7070020437240601e-01" purity="5.8462166786193848e-01" nType="-99"/>
          </Node>
        </Node>
      </Node>
    </BinaryTree>
    <BinaryTree type="DecisionTree" boostWeight="1.0000000000000000e+00" itree="33">
      <Node pos="s" depth="0" NCoef="0" IVar="6" Cut="9.7692334651947021e-01" cType="1" res="-9.0204039588570595e-04" rms="3.6935326457023621e-01" purity="4.9701520800590515e-01" nType="0">
        <Node pos="l" depth="1" NCoef="0" IVar="-1" Cut="0.0000000000000000e+00" cType="1" res="-1.8893182277679443e-02" rms="2.3479680716991425e-01" purity="5.8307290077209473e-02" nType="-99"/>
        <Node pos="r" depth="1" NCoef="0" IVar="4" Cut="8.3481538295745850e-01" cType="1" res="2.3647755384445190e-02" rms="4.2105686664581299e-01" purity="7.2701770067214966e-01" nType="0">
          <Node pos="l" depth="2" NCoef="0" IVar="5" Cut="1.7440561294555664e+01" cType="1" res="-2.3906225338578224e-02" rms="4.5216122269630432e-01" purity="6.3935393095016479e-01" nType="0">
            <Node pos="l" depth="3" NCoef="0" IVar="-1" Cut="0.0000000000000000e+00" cType="1" res="-1.9421245902776718e-02" rms="4.7484707832336426e-01" purity="5.4047816991806030e-01" nType="-99"/>
            <Node pos="r" depth="3" NCoef="0" IVar="-1" Cut="0.0000000000000000e+00" cType="1" res="1.0896894149482250e-02" rms="4.1207811236381531e-01" purity="7.3452711105346680e-01" nType="-99"/>
          </Node>
          <Node pos="r" depth="2" NCoef="0" IVar="8" Cut="-1.1286402940750122e+00" cType="1" res="3.8371901959180832e-02" rms="4.0983176231384277e-01" purity="7.5416105985641479e-01" nType="0">
            <Node pos="l" depth="3" NCoef="0" IVar="-1" Cut="0.0000000000000000e+00" cType="1" res="-5.7420688681304455e-03" rms="4.6485388278961182e-01" purity="5.7294213771820068e-01" nType="-99"/>
            <Node pos="r" depth="3" NCoef="0" IVar="-1" Cut="0.0000000000000000e+00" cType="1" res="9.9448831751942635e-03" rms="3.9951351284980774e-01" purity="7.8201818466186523e-01" nType="-99"/>
          </Node>
        </Node>
      </Node>
    </BinaryTree>
    <BinaryTree type="DecisionTree" boostWeight="1.0000000000000000e+00" itree="34">
      <Node pos="s" depth="0" NCoef="0" IVar="9" Cut="2.1752750873565674e+00" cType="1" res="-1.0428234003484249e-02" rms="3.7598204612731934e-01" purity="4.9162253737449646e-01" nType="0">
        <Node pos="l" depth="1" NCoef="0" IVar="10" Cut="7.6017584651708603e-03" cType="1" res="5.7490840554237366e-02" rms="3.3088245987892151e-01" purity="6.0394066572189331e-01" nType="0">
          <Node pos="l" depth="2" NCoef="0" IVar="-1" Cut="0.0000000000000000e+00" cType="1" res="2.5026706978678703e-02" rms="2.7848422527313232e-01" purity="7.3295772075653076e-01" nType="-99"/>
          <Node pos="r" depth="2" NCoef="0" IVar="-1" Cut="0.0000000000000000e+00" cType="1" res="3.2940537203103304e-03" rms="3.7660723924636841e-01" purity="4.5967364311218262e-01" nType="-99"/>
        </Node>
        <Node pos="r" depth="1" NCoef="0" IVar="0" Cut="1.5822002291679382e-01" cType="1" res="-2.0293273031711578e-02" rms="3.8108468055725098e-01" purity="4.7530868649482727e-01" nType="0">
          <Node pos="l" depth="2" NCoef="0" IVar="10" Cut="4.0363501757383347e-03" cType="1" res="4.8269134014844894e-02" rms="3.7192586064338684e-01" purity="5.7026880979537964e-01" nType="0">
            <Node pos="l" depth="3" NCoef="0" IVar="-1" Cut="0.0000000000000000e+00" cType="1" res="3.1996052712202072e-02" rms="3.1503483653068542e-01" purity="7.7871853113174438e-01" nType="-99"/>
            <Node pos="r" depth="3" NCoef="0" IVar="-1" Cut="0.0000000000000000e+00" cType="1" res="1.3321691658347845e-03" rms="3.8588604331016541e-01" purity="4.8190623521804810e-01" nType="-99"/>
          </Node>
          <Node pos="r" depth="2" NCoef="0" IVar="9" Cut="2.9185967445373535e+00" cType="1" res="-6.1681166291236877e-02" rms="3.8057604432106018e-01" purity="4.1798573732376099e-01" nType="0">
            <Node pos="l" depth="3" NCoef="0" IVar="-1" Cut="0.0000000000000000e+00" cType="1" res="-1.0486957617104053e-03" rms="3.6727374792098999e-01" purity="5.2059632539749146e-01" nType="-99"/>
            <Node pos="r" depth="3" NCoef="0" IVar="-1" Cut="0.0000000000000000e+00" cType="1" res="-3.6517888307571411e-02" rms="3.8264349102973938e-01" purity="2.3941734433174133e-01" nType="-99"/>
          </Node>
        </Node>
      </Node>
    </BinaryTree>
    <BinaryTree type="DecisionTree" boostWeight="1.0000000000000000e+00" itree="35">
      <Node pos="s" depth="0" NCoef="0" IVar="6" Cut="9.9230778217315674e-01" cType="1" res="2.2580150980502367e-03" rms="3.6772868037223816e-01" purity="5.0362157821655273e-01" nType="0">
        <Node pos="l" depth="1" NCoef="0" IVar="10" Cut="5.6907669641077518e-03" cType="1" res="-3.8173887878656387e-02" rms="2.9369089007377625e-01" purity="1.2518863379955292e-01" nType="0">
          <Node pos="l" depth="2" NCoef="0" IVar="-1" Cut="0.0000000000000000e+00" cType="1" res="-7.8981444239616394e-03" rms="3.2196897268295288e-01" purity="1.5959064662456512e-01" nType="-99"/>
          <Node pos="r" depth="2" NCoef="0" IVar="-1" Cut="0.0000000000000000e+00" cType="1" res="-1.6642399132251740e-02" rms="2.6667919754981995e-01" purity="9.5824643969535828e-02" nType="-99"/>
        </Node>
        <Node pos="r" depth="1" NCoef="0" IVar="8" Cut="1.6370122134685516e-01" cType="1" res="2.8661062940955162e-02" rms="4.0674120187759399e-01" purity="7.5074779987335205e-01" nType="0">
          <Node pos="l" depth="2" NCoef="0" IVar="8" Cut="-1.2285766601562500e+00" cType="1" res="0.0000000000000000e+00" rms="0.0000000000000000e+00" purity="7.8824472427368164e-01" nType="0">
            <Node pos="l" depth="3" NCoef="0" IVar="-1" Cut="0.0000000000000000e+00" cType="1" res="-2.6090671308338642e-03" rms="4.6645721793174744e-01" purity="5.8724117279052734e-01" nType="-99"/>
            <Node pos="r" depth="3" NCoef="0" IVar="-1" Cut="0.0000000000000000e+00" cType="1" res="1.7634360119700432e-02" rms="3.5550117492675781e-01" purity="8.3699572086334229e-01" nType="-99"/>
          </Node>
          <Node pos="r" depth="2" NCoef="0" IVar="3" Cut="1.9936898350715637e-01" cType="1" res="-1.5699995681643486e-02" rms="4.3055838346481323e-01" purity="7.0577281713485718e-01" nType="0">
            <Node pos="l" depth="3" NCoef="0" IVar="-1" Cut="0.0000000000000000e+00" cType="1" res="-1.2856834568083286e-02" rms="4.6274399757385254e-01" purity="6.3314050436019897e-01" nType="-99"/>
            <Node pos="r" depth="3" NCoef="0" IVar="-1" Cut="0.0000000000000000e+00" cType="1" res="1.0344274342060089e-02" rms="3.7611216306686401e-01" purity="7.9661434888839722e-01" nType="-99"/>
          </Node>
        </Node>
      </Node>
    </BinaryTree>
    <BinaryTree type="DecisionTree" boostWeight="1.0000000000000000e+00" itree="36">
      <Node pos="s" depth="0" NCoef="0" IVar="6" Cut="9.8461556434631348e-01" cType="1" res="7.8275324776768684e-03" rms="3.6734127998352051e-01" purity="5.1329010725021362e-01" nType="0">
        <Node pos="l" depth="1" NCoef="0" IVar="5" Cut="2.3586299896240234e+01" cType="1" res="-3.1146926805377007e-02" rms="2.9026132822036743e-01" purity="1.1253900825977325e-01" nType="0">
          <Node pos="l" depth="2" NCoef="0" IVar="-1" Cut="0.0000000000000000e+00" cType="1" res="-1.0424075648188591e-02" rms="3.0011484026908875e-01" purity="1.1772270500659943e-01" nType="-99"/>
          <Node pos="r" depth="2" NCoef="0" IVar="-1" Cut="0.0000000000000000e+00" cType="1" res="-1.0778184048831463e-02" rms="2.7750650048255920e-01" purity="1.0608633607625961e-01" nType="-99"/>
        </Node>
        <Node pos="r" depth="1" NCoef="0" IVar="9" Cut="2.1750514507293701e+00" cType="1" res="3.1605012714862823e-02" rms="4.0542715787887573e-01" purity="7.5777983665466309e-01" nType="0">
          <Node pos="l" depth="2" NCoef="0" IVar="-1" Cut="0.0000000000000000e+00" cType="1" res="1.8560610711574554e-02" rms="3.5547393560409546e-01" purity="8.4112030267715454e-01" nType="-99"/>
          <Node pos="r" depth="2" NCoef="0" IVar="8" Cut="-1.1289783716201782e+00" cType="1" res="0.0000000000000000e+00" rms="0.0000000000000000e+00" purity="7.4393039941787720e-01" nType="0">
            <Node pos="l" depth="3" NCoef="0" IVar="-1" Cut="0.0000000000000000e+00" cType="1" res="-8.0482456833124161e-03" rms="4.6684792637825012e-01" purity="5.5873751640319824e-01" nType="-99"/>
            <Node pos="r" depth="3" NCoef="0" IVar="-1" Cut="0.0000000000000000e+00" cType="1" res="6.7148315720260143e-03" rms="4.0229356288909912e-01" purity="7.7234315872192383e-01" nType="-99"/>
          </Node>
        </Node>
      </Node>
    </BinaryTree>
    <BinaryTree type="DecisionTree" boostWeight="1.0000000000000000e+00" itree="37">
      <Node pos="s" depth="0" NCoef="0" IVar="8" Cut="1.1335560083389282e+00" cType="1" res="-4.2691980488598347e-03" rms="3.7133339047431946e-01" purity="5.0095111131668091e-01" nType="0">
        <Node pos="l" depth="1" NCoef="0" IVar="8" Cut="-1.3527681827545166e+00" cType="1" res="0.0000000000000000e+00" rms="0.0000000000000000e+00" purity="5.2050578594207764e-01" nType="0">
          <Node pos="l" depth="2" NCoef="0" IVar="-1" Cut="0.0000000000000000e+00" cType="1" res="-1.4193496666848660e-02" rms="3.8239985704421997e-01" purity="3.1333130598068237e-01" nType="-99"/>
          <Node pos="r" depth="2" NCoef="0" IVar="6" Cut="9.8461556434631348e-01" cType="1" res="1.7360053956508636e-02" rms="3.6109158396720886e-01" purity="5.4915565252304077e-01" nType="0">
            <Node pos="l" depth="3" NCoef="0" IVar="-1" Cut="0.0000000000000000e+00" cType="1" res="-6.2854369170963764e-03" rms="3.0106416344642639e-01" purity="1.2601985037326813e-01" nType="-99"/>
            <Node pos="r" depth="3" NCoef="0" IVar="-1" Cut="0.0000000000000000e+00" cType="1" res="7.6806196011602879e-03" rms="3.8928401470184326e-01" purity="7.8619080781936646e-01" nType="-99"/>
          </Node>
        </Node>
        <Node pos="r" depth="1" NCoef="0" IVar="9" Cut="2.8999297618865967e+00" cType="1" res="-7.8109242022037506e-02" rms="4.0344694256782532e-01" purity="3.7456202507019043e-01" nType="0">
          <Node pos="l" depth="2" NCoef="0" IVar="-1" Cut="0.0000000000000000e+00" cType="1" res="-2.4797277525067329e-02" rms="4.1643792390823364e-01" purity="3.7858182191848755e-01" nType="-99"/>
          <Node pos="r" depth="2" NCoef="0" IVar="-1" Cut="0.0000000000000000e+00" cType="1" res="-7.7134612947702408e-03" rms="3.8080540299415588e-01" purity="3.6913993954658508e-01" nType="-99"/>
        </Node>
      </Node>
    </BinaryTree>
    <BinaryTree type="DecisionTree" boostWeight="1.0000000000000000e+00" itree="38">
      <Node pos="s" depth="0" NCoef="0" IVar="8" Cut="1.1335560083389282e+00" cType="1" res="-6.0880854725837708e-03" rms="3.7666779756546021e-01" purity="5.0731933116912842e-01" nType="0">
        <Node pos="l" depth="1" NCoef="0" IVar="3" Cut="1.6150841116905212e-01" cType="1" res="0.0000000000000000e+00" rms="0.0000000000000000e+00" purity="5.2708691358566284e-01" nType="0">
          <Node pos="l" depth="2" NCoef="0" IVar="10" Cut="4.3834238313138485e-03" cType="1" res="2.4677855893969536e-02" rms="3.6710101366043091e-01" purity="5.4612910747528076e-01" nType="0">
            <Node pos="l" depth="3" NCoef="0" IVar="-1" Cut="0.0000000000000000e+00" cType="1" res="1.4581336639821529e-02" rms="3.2983478903770447e-01" purity="6.1223226785659790e-01" nType="-99"/>
            <Node pos="r" depth="3" NCoef="0" IVar="-1" Cut="0.0000000000000000e+00" cType="1" res="-5.9221099945716560e-05" rms="3.9174744486808777e-01" purity="4.9490010738372803e-01" nType="-99"/>
          </Node>
          <Node pos="r" depth="2" NCoef="0" IVar="5" Cut="1.9395853042602539e+01" cType="1" res="-3.3164244145154953e-02" rms="3.8264045119285583e-01" purity="4.9598166346549988e-01" nType="0">
            <Node pos="l" depth="3" NCoef="0" IVar="-1" Cut="0.0000000000000000e+00" cType="1" res="-2.0385164767503738e-02" rms="4.1536214947700500e-01" purity="4.5414584875106812e-01" nType="-99"/>
            <Node pos="r" depth="3" NCoef="0" IVar="-1" Cut="0.0000000000000000e+00" cType="1" res="2.7893581427633762e-03" rms="3.4866741299629211e-01" purity="5.2856165170669556e-01" nType="-99"/>
          </Node>
        </Node>
        <Node pos="r" depth="1" NCoef="0" IVar="5" Cut="2.2081043243408203e+01" cType="1" res="-6.3575334846973419e-02" rms="3.8794293999671936e-01" purity="3.7821355462074280e-01" nType="0">
          <Node pos="l" depth="2" NCoef="0" IVar="-1" Cut="0.0000000000000000e+00" cType="1" res="-2.1325502544641495e-02" rms="3.8501822948455811e-01" purity="3.2272064685821533e-01" nType="-99"/>
          <Node pos="r" depth="2" NCoef="0" IVar="-1" Cut="0.0000000000000000e+00" cType="1" res="-3.0594177078455687e-03" rms="3.8677725195884705e-01" purity="4.5950311422348022e-01" nType="-99"/>
        </Node>
      </Node>
    </BinaryTree>
    <BinaryTree type="DecisionTree" boostWeight="1.0000000000000000e+00" itree="39">
      <Node pos="s" depth="0" NCoef="0" IVar="8" Cut="1.1333869695663452e+00" cType="1" res="-2.8151602018624544e-03" rms="3.7300467491149902e-01" purity="5.0443261861801147e-01" nType="0">
        <Node pos="l" depth="1" NCoef="0" IVar="8" Cut="-1.3533738851547241e+00" cType="1" res="6.9754770956933498e-03" rms="3.6872589588165283e-01" purity="5.2603375911712646e-01" nType="0">
          <Node pos="l" depth="2" NCoef="0" IVar="-1" Cut="0.0000000000000000e+00" cType="1" res="-1.6840476542711258e-02" rms="3.8391050696372986e-01" purity="2.9954186081886292e-01" nType="-99"/>
          <Node pos="r" depth="2" NCoef="0" IVar="6" Cut="9.9230819940567017e-01" cType="1" res="1.9615579396486282e-02" rms="3.6473864316940308e-01" purity="5.5920714139938354e-01" nType="0">
            <Node pos="l" depth="3" NCoef="0" IVar="-1" Cut="0.0000000000000000e+00" cType="1" res="-3.6388048902153969e-03" rms="3.1266081333160400e-01" purity="1.5142053365707397e-01" nType="-99"/>
            <Node pos="r" depth="3" NCoef="0" IVar="-1" Cut="0.0000000000000000e+00" cType="1" res="7.7545568346977234e-03" rms="3.9044529199600220e-01" purity="7.9323238134384155e-01" nType="-99"/>
          </Node>
        </Node>
        <Node pos="r" depth="1" NCoef="0" IVar="8" Cut="1.5064405202865601e+00" cType="1" res="-6.4798228442668915e-02" rms="3.9341571927070618e-01" purity="3.6767911911010742e-01" nType="0">
          <Node pos="l" depth="2" NCoef="0" IVar="-1" Cut="0.0000000000000000e+00" cType="1" res="-2.3414973169565201e-02" rms="4.3056142330169678e-01" purity="3.8571676611900330e-01" nType="-99"/>
          <Node pos="r" depth="2" NCoef="0" IVar="-1" Cut="0.0000000000000000e+00" cType="1" res="-6.4459671266376972e-03" rms="3.5198786854743958e-01" purity="3.5116729140281677e-01" nType="-99"/>
        </Node>
      </Node>
    </BinaryTree>
    <BinaryTree type="DecisionTree" boostWeight="1.0000000000000000e+00" itree="40">
      <Node pos="s" depth="0" NCoef="0" IVar="4" Cut="4.4625970721244812e-01" cType="1" res="0.0000000000000000e+00" rms="0.0000000000000000e+00" purity="4.9289306998252869e-01" nType="0">
        <Node pos="l" depth="1" NCoef="0" IVar="-1" Cut="0.0000000000000000e+00" cType="1" res="-2.2183066233992577e-02" rms="3.5628080368041992e-01" purity="2.8759813308715820e-01" nType="-99"/>
        <Node pos="r" depth="1" NCoef="0" IVar="6" Cut="9.7694361209869385e-01" cType="1" res="0.0000000000000000e+00" rms="0.0000000000000000e+00" purity="5.0837993621826172e-01" nType="0">
          <Node pos="l" depth="2" NCoef="0" IVar="-1" Cut="0.0000000000000000e+00" cType="1" res="-1.4812986366450787e-02" rms="2.3794907331466675e-01" purity="6.0331400483846664e-02" nType="-99"/>
          <Node pos="r" depth="2" NCoef="0" IVar="11" Cut="2.0769231319427490e+00" cType="1" res="2.3268183693289757e-02" rms="4.1337418556213379e-01" purity="7.3388046026229858e-01" nType="0">
            <Node pos="l" depth="3" NCoef="0" IVar="-1" Cut="0.0000000000000000e+00" cType="1" res="6.7013790830969810e-03" rms="4.0892890095710754e-01" purity="7.4497932195663452e-01" nType="-99"/>
            <Node pos="r" depth="3" NCoef="0" IVar="-1" Cut="0.0000000000000000e+00" cType="1" res="-1.4160614460706711e-02" rms="4.3951627612113953e-01" purity="6.3573276996612549e-01" nType="-99"/>
          </Node>
        </Node>
      </Node>
    </BinaryTree>
    <BinaryTree type="DecisionTree" boostWeight="1.0000000000000000e+00" itree="41">
      <Node pos="s" depth="0" NCoef="0" IVar="10" Cut="1.0769805870950222e-02" cType="1" res="0.0000000000000000e+00" rms="0.0000000000000000e+00" purity="4.9732956290245056e-01" nType="0">
        <Node pos="l" depth="1" NCoef="0" IVar="6" Cut="9.7692465782165527e-01" cType="1" res="1.2261002324521542e-02" rms="3.5754600167274475e-01" purity="5.3094059228897095e-01" nType="0">
          <Node pos="l" depth="2" NCoef="0" IVar="-1" Cut="0.0000000000000000e+00" cType="1" res="-1.2332011014223099e-02" rms="2.4364703893661499e-01" purity="6.3444189727306366e-02" nType="-99"/>
          <Node pos="r" depth="2" NCoef="0" IVar="11" Cut="2.7692308425903320e+00" cType="1" res="3.1756930053234100e-02" rms="4.0081375837326050e-01" purity="7.6278662681579590e-01" nType="0">
            <Node pos="l" depth="3" NCoef="0" IVar="-1" Cut="0.0000000000000000e+00" cType="1" res="7.9702511429786682e-03" rms="3.9675384759902954e-01" purity="7.7015799283981323e-01" nType="-99"/>
            <Node pos="r" depth="3" NCoef="0" IVar="-1" Cut="0.0000000000000000e+00" cType="1" res="-7.5444113463163376e-03" rms="4.3094709515571594e-01" purity="6.9377976655960083e-01" nType="-99"/>
          </Node>
        </Node>
        <Node pos="r" depth="1" NCoef="0" IVar="11" Cut="6.9230771064758301e-01" cType="1" res="-3.3257707953453064e-02" rms="3.7904053926467896e-01" purity="3.2644340395927429e-01" nType="0">
          <Node pos="l" depth="2" NCoef="0" IVar="-1" Cut="0.0000000000000000e+00" cType="1" res="3.2604553271085024e-03" rms="3.6230641603469849e-01" purity="3.7435552477836609e-01" nType="-99"/>
          <Node pos="r" depth="2" NCoef="0" IVar="-1" Cut="0.0000000000000000e+00" cType="1" res="-1.4059464447200298e-02" rms="3.8644054532051086e-01" purity="2.9499939084053040e-01" nType="-99"/>
        </Node>
      </Node>
    </BinaryTree>
    <BinaryTree type="DecisionTree" boostWeight="1.0000000000000000e+00" itree="42">
      <Node pos="s" depth="0" NCoef="0" IVar="6" Cut="9.7692334651947021e-01" cType="1" res="2.9905848205089569e-03" rms="3.5741958022117615e-01" purity="4.9201413989067078e-01" nType="0">
        <Node pos="l" depth="1" NCoef="0" IVar="-1" Cut="0.0000000000000000e+00" cType="1" res="-1.6306573525071144e-02" rms="2.2683325409889221e-01" purity="5.4419238120317459e-02" nType="-99"/>
        <Node pos="r" depth="1" NCoef="0" IVar="3" Cut="4.8452523350715637e-01" cType="1" res="2.4160813540220261e-02" rms="4.1029140353202820e-01" purity="7.3207718133926392e-01" nType="0">
          <Node pos="l" depth="2" NCoef="0" IVar="9" Cut="2.8999941349029541e+00" cType="1" res="1.7197519540786743e-02" rms="4.1637787222862244e-01" purity="7.2349411249160767e-01" nType="0">
            <Node pos="l" depth="3" NCoef="0" IVar="-1" Cut="0.0000000000000000e+00" cType="1" res="8.0148661509156227e-03" rms="3.8948506116867065e-01" purity="7.7369660139083862e-01" nType="-99"/>
            <Node pos="r" depth="3" NCoef="0" IVar="-1" Cut="0.0000000000000000e+00" cType="1" res="-1.1263203341513872e-03" rms="4.4357922673225403e-01" purity="6.6691464185714722e-01" nType="-99"/>
          </Node>
          <Node pos="r" depth="2" NCoef="0" IVar="8" Cut="5.2247214317321777e-01" cType="1" res="5.3845752030611038e-02" rms="3.8183963298797607e-01" purity="7.6866751909255981e-01" nType="0">
            <Node pos="l" depth="3" NCoef="0" IVar="-1" Cut="0.0000000000000000e+00" cType="1" res="2.1694103255867958e-02" rms="3.3300033211708069e-01" purity="8.1588441133499146e-01" nType="-99"/>
            <Node pos="r" depth="3" NCoef="0" IVar="-1" Cut="0.0000000000000000e+00" cType="1" res="1.5267363050952554e-04" rms="4.1712841391563416e-01" purity="7.2280317544937134e-01" nType="-99"/>
          </Node>
        </Node>
      </Node>
    </BinaryTree>
    <BinaryTree type="DecisionTree" boostWeight="1.0000000000000000e+00" itree="43">
      <Node pos="s" depth="0" NCoef="0" IVar="6" Cut="9.7693675756454468e-01" cType="1" res="1.4752692077308893e-03" rms="3.6213266849517822e-01" purity="4.9874210357666016e-01" nType="0">
        <Node pos="l" depth="1" NCoef="0" IVar="-1" Cut="0.0000000000000000e+00" cType="1" res="-1.3113593682646751e-02" rms="2.3626449704170227e-01" purity="5.9331223368644714e-02" nType="-99"/>
        <Node pos="r" depth="1" NCoef="0" IVar="11" Cut="2.7692308425903320e+00" cType="1" res="0.0000000000000000e+00" rms="0.0000000000000000e+00" purity="7.2350794076919556e-01" nType="0">
          <Node pos="l" depth="2" NCoef="0" IVar="8" Cut="1.1332319974899292e+00" cType="1" res="2.4431794881820679e-02" rms="4.0719422698020935e-01" purity="7.3232012987136841e-01" nType="0">
            <Node pos="l" depth="3" NCoef="0" IVar="-1" Cut="0.0000000000000000e+00" cType="1" res="6.8007740192115307e-03" rms="3.9830604195594788e-01" purity="7.5137072801589966e-01" nType="-99"/>
            <Node pos="r" depth="3" NCoef="0" IVar="-1" Cut="0.0000000000000000e+00" cType="1" res="-7.6459292322397232e-03" rms="4.6118021011352539e-01" purity="5.9345233440399170e-01" nType="-99"/>
          </Node>
          <Node pos="r" depth="2" NCoef="0" IVar="-1" Cut="0.0000000000000000e+00" cType="1" res="-1.0998968966305256e-02" rms="4.3843981623649597e-01" purity="6.4337068796157837e-01" nType="-99"/>
        </Node>
      </Node>
    </BinaryTree>
    <BinaryTree type="DecisionTree" boostWeight="1.0000000000000000e+00" itree="44">
      <Node pos="s" depth="0" NCoef="0" IVar="4" Cut="7.5710237026214600e-01" cType="1" res="0.0000000000000000e+00" rms="0.0000000000000000e+00" purity="5.0401228666305542e-01" nType="0">
        <Node pos="l" depth="1" NCoef="0" IVar="10" Cut="6.0530612245202065e-03" cType="1" res="-4.2875632643699646e-02" rms="3.5595968365669250e-01" purity="3.6663571000099182e-01" nType="0">
          <Node pos="l" depth="2" NCoef="0" IVar="-1" Cut="0.0000000000000000e+00" cType="1" res="7.4330973438918591e-03" rms="3.3017832040786743e-01" purity="4.9519029259681702e-01" nType="-99"/>
          <Node pos="r" depth="2" NCoef="0" IVar="-1" Cut="0.0000000000000000e+00" cType="1" res="-2.2805996239185333e-02" rms="3.6514410376548767e-01" purity="2.6518893241882324e-01" nType="-99"/>
        </Node>
        <Node pos="r" depth="1" NCoef="0" IVar="0" Cut="5.2147698402404785e-01" cType="1" res="1.3709067367017269e-02" rms="3.6685007810592651e-01" purity="5.3678905963897705e-01" nType="0">
          <Node pos="l" depth="2" NCoef="0" IVar="0" Cut="2.4095250666141510e-01" cType="1" res="2.6837253943085670e-02" rms="3.6122882366180420e-01" purity="5.4188001155853271e-01" nType="0">
            <Node pos="l" depth="3" NCoef="0" IVar="-1" Cut="0.0000000000000000e+00" cType="1" res="1.6054712235927582e-02" rms="3.4628218412399292e-01" purity="5.9573280811309814e-01" nType="-99"/>
            <Node pos="r" depth="3" NCoef="0" IVar="-1" Cut="0.0000000000000000e+00" cType="1" res="-9.2668412253260612e-03" rms="3.7490898370742798e-01" purity="4.5783123373985291e-01" nType="-99"/>
          </Node>
          <Node pos="r" depth="2" NCoef="0" IVar="1" Cut="7.8177469968795776e-01" cType="1" res="-5.2603174000978470e-02" rms="3.8727775216102600e-01" purity="5.1107418537139893e-01" nType="0">
            <Node pos="l" depth="3" NCoef="0" IVar="-1" Cut="0.0000000000000000e+00" cType="1" res="4.4400482438504696e-03" rms="3.3313366770744324e-01" purity="5.6823509931564331e-01" nType="-99"/>
            <Node pos="r" depth="3" NCoef="0" IVar="-1" Cut="0.0000000000000000e+00" cType="1" res="-3.0573887750506401e-02" rms="4.2023277282714844e-01" purity="4.5955470204353333e-01" nType="-99"/>
          </Node>
        </Node>
      </Node>
    </BinaryTree>
    <BinaryTree type="DecisionTree" boostWeight="1.0000000000000000e+00" itree="45">
      <Node pos="s" depth="0" NCoef="0" IVar="6" Cut="9.9230778217315674e-01" cType="1" res="4.1725649498403072e-03" rms="3.6148342490196228e-01" purity="5.0311571359634399e-01" nType="0">
        <Node pos="l" depth="1" NCoef="0" IVar="6" Cut="9.7807013988494873e-01" cType="1" res="-2.3432275280356407e-02" rms="2.8989949822425842e-01" purity="1.2184300273656845e-01" nType="0">
          <Node pos="l" depth="2" NCoef="0" IVar="-1" Cut="0.0000000000000000e+00" cType="1" res="-1.2494949623942375e-02" rms="2.4383723735809326e-01" purity="6.5508626401424408e-02" nType="-99"/>
          <Node pos="r" depth="2" NCoef="0" IVar="-1" Cut="0.0000000000000000e+00" cType="1" res="2.1643079526256770e-04" rms="4.9636155366897583e-01" purity="4.9542874097824097e-01" nType="-99"/>
        </Node>
        <Node pos="r" depth="1" NCoef="0" IVar="9" Cut="2.8999469280242920e+00" cType="1" res="2.2647254168987274e-02" rms="4.0127965807914734e-01" purity="7.5828450918197632e-01" nType="0">
          <Node pos="l" depth="2" NCoef="0" IVar="2" Cut="1.3450773954391479e+00" cType="1" res="4.5955348759889603e-02" rms="3.7163978815078735e-01" purity="8.1049960851669312e-01" nType="0">
            <Node pos="l" depth="3" NCoef="0" IVar="-1" Cut="0.0000000000000000e+00" cType="1" res="-1.8139908788725734e-03" rms="4.1750982403755188e-01" purity="7.4345892667770386e-01" nType="-99"/>
            <Node pos="r" depth="3" NCoef="0" IVar="-1" Cut="0.0000000000000000e+00" cType="1" res="2.3087942972779274e-02" rms="3.0845704674720764e-01" purity="8.7879878282546997e-01" nType="-99"/>
          </Node>
          <Node pos="r" depth="2" NCoef="0" IVar="0" Cut="1.7673882842063904e-01" cType="1" res="-3.8149978499859571e-03" rms="4.3094980716705322e-01" purity="6.9900345802307129e-01" nType="0">
            <Node pos="l" depth="3" NCoef="0" IVar="-1" Cut="0.0000000000000000e+00" cType="1" res="1.5430355444550514e-02" rms="3.7524810433387756e-01" purity="8.0404478311538696e-01" nType="-99"/>
            <Node pos="r" depth="3" NCoef="0" IVar="-1" Cut="0.0000000000000000e+00" cType="1" res="-3.1802423298358917e-02" rms="4.8717442154884338e-01" purity="4.6153274178504944e-01" nType="-99"/>
          </Node>
        </Node>
      </Node>
    </BinaryTree>
    <BinaryTree type="DecisionTree" boostWeight="1.0000000000000000e+00" itree="46">
      <Node pos="s" depth="0" NCoef="0" IVar="8" Cut="-8.0626618862152100e-01" cType="1" res="1.0514556430280209e-02" rms="3.6002734303474426e-01" purity="5.1497930288314819e-01" nType="0">
        <Node pos="l" depth="1" NCoef="0" IVar="11" Cut="6.9230771064758301e-01" cType="1" res="-3.3342808485031128e-02" rms="3.8160040974617004e-01" purity="4.0491169691085815e-01" nType="0">
          <Node pos="l" depth="2" NCoef="0" IVar="-1" Cut="0.0000000000000000e+00" cType="1" res="-8.4608281031250954e-04" rms="3.6566790938377380e-01" purity="4.2986282706260681e-01" nType="-99"/>
          <Node pos="r" depth="2" NCoef="0" IVar="8" Cut="-1.3038212060928345e+00" cType="1" res="-5.2771814167499542e-02" rms="3.9044147729873657e-01" purity="3.8860556483268738e-01" nType="0">
            <Node pos="l" depth="3" NCoef="0" IVar="-1" Cut="0.0000000000000000e+00" cType="1" res="-1.8589450046420097e-02" rms="4.0441071987152100e-01" purity="3.1288060545921326e-01" nType="-99"/>
            <Node pos="r" depth="3" NCoef="0" IVar="-1" Cut="0.0000000000000000e+00" cType="1" res="-5.2204136736690998e-03" rms="3.7462219595909119e-01" purity="4.5629256963729858e-01" nType="-99"/>
          </Node>
        </Node>
        <Node pos="r" depth="1" NCoef="0" IVar="4" Cut="5.2401965856552124e-01" cType="1" res="2.4554738774895668e-02" rms="3.5168871283531189e-01" purity="5.5021554231643677e-01" nType="0">
          <Node pos="l" depth="2" NCoef="0" IVar="-1" Cut="0.0000000000000000e+00" cType="1" res="-1.1807085946202278e-02" rms="3.4475177526473999e-01" purity="3.3076885342597961e-01" nType="-99"/>
          <Node pos="r" depth="2" NCoef="0" IVar="6" Cut="9.9231225252151489e-01" cType="1" res="3.1749125570058823e-02" rms="3.5157471895217896e-01" purity="5.7229399681091309e-01" nType="0">
            <Node pos="l" depth="3" NCoef="0" IVar="-1" Cut="0.0000000000000000e+00" cType="1" res="2.4366613943129778e-03" rms="3.1194242835044861e-01" purity="1.5559712052345276e-01" nType="-99"/>
            <Node pos="r" depth="3" NCoef="0" IVar="-1" Cut="0.0000000000000000e+00" cType="1" res="1.0042865760624409e-02" rms="3.7169799208641052e-01" purity="8.1210595369338989e-01" nType="-99"/>
          </Node>
        </Node>
      </Node>
    </BinaryTree>
    <BinaryTree type="DecisionTree" boostWeight="1.0000000000000000e+00" itree="47">
      <Node pos="s" depth="0" NCoef="0" IVar="6" Cut="9.7694361209869385e-01" cType="1" res="1.1526443995535374e-02" rms="3.5744628310203552e-01" purity="5.1423192024230957e-01" nType="0">
        <Node pos="l" depth="1" NCoef="0" IVar="-1" Cut="0.0000000000000000e+00" cType="1" res="-1.1191080324351788e-02" rms="2.3755593597888947e-01" purity="6.0216531157493591e-02" nType="-99"/>
        <Node pos="r" depth="1" NCoef="0" IVar="11" Cut="6.9230771064758301e-01" cType="1" res="0.0000000000000000e+00" rms="0.0000000000000000e+00" purity="7.5019961595535278e-01" nType="0">
          <Node pos="l" depth="2" NCoef="0" IVar="0" Cut="1.9205586612224579e-01" cType="1" res="6.4704053103923798e-02" rms="3.7969383597373962e-01" purity="7.8987830877304077e-01" nType="0">
            <Node pos="l" depth="3" NCoef="0" IVar="-1" Cut="0.0000000000000000e+00" cType="1" res="2.7404960244894028e-02" rms="3.2512292265892029e-01" purity="8.7026530504226685e-01" nType="-99"/>
            <Node pos="r" depth="3" NCoef="0" IVar="-1" Cut="0.0000000000000000e+00" cType="1" res="-1.6147563233971596e-02" rms="4.4183292984962463e-01" purity="6.1576843261718750e-01" nType="-99"/>
          </Node>
          <Node pos="r" depth="2" NCoef="0" IVar="8" Cut="1.6387024521827698e-01" cType="1" res="6.0236933641135693e-03" rms="4.1897439956665039e-01" purity="7.2411292791366577e-01" nType="0">
            <Node pos="l" depth="3" NCoef="0" IVar="-1" Cut="0.0000000000000000e+00" cType="1" res="7.0317974314093590e-03" rms="4.0090021491050720e-01" purity="7.5376021862030029e-01" nType="-99"/>
            <Node pos="r" depth="3" NCoef="0" IVar="-1" Cut="0.0000000000000000e+00" cType="1" res="-5.7044737040996552e-03" rms="4.3780538439750671e-01" purity="6.8749195337295532e-01" nType="-99"/>
          </Node>
        </Node>
      </Node>
    </BinaryTree>
    <BinaryTree type="DecisionTree" boostWeight="1.0000000000000000e+00" itree="48">
      <Node pos="s" depth="0" NCoef="0" IVar="9" Cut="2.8999938964843750e+00" cType="1" res="0.0000000000000000e+00" rms="0.0000000000000000e+00" purity="4.8709261417388916e-01" nType="0">
        <Node pos="l" depth="1" NCoef="0" IVar="2" Cut="1.9743906259536743e+00" cType="1" res="1.5706449747085571e-02" rms="3.4838089346885681e-01" purity="5.5131089687347412e-01" nType="0">
          <Node pos="l" depth="2" NCoef="0" IVar="9" Cut="2.6769213676452637e+00" cType="1" res="0.0000000000000000e+00" rms="0.0000000000000000e+00" purity="5.1879274845123291e-01" nType="0">
            <Node pos="l" depth="3" NCoef="0" IVar="-1" Cut="0.0000000000000000e+00" cType="1" res="2.6141956914216280e-03" rms="3.6838799715042114e-01" purity="5.5982035398483276e-01" nType="-99"/>
            <Node pos="r" depth="3" NCoef="0" IVar="-1" Cut="0.0000000000000000e+00" cType="1" res="-1.9170951098203659e-02" rms="3.5489612817764282e-01" purity="3.6365139484405518e-01" nType="-99"/>
          </Node>
          <Node pos="r" depth="2" NCoef="0" IVar="11" Cut="5.3846156597137451e-01" cType="1" res="7.5225390493869781e-02" rms="2.8126540780067444e-01" purity="6.4337104558944702e-01" nType="0">
            <Node pos="l" depth="3" NCoef="0" IVar="-1" Cut="0.0000000000000000e+00" cType="1" res="3.1647890806198120e-02" rms="2.4765828251838684e-01" purity="7.1394205093383789e-01" nType="-99"/>
            <Node pos="r" depth="3" NCoef="0" IVar="-1" Cut="0.0000000000000000e+00" cType="1" res="1.1056445538997650e-02" rms="3.0409836769104004e-01" purity="5.8087909221649170e-01" nType="-99"/>
          </Node>
        </Node>
        <Node pos="r" depth="1" NCoef="0" IVar="0" Cut="1.8262001872062683e-01" cType="1" res="-3.8314107805490494e-02" rms="3.7688663601875305e-01" purity="4.2329606413841248e-01" nType="0">
          <Node pos="l" depth="2" NCoef="0" IVar="9" Cut="3.1044149398803711e+00" cType="1" res="5.4865940473973751e-03" rms="3.7735056877136230e-01" purity="5.2386975288391113e-01" nType="0">
            <Node pos="l" depth="3" NCoef="0" IVar="-1" Cut="0.0000000000000000e+00" cType="1" res="8.0584911629557610e-03" rms="3.6918628215789795e-01" purity="5.6652867794036865e-01" nType="-99"/>
            <Node pos="r" depth="3" NCoef="0" IVar="-1" Cut="0.0000000000000000e+00" cType="1" res="-2.0578335970640182e-02" rms="3.8840046525001526e-01" purity="3.9212149381637573e-01" nType="-99"/>
          </Node>
