<?xml version="1.0"?>
<MethodSetup Method="BDT::BDTG">
  <GeneralInfo>
    <Info name="TMVA Release" value="4.2.1 [262657]"/>
    <Info name="ROOT Release" value="6.26/04 [399876]"/>
    <Info name="Creator" value="kyoon"/>
    <Info name="Date" value="Mon Feb 13 02:38:44 2023"/>
    <Info name="Host" value="Linux centos7-docker 4.18.0-365.el8.x86_64 #1 SMP Thu Feb 10 16:11:23 UTC 2022 x86_64 x86_64 x86_64 GNU/Linux"/>
    <Info name="Dir" value="/work/submit/kyoon/CMSSW_10_6_27/src/HiggsRareDecay/macros/plot_MVA"/>
    <Info name="Training events" value="157292"/>
    <Info name="TrainingTime" value="1.69168348e+01"/>
    <Info name="AnalysisType" value="Classification"/>
  </GeneralInfo>
  <Options>
    <Option name="V" modified="Yes">False</Option>
    <Option name="VerbosityLevel" modified="No">Default</Option>
    <Option name="VarTransform" modified="Yes">D</Option>
    <Option name="H" modified="No">False</Option>
    <Option name="CreateMVAPdfs" modified="No">False</Option>
    <Option name="IgnoreNegWeightsInTraining" modified="No">False</Option>
    <Option name="NTrees" modified="Yes">110</Option>
    <Option name="MaxDepth" modified="Yes">4</Option>
    <Option name="MinNodeSize" modified="No">5%</Option>
    <Option name="nCuts" modified="Yes">11</Option>
    <Option name="BoostType" modified="Yes">Grad</Option>
    <Option name="AdaBoostR2Loss" modified="No">quadratic</Option>
    <Option name="UseBaggedBoost" modified="Yes">True</Option>
    <Option name="Shrinkage" modified="Yes">6.400000e-02</Option>
    <Option name="AdaBoostBeta" modified="No">5.000000e-01</Option>
    <Option name="UseRandomisedTrees" modified="Yes">True</Option>
    <Option name="UseNvars" modified="Yes">10</Option>
    <Option name="UsePoissonNvars" modified="No">True</Option>
    <Option name="BaggedSampleFraction" modified="Yes">7.500000e-01</Option>
    <Option name="UseYesNoLeaf" modified="No">True</Option>
    <Option name="NegWeightTreatment" modified="No">pray</Option>
    <Option name="Css" modified="No">1.000000e+00</Option>
    <Option name="Cts_sb" modified="No">1.000000e+00</Option>
    <Option name="Ctb_ss" modified="No">1.000000e+00</Option>
    <Option name="Cbb" modified="No">1.000000e+00</Option>
    <Option name="NodePurityLimit" modified="No">5.000000e-01</Option>
    <Option name="SeparationType" modified="Yes">giniindex</Option>
    <Option name="RegressionLossFunctionBDTG" modified="No">huber</Option>
    <Option name="HuberQuantile" modified="No">7.000000e-01</Option>
    <Option name="DoBoostMonitor" modified="No">False</Option>
    <Option name="UseFisherCuts" modified="No">False</Option>
    <Option name="MinLinCorrForFisher" modified="No">8.000000e-01</Option>
    <Option name="UseExclusiveVars" modified="No">False</Option>
    <Option name="DoPreselection" modified="No">False</Option>
    <Option name="SigToBkgFraction" modified="No">1.000000e+00</Option>
    <Option name="PruneMethod" modified="Yes">costcomplexity</Option>
    <Option name="PruneStrength" modified="Yes">1.200000e+02</Option>
    <Option name="PruningValFraction" modified="No">5.000000e-01</Option>
    <Option name="SkipNormalization" modified="No">False</Option>
    <Option name="nEventsMin" modified="No">0</Option>
    <Option name="UseBaggedGrad" modified="No">False</Option>
    <Option name="GradBaggingFraction" modified="No">7.500000e-01</Option>
    <Option name="UseNTrainEvents" modified="No">0</Option>
    <Option name="NNodesMax" modified="No">0</Option>
  </Options>
  <Variables NVar="13">
    <Variable VarIndex="0" Expression="HCandPT" Label="HCandPT" Title="HCandPT" Unit="" Internal="HCandPT" Type="F" Min="2.59514022e+00" Max="1.11887366e+03"/>
    <Variable VarIndex="1" Expression="photon_pt[index_pair[1]]" Label="photon_pt[index_pair[1]]" Title="photon_pt" Unit="" Internal="photon_pt_index_pair_1__" Type="F" Min="7.50004654e+01" Max="1.07576514e+03"/>
    <Variable VarIndex="2" Expression="meson_pt[index_pair[0]]" Label="meson_pt[index_pair[0]]" Title="meson_pt" Unit="" Internal="meson_pt_index_pair_0__" Type="F" Min="2.03989391e+01" Max="8.48564148e+02"/>
    <Variable VarIndex="3" Expression="photon_eta[index_pair[1]]" Label="photon_eta[index_pair[1]]" Title="photon_eta" Unit="" Internal="photon_eta_index_pair_1__" Type="F" Min="-1.47216797e+00" Max="1.46948242e+00"/>
    <Variable VarIndex="4" Expression="photon_mvaID[index_pair[1]]" Label="photon_mvaID[index_pair[1]]" Title="photon_mvaID" Unit="" Internal="photon_mvaID_index_pair_1__" Type="F" Min="-1.98059082e-02" Max="9.90234375e-01"/>
    <Variable VarIndex="5" Expression="DeepMETResolutionTune_pt" Label="DeepMETResolutionTune_pt" Title="DeepMETResolutionTune_pt" Unit="GeV/c" Internal="DeepMETResolutionTune_pt" Type="F" Min="6.04705550e-02" Max="9.90305115e+02"/>
    <Variable VarIndex="6" Expression="meson_iso[index_pair[0]]" Label="meson_iso[index_pair[0]]" Title="meson_iso" Unit="" Internal="meson_iso_index_pair_0__" Type="F" Min="9.00007784e-01" Max="1.00000000e+00"/>
    <Variable VarIndex="7" Expression="meson_trk1_eta[index_pair[0]]" Label="meson_trk1_eta[index_pair[0]]" Title="meson_trk1_eta" Unit="" Internal="meson_trk1_eta_index_pair_0__" Type="F" Min="-2.39692378e+00" Max="2.39985347e+00"/>
    <Variable VarIndex="8" Expression="dPhiJJ" Label="dPhiJJ" Title="dPhiJJ" Unit="" Internal="dPhiJJ" Type="F" Min="0.00000000e+00" Max="3.14158392e+00"/>
    <Variable VarIndex="9" Expression="jet1Pt" Label="jet1Pt" Title="jet1Pt" Unit="" Internal="jet1Pt" Type="F" Min="2.03437500e+01" Max="1.47400000e+03"/>
    <Variable VarIndex="10" Expression="jet2Pt" Label="jet2Pt" Title="jet2Pt" Unit="" Internal="jet2Pt" Type="F" Min="2.00156250e+01" Max="9.46000000e+02"/>
    <Variable VarIndex="11" Expression="jet1Eta" Label="jet1Eta" Title="jet1Eta" Unit="" Internal="jet1Eta" Type="F" Min="-4.69921875e+00" Max="4.69628906e+00"/>
    <Variable VarIndex="12" Expression="zepVar" Label="zepVar" Title="zepVar" Unit="" Internal="zepVar" Type="F" Min="2.03247851e-06" Max="1.41666102e+00"/>
  </Variables>
  <Spectators NSpec="0"/>
  <Classes NClass="2">
    <Class Name="Signal" Index="0"/>
    <Class Name="Background" Index="1"/>
  </Classes>
  <Transformations NTransformations="1">
    <Transform Name="Decorrelation">
      <Selection>
        <Input NInputs="13">
          <Input Type="Variable" Label="HCandPT" Expression="HCandPT"/>
          <Input Type="Variable" Label="photon_pt[index_pair[1]]" Expression="photon_pt[index_pair[1]]"/>
          <Input Type="Variable" Label="meson_pt[index_pair[0]]" Expression="meson_pt[index_pair[0]]"/>
          <Input Type="Variable" Label="photon_eta[index_pair[1]]" Expression="photon_eta[index_pair[1]]"/>
          <Input Type="Variable" Label="photon_mvaID[index_pair[1]]" Expression="photon_mvaID[index_pair[1]]"/>
          <Input Type="Variable" Label="DeepMETResolutionTune_pt" Expression="DeepMETResolutionTune_pt"/>
          <Input Type="Variable" Label="meson_iso[index_pair[0]]" Expression="meson_iso[index_pair[0]]"/>
          <Input Type="Variable" Label="meson_trk1_eta[index_pair[0]]" Expression="meson_trk1_eta[index_pair[0]]"/>
          <Input Type="Variable" Label="dPhiJJ" Expression="dPhiJJ"/>
          <Input Type="Variable" Label="jet1Pt" Expression="jet1Pt"/>
          <Input Type="Variable" Label="jet2Pt" Expression="jet2Pt"/>
          <Input Type="Variable" Label="jet1Eta" Expression="jet1Eta"/>
          <Input Type="Variable" Label="zepVar" Expression="zepVar"/>
        </Input>
        <Output NOutputs="13">
          <Output Type="Variable" Label="HCandPT" Expression="HCandPT"/>
          <Output Type="Variable" Label="photon_pt[index_pair[1]]" Expression="photon_pt[index_pair[1]]"/>
          <Output Type="Variable" Label="meson_pt[index_pair[0]]" Expression="meson_pt[index_pair[0]]"/>
          <Output Type="Variable" Label="photon_eta[index_pair[1]]" Expression="photon_eta[index_pair[1]]"/>
          <Output Type="Variable" Label="photon_mvaID[index_pair[1]]" Expression="photon_mvaID[index_pair[1]]"/>
          <Output Type="Variable" Label="DeepMETResolutionTune_pt" Expression="DeepMETResolutionTune_pt"/>
          <Output Type="Variable" Label="meson_iso[index_pair[0]]" Expression="meson_iso[index_pair[0]]"/>
          <Output Type="Variable" Label="meson_trk1_eta[index_pair[0]]" Expression="meson_trk1_eta[index_pair[0]]"/>
          <Output Type="Variable" Label="dPhiJJ" Expression="dPhiJJ"/>
          <Output Type="Variable" Label="jet1Pt" Expression="jet1Pt"/>
          <Output Type="Variable" Label="jet2Pt" Expression="jet2Pt"/>
          <Output Type="Variable" Label="jet1Eta" Expression="jet1Eta"/>
          <Output Type="Variable" Label="zepVar" Expression="zepVar"/>
        </Output>
      </Selection>
      <Matrix Rows="13" Columns="13">
        3.774699642626801e-02 -2.801986707070181e-02 -2.719000952264439e-02 -1.910914516321959e-04 3.107350499838974e-06 -5.900203194294741e-04 -7.946228217210108e-04 1.440464434671850e-04 2.711881006296868e-02 -7.432497817757678e-03 -2.438939035464806e-03 1.504979156130740e-04 3.647583963686024e-03 -2.801986707070181e-02 5.537029010724097e-02 3.193796139670051e-02 3.285863863399345e-04 -3.358324790791059e-04 -2.307305079370089e-03 4.833586975779834e-04 -5.698230267602677e-05 -8.176758059373502e-03 -4.065048395536650e-03 -4.982261524192977e-05 -1.620187880143630e-04 -3.154342123245918e-03 -2.719000952264440e-02 3.193796139670051e-02 6.117622725306147e-02 1.442490828805305e-04 -1.996630377417770e-04 -1.584616759983162e-03 -1.921224520484007e-03 1.207432991205888e-04 -8.247430487104817e-03 -3.252407185521992e-03 -2.794473764670574e-04 -2.154008814190166e-04 -3.257706036128237e-03 -1.910914516321959e-04 3.285863863399346e-04 1.442490828805305e-04 1.954416707225875e+00 1.295579184627242e-03 -2.068205941703051e-03 -1.553608119438185e-02 -3.796688831645701e-01 1.600092147729589e-03 1.304678142001100e-04 7.651191278945042e-05 -1.259372421467795e-02 9.257032419880944e-03 3.107350499838976e-06 -3.358324790791060e-04 -1.996630377417771e-04 1.295579184627242e-03 6.185923781547403e+00 1.006976522482405e-03 -9.470679381939320e-02 3.362860759750961e-03 -1.076687601704017e-02 3.185902381523933e-04 8.500398947072844e-05 -2.363737277018023e-03 5.845557616290265e-03 -5.900203194294737e-04 -2.307305079370089e-03 -1.584616759983163e-03 -2.068205941703051e-03 1.006976522482405e-03 6.210953630280456e-02 1.258356963909076e-03 -7.773191099303585e-04 -4.120730148062921e-03 -4.218542495106949e-04 -3.331041903490011e-04 -4.852328137649738e-04 -2.092497355141597e-04 -7.946228217210112e-04 4.833586975779834e-04 -1.921224520484007e-03 -1.553608119438185e-02 -9.470679381939323e-02 1.258356963909075e-03 8.302874768529568e+01 2.719193851161138e-03 -8.966543488541036e-03 3.200519207962756e-04 3.250736064388783e-04 3.716773904519975e-05 1.884889836335894e-01 1.440464434671850e-04 -5.698230267602672e-05 1.207432991205889e-04 -3.796688831645701e-01 3.362860759750960e-03 -7.773191099303586e-04 2.719193851161138e-03 1.336853934991777e+00 -3.102905049213966e-03 -6.750578901166354e-05 -1.146046437586403e-04 -8.221056511489151e-03 -4.064682802353096e-03 2.711881006296868e-02 -8.176758059373502e-03 -8.247430487104806e-03 1.600092147729589e-03 -1.076687601704017e-02 -4.120730148062922e-03 -8.966543488541036e-03 -3.102905049213966e-03 1.643355840146191e+00 -1.907190313980191e-02 -5.646694604010638e-03 1.213592310006185e-03 -3.838774543584161e-02 -7.432497817757678e-03 -4.065048395536653e-03 -3.252407185521997e-03 1.304678142001099e-04 3.185902381523933e-04 -4.218542495106948e-04 3.200519207962753e-04 -6.750578901166355e-05 -1.907190313980190e-02 2.166037493679699e-02 -2.363507724208896e-03 9.044850659341648e-05 -1.343718782072549e-03 -2.438939035464804e-03 -4.982261524193108e-05 -2.794473764670588e-04 7.651191278945043e-05 8.500398947072845e-05 -3.331041903490013e-04 3.250736064388783e-04 -1.146046437586403e-04 -5.646694604010637e-03 -2.363507724208897e-03 3.651476102385338e-02 -7.000686131469140e-05 2.718252236232332e-04 1.504979156130739e-04 -1.620187880143631e-04 -2.154008814190166e-04 -1.259372421467796e-02 -2.363737277018024e-03 -4.852328137649738e-04 3.716773904519983e-05 -8.221056511489149e-03 1.213592310006185e-03 9.044850659341645e-05 -7.000686131469140e-05 3.932974566993054e-01 1.323603525938786e-04 3.647583963686023e-03 -3.154342123245919e-03 -3.257706036128236e-03 9.257032419880941e-03 5.845557616290269e-03 -2.092497355141600e-04 1.884889836335893e-01 -4.064682802353096e-03 -3.838774543584160e-02 -1.343718782072549e-03 2.718252236232330e-04 1.323603525938786e-04 7.883104116208103e+00 
      </Matrix>
      <Matrix Rows="13" Columns="13">
        3.606338954536127e-02 -2.107827254133831e-02 -6.280269475150898e-03 2.744237559037498e-04 -7.001579967478378e-04 -1.436807981657279e-04 -5.259656514829484e-04 -1.061104225781001e-03 1.063642590569194e-02 -8.822471889578229e-03 -9.467040350487476e-04 -1.468238814867275e-03 5.756575243072199e-03 -2.107827254133831e-02 5.153382708587931e-02 1.125464492456103e-02 -2.696587508152403e-04 1.325341768835366e-03 -1.291474981864667e-03 -2.100573558596685e-04 2.562137537583004e-04 -4.005015519201488e-03 5.513016182803474e-04 7.998140442389680e-04 9.774288365198701e-04 -4.044580478950364e-03 -6.280269475150898e-03 1.125464492456103e-02 6.082220193186809e-02 1.891131330991644e-04 -4.939315875326734e-04 -1.797605325000327e-04 6.157283349405459e-03 8.844642015724764e-04 2.856940107559302e-03 -3.940642430830158e-03 2.079050619129854e-03 2.734491153367265e-04 -4.976425261483104e-03 2.744237559037500e-04 -2.696587508152402e-04 1.891131330991646e-04 1.774285517143356e+00 6.597900459469313e-03 -1.568773352147137e-03 -3.825236611534005e-02 -2.907036353402388e-01 3.008904537246140e-02 -3.472285107808030e-04 -2.999034325217708e-04 1.500451576552049e-02 -1.489421053067156e-02 -7.001579967478377e-04 1.325341768835365e-03 -4.939315875326733e-04 6.597900459469314e-03 5.433501374719134e+00 2.628679773802542e-03 4.528496913209910e-02 -4.840997301137822e-03 -8.386325802873990e-02 -1.954970906170373e-04 -6.098338550601619e-04 7.472912322200685e-03 -3.372168338916007e-02 -1.436807981657286e-04 -1.291474981864667e-03 -1.797605325000314e-04 -1.568773352147137e-03 2.628679773802543e-03 6.041533249929906e-02 -1.111324518666745e-04 -2.302267254507789e-03 9.505120355419710e-04 -1.555251260701136e-03 -2.007074862834001e-03 4.922048733022148e-04 -2.826115706513249e-03 -5.259656514829482e-04 -2.100573558596683e-04 6.157283349405460e-03 -3.825236611534007e-02 4.528496913209911e-02 -1.111324518666746e-04 2.930154384586606e+01 2.033777093586388e-02 -3.873224453233933e-02 3.201200677484990e-04 1.504286657562604e-03 -5.444561588389312e-05 1.614705823745949e-01 -1.061104225781001e-03 2.562137537583003e-04 8.844642015724763e-04 -2.907036353402388e-01 -4.840997301137822e-03 -2.302267254507790e-03 2.033777093586388e-02 1.093993541031494e+00 -1.389482927338457e-02 2.197839088869711e-04 9.024442887011231e-04 -3.773606947222693e-04 4.063961664257204e-04 1.063642590569194e-02 -4.005015519201488e-03 2.856940107559301e-03 3.008904537246138e-02 -8.386325802873991e-02 9.505120355419713e-04 -3.873224453233934e-02 -1.389482927338456e-02 1.178667463144146e+00 -4.385371285127817e-03 -4.636307027768366e-03 9.554543455587757e-03 2.086193318202408e-02 -8.822471889578225e-03 5.513016182803456e-04 -3.940642430830159e-03 -3.472285107808029e-04 -1.954970906170374e-04 -1.555251260701136e-03 3.201200677484993e-04 2.197839088869709e-04 -4.385371285127816e-03 1.881854368173172e-02 -5.710926337325900e-03 5.328075787618496e-04 -1.937454871257431e-03 -9.467040350487487e-04 7.998140442389677e-04 2.079050619129856e-03 -2.999034325217707e-04 -6.098338550601619e-04 -2.007074862834002e-03 1.504286657562603e-03 9.024442887011230e-04 -4.636307027768366e-03 -5.710926337325899e-03 4.098783027283927e-02 -2.650551690834042e-04 -2.423411662915939e-03 -1.468238814867275e-03 9.774288365198699e-04 2.734491153367267e-04 1.500451576552049e-02 7.472912322200684e-03 4.922048733022147e-04 -5.444561588389350e-05 -3.773606947222685e-04 9.554543455587761e-03 5.328075787618497e-04 -2.650551690834042e-04 4.025455337900238e-01 -1.589764004521953e-02 5.756575243072199e-03 -4.044580478950366e-03 -4.976425261483106e-03 -1.489421053067156e-02 -3.372168338916008e-02 -2.826115706513248e-03 1.614705823745950e-01 4.063961664257202e-04 2.086193318202408e-02 -1.937454871257432e-03 -2.423411662915939e-03 -1.589764004521953e-02 4.981614125541921e+00 
      </Matrix>
      <Matrix Rows="13" Columns="13">
        3.160777835845700e-02 -1.992699342844934e-02 -1.471121947013924e-02 1.219713109007398e-04 -9.968517892588219e-04 1.321695410277773e-04 -7.548791978972270e-03 -8.723025644475274e-04 1.305308975829598e-02 -7.574825065610405e-03 -2.695348989316904e-03 -7.976933275813504e-04 8.679023074931503e-03 -1.992699342844933e-02 4.835776085527879e-02 1.723416042778073e-02 1.112767050995097e-04 1.248418985890563e-03 -1.725594634989671e-03 5.700190477567671e-03 4.362006624061849e-04 -4.652010860627331e-03 -1.080425664797341e-03 1.396738401878820e-03 6.156540032886819e-04 -6.648489438012095e-03 -1.471121947013924e-02 1.723416042778073e-02 5.370116252306670e-02 1.943162567779311e-04 8.545188071341499e-05 -4.658333394322605e-04 2.708006569039073e-03 9.741373993104173e-04 -8.654590083551899e-04 -2.209229088699306e-03 7.609510302708665e-04 6.134961174678561e-04 -4.915017524093413e-03 1.219713109007395e-04 1.112767050995097e-04 1.943162567779311e-04 1.822781080888051e+00 4.903317118665641e-03 -1.725928618237846e-03 -3.759640784315498e-02 -3.126061331555291e-01 2.483066015064023e-02 -2.878464388514899e-04 -2.372812717529457e-04 6.461218355766400e-03 -7.570304451764042e-03 -9.968517892588217e-04 1.248418985890563e-03 8.545188071341495e-05 4.903317118665640e-03 5.629345545746667e+00 2.267277182251135e-03 -4.164205590343512e-02 -2.920496823983955e-03 -6.418776078634551e-02 1.141392210262167e-05 -6.038276401606255e-04 4.735216723487885e-03 -6.256254383851654e-03 1.321695410277765e-04 -1.725594634989669e-03 -4.658333394322593e-04 -1.725928618237845e-03 2.267277182251135e-03 6.070676064459193e-02 1.697383929846858e-03 -1.854219570353297e-03 1.912291523740207e-04 -1.432863982898113e-03 -1.275414276807683e-03 1.644809173874474e-04 -3.204244157863780e-03 -7.548791978972270e-03 5.700190477567675e-03 2.708006569039074e-03 -3.759640784315497e-02 -4.164205590343513e-02 1.697383929846858e-03 3.057863482220709e+01 1.613149115178895e-02 -5.219952973670400e-02 2.176239705098748e-03 -1.468339928986423e-03 8.726170787952154e-04 6.534705017561503e-01 -8.723025644475274e-04 4.362006624061850e-04 9.741373993104177e-04 -3.126061331555291e-01 -2.920496823983956e-03 -1.854219570353297e-03 1.613149115178895e-02 1.155354963763005e+00 -1.282500977675020e-02 1.761632702319630e-04 5.752192154775125e-04 -2.558335728321233e-03 8.509346747414484e-04 1.305308975829598e-02 -4.652010860627334e-03 -8.654590083551885e-04 2.483066015064024e-02 -6.418776078634553e-02 1.912291523740209e-04 -5.219952973670400e-02 -1.282500977675020e-02 1.242181052142293e+00 -6.775932194009186e-03 -4.157010322981571e-03 6.672229551915047e-03 2.433800853693966e-02 -7.574825065610406e-03 -1.080425664797338e-03 -2.209229088699306e-03 -2.878464388514901e-04 1.141392210262149e-05 -1.432863982898113e-03 2.176239705098748e-03 1.761632702319631e-04 -6.775932194009186e-03 1.897478917048953e-02 -4.475083789058193e-03 2.827654259257734e-04 -2.726361811660078e-03 -2.695348989316904e-03 1.396738401878819e-03 7.609510302708655e-04 -2.372812717529460e-04 -6.038276401606254e-04 -1.275414276807683e-03 -1.468339928986423e-03 5.752192154775125e-04 -4.157010322981571e-03 -4.475083789058193e-03 3.882276577932202e-02 -9.043655437532485e-05 -5.686665620296900e-04 -7.976933275813501e-04 6.156540032886819e-04 6.134961174678560e-04 6.461218355766401e-03 4.735216723487886e-03 1.644809173874474e-04 8.726170787952156e-04 -2.558335728321233e-03 6.672229551915050e-03 2.827654259257733e-04 -9.043655437532482e-05 3.992504594206600e-01 -1.204724654154847e-02 8.679023074931503e-03 -6.648489438012096e-03 -4.915017524093414e-03 -7.570304451764039e-03 -6.256254383851668e-03 -3.204244157863780e-03 6.534705017561504e-01 8.509346747414484e-04 2.433800853693966e-02 -2.726361811660079e-03 -5.686665620296896e-04 -1.204724654154847e-02 5.385061393778105e+00 
      </Matrix>
    </Transform>
  </Transformations>
  <MVAPdfs/>
  <Weights NTrees="110" AnalysisType="1">
    <BinaryTree type="DecisionTree" boostWeight="1.0000000000000000e+00" itree="0">
      <Node pos="s" depth="0" NCoef="0" IVar="6" Cut="2.9934701919555664e+01" cType="1" res="0.0000000000000000e+00" rms="0.0000000000000000e+00" purity="5.0938409566879272e-01" nType="0">
        <Node pos="l" depth="1" NCoef="0" IVar="6" Cut="2.9599687576293945e+01" cType="1" res="0.0000000000000000e+00" rms="0.0000000000000000e+00" purity="1.3705869019031525e-01" nType="0">
          <Node pos="l" depth="2" NCoef="0" IVar="-1" Cut="0.0000000000000000e+00" cType="1" res="-5.3983334451913834e-02" rms="2.6857274770736694e-01" purity="7.8255191445350647e-02" nType="-99"/>
          <Node pos="r" depth="2" NCoef="0" IVar="-1" Cut="0.0000000000000000e+00" cType="1" res="-1.1515259742736816e-02" rms="4.9184009432792664e-01" purity="4.1003704071044922e-01" nType="-99"/>
        </Node>
        <Node pos="r" depth="1" NCoef="0" IVar="0" Cut="3.3121171593666077e-01" cType="1" res="1.8712903559207916e-01" rms="4.6366229653358459e-01" purity="6.8712908029556274e-01" nType="0">
          <Node pos="l" depth="2" NCoef="0" IVar="6" Cut="3.0939472198486328e+01" cType="1" res="9.0706616640090942e-02" rms="4.9170348048210144e-01" purity="5.9070664644241333e-01" nType="0">
            <Node pos="l" depth="3" NCoef="0" IVar="12" Cut="1.7369894981384277e+00" cType="1" res="1.5068100392818451e-01" rms="4.7675490379333496e-01" purity="6.5068101882934570e-01" nType="0">
              <Node pos="l" depth="4" NCoef="0" IVar="-1" Cut="0.0000000000000000e+00" cType="1" res="2.3948738351464272e-02" rms="4.6367421746253967e-01" purity="6.8709951639175415e-01" nType="-99"/>
              <Node pos="r" depth="4" NCoef="0" IVar="-1" Cut="0.0000000000000000e+00" cType="1" res="-2.5794950779527426e-03" rms="4.9959370493888855e-01" purity="4.7984766960144043e-01" nType="-99"/>
            </Node>
            <Node pos="r" depth="3" NCoef="0" IVar="-1" Cut="0.0000000000000000e+00" cType="1" res="-2.1723175421357155e-02" rms="4.7031661868095398e-01" purity="3.3028769493103027e-01" nType="-99"/>
          </Node>
          <Node pos="r" depth="2" NCoef="0" IVar="2" Cut="3.0333108901977539e+00" cType="1" res="4.5614871382713318e-01" rms="2.0476409792900085e-01" purity="9.5614868402481079e-01" nType="0">
            <Node pos="l" depth="3" NCoef="0" IVar="-1" Cut="0.0000000000000000e+00" cType="1" res="5.3134165704250336e-02" rms="2.7871695160865784e-01" purity="9.1511070728302002e-01" nType="-99"/>
            <Node pos="r" depth="3" NCoef="0" IVar="11" Cut="3.9541900157928467e-02" cType="1" res="4.8550027608871460e-01" rms="1.1953856796026230e-01" purity="9.8550027608871460e-01" nType="0">
              <Node pos="l" depth="4" NCoef="0" IVar="-1" Cut="0.0000000000000000e+00" cType="1" res="6.2752954661846161e-02" rms="9.8222315311431885e-02" purity="9.9025744199752808e-01" nType="-99"/>
              <Node pos="r" depth="4" NCoef="0" IVar="-1" Cut="0.0000000000000000e+00" cType="1" res="6.1546124517917633e-02" rms="1.3712538778781891e-01" purity="9.8082906007766724e-01" nType="-99"/>
            </Node>
          </Node>
        </Node>
      </Node>
    </BinaryTree>
    <BinaryTree type="DecisionTree" boostWeight="1.0000000000000000e+00" itree="1">
      <Node pos="s" depth="0" NCoef="0" IVar="12" Cut="1.8229644298553467e+00" cType="1" res="0.0000000000000000e+00" rms="0.0000000000000000e+00" purity="5.1758503913879395e-01" nType="0">
        <Node pos="l" depth="1" NCoef="0" IVar="12" Cut="5.6864148378372192e-01" cType="1" res="0.0000000000000000e+00" rms="0.0000000000000000e+00" purity="5.9057337045669556e-01" nType="0">
          <Node pos="l" depth="2" NCoef="0" IVar="12" Cut="3.5957574844360352e-01" cType="1" res="1.1018223129212856e-02" rms="4.8923107981681824e-01" purity="5.1117801666259766e-01" nType="0">
            <Node pos="l" depth="3" NCoef="0" IVar="-1" Cut="0.0000000000000000e+00" cType="1" res="-8.7008289992809296e-03" rms="4.8478981852531433e-01" purity="4.2917102575302124e-01" nType="-99"/>
            <Node pos="r" depth="3" NCoef="0" IVar="-1" Cut="0.0000000000000000e+00" cType="1" res="1.0717695578932762e-02" rms="4.8200419545173645e-01" purity="5.8662676811218262e-01" nType="-99"/>
          </Node>
          <Node pos="r" depth="2" NCoef="0" IVar="6" Cut="3.0088150024414062e+01" cType="1" res="1.1214502900838852e-01" rms="4.7297117114067078e-01" purity="6.1612522602081299e-01" nType="0">
            <Node pos="l" depth="3" NCoef="0" IVar="12" Cut="1.0912672281265259e+00" cType="1" res="0.0000000000000000e+00" rms="0.0000000000000000e+00" purity="2.4244201183319092e-01" nType="0">
              <Node pos="l" depth="4" NCoef="0" IVar="-1" Cut="0.0000000000000000e+00" cType="1" res="-2.7073925361037254e-02" rms="4.3476304411888123e-01" purity="2.6994484663009644e-01" nType="-99"/>
              <Node pos="r" depth="4" NCoef="0" IVar="-1" Cut="0.0000000000000000e+00" cType="1" res="-3.3550310879945755e-02" rms="4.0495052933692932e-01" purity="2.1965011954307556e-01" nType="-99"/>
            </Node>
            <Node pos="r" depth="3" NCoef="0" IVar="0" Cut="1.3840715400874615e-02" cType="1" res="2.8797635436058044e-01" rms="3.9375784993171692e-01" purity="8.0345422029495239e-01" nType="0">
              <Node pos="l" depth="4" NCoef="0" IVar="-1" Cut="0.0000000000000000e+00" cType="1" res="2.3855676874518394e-02" rms="4.5912766456604004e-01" purity="6.9462251663208008e-01" nType="-99"/>
              <Node pos="r" depth="4" NCoef="0" IVar="-1" Cut="0.0000000000000000e+00" cType="1" res="5.3604327142238617e-02" rms="2.3225383460521698e-01" purity="9.4223201274871826e-01" nType="-99"/>
            </Node>
          </Node>
        </Node>
        <Node pos="r" depth="1" NCoef="0" IVar="0" Cut="-5.8314698934555054e-01" cType="1" res="-1.6281482577323914e-01" rms="4.5919004082679749e-01" purity="3.3017790317535400e-01" nType="0">
          <Node pos="l" depth="2" NCoef="0" IVar="-1" Cut="0.0000000000000000e+00" cType="1" res="-4.2656090110540390e-02" rms="3.5688340663909912e-01" purity="1.5251047909259796e-01" nType="-99"/>
          <Node pos="r" depth="2" NCoef="0" IVar="12" Cut="2.5235536098480225e+00" cType="1" res="3.8044106215238571e-02" rms="4.8477429151535034e-01" purity="5.4008960723876953e-01" nType="0">
            <Node pos="l" depth="3" NCoef="0" IVar="-1" Cut="0.0000000000000000e+00" cType="1" res="2.1804409101605415e-02" rms="4.5512568950653076e-01" purity="6.7583650350570679e-01" nType="-99"/>
            <Node pos="r" depth="3" NCoef="0" IVar="-1" Cut="0.0000000000000000e+00" cType="1" res="-1.6816459596157074e-02" rms="4.6881917119026184e-01" purity="3.6606690287590027e-01" nType="-99"/>
          </Node>
        </Node>
      </Node>
    </BinaryTree>
    <BinaryTree type="DecisionTree" boostWeight="1.0000000000000000e+00" itree="2">
      <Node pos="s" depth="0" NCoef="0" IVar="6" Cut="3.0014606475830078e+01" cType="1" res="0.0000000000000000e+00" rms="0.0000000000000000e+00" purity="4.9479609727859497e-01" nType="0">
        <Node pos="l" depth="1" NCoef="0" IVar="0" Cut="4.1223824024200439e-01" cType="1" res="-3.1581053137779236e-01" rms="3.5389527678489685e-01" purity="1.5216203033924103e-01" nType="0">
          <Node pos="l" depth="2" NCoef="0" IVar="-1" Cut="0.0000000000000000e+00" cType="1" res="-4.8352427780628204e-02" rms="2.8431600332260132e-01" purity="9.0767234563827515e-02" nType="-99"/>
          <Node pos="r" depth="2" NCoef="0" IVar="-1" Cut="0.0000000000000000e+00" cType="1" res="3.5858720075339079e-03" rms="4.9092349410057068e-01" purity="5.0404804944992065e-01" nType="-99"/>
        </Node>
        <Node pos="r" depth="1" NCoef="0" IVar="0" Cut="-1.0785055160522461e-01" cType="1" res="1.5283346176147461e-01" rms="4.5851498842239380e-01" purity="6.7263042926788330e-01" nType="0">
          <Node pos="l" depth="2" NCoef="0" IVar="12" Cut="1.1742205619812012e+00" cType="1" res="2.9969070106744766e-02" rms="4.9267977476119995e-01" purity="5.3684169054031372e-01" nType="0">
            <Node pos="l" depth="3" NCoef="0" IVar="0" Cut="-7.8673398494720459e-01" cType="1" res="1.5715579688549042e-01" rms="4.6774339675903320e-01" purity="6.7415392398834229e-01" nType="0">
              <Node pos="l" depth="4" NCoef="0" IVar="-1" Cut="0.0000000000000000e+00" cType="1" res="8.8016707450151443e-03" rms="4.9232003092765808e-01" purity="5.8361947536468506e-01" nType="-99"/>
              <Node pos="r" depth="4" NCoef="0" IVar="-1" Cut="0.0000000000000000e+00" cType="1" res="3.6393340677022934e-02" rms="3.9717704057693481e-01" purity="8.0376398563385010e-01" nType="-99"/>
            </Node>
            <Node pos="r" depth="3" NCoef="0" IVar="2" Cut="3.0626068115234375e+00" cType="1" res="0.0000000000000000e+00" rms="0.0000000000000000e+00" purity="4.0002849698066711e-01" nType="0">
              <Node pos="l" depth="4" NCoef="0" IVar="-1" Cut="0.0000000000000000e+00" cType="1" res="-3.7009918596595526e-03" rms="4.9322691559791565e-01" purity="4.6919715404510498e-01" nType="-99"/>
              <Node pos="r" depth="4" NCoef="0" IVar="-1" Cut="0.0000000000000000e+00" cType="1" res="-2.2253056988120079e-02" rms="4.6183744072914124e-01" purity="3.2180377840995789e-01" nType="-99"/>
            </Node>
          </Node>
          <Node pos="r" depth="2" NCoef="0" IVar="2" Cut="3.4082243442535400e+00" cType="1" res="3.4130483865737915e-01" rms="3.1891664862632751e-01" purity="8.8092744350433350e-01" nType="0">
            <Node pos="l" depth="3" NCoef="0" IVar="2" Cut="2.5571968555450439e+00" cType="1" res="0.0000000000000000e+00" rms="0.0000000000000000e+00" purity="8.1545114517211914e-01" nType="0">
              <Node pos="l" depth="4" NCoef="0" IVar="-1" Cut="0.0000000000000000e+00" cType="1" res="2.4372873827815056e-02" rms="4.4016808271408081e-01" purity="7.2501486539840698e-01" nType="-99"/>
              <Node pos="r" depth="4" NCoef="0" IVar="-1" Cut="0.0000000000000000e+00" cType="1" res="5.1960248500108719e-02" rms="2.3027814924716949e-01" purity="9.4216018915176392e-01" nType="-99"/>
            </Node>
            <Node pos="r" depth="3" NCoef="0" IVar="11" Cut="1.8191337585449219e-02" cType="1" res="4.4027519226074219e-01" rms="1.2561260163784027e-01" purity="9.8368161916732788e-01" nType="0">
              <Node pos="l" depth="4" NCoef="0" IVar="-1" Cut="0.0000000000000000e+00" cType="1" res="5.6388471275568008e-02" rms="1.3851708173751831e-01" purity="9.8015487194061279e-01" nType="-99"/>
              <Node pos="r" depth="4" NCoef="0" IVar="-1" Cut="0.0000000000000000e+00" cType="1" res="5.7304531335830688e-02" rms="1.1119976639747620e-01" purity="9.8718684911727905e-01" nType="-99"/>
            </Node>
          </Node>
        </Node>
      </Node>
    </BinaryTree>
    <BinaryTree type="DecisionTree" boostWeight="1.0000000000000000e+00" itree="3">
      <Node pos="s" depth="0" NCoef="0" IVar="6" Cut="2.9832099914550781e+01" cType="1" res="-2.9904651455581188e-03" rms="4.6837529540061951e-01" purity="4.9809604883193970e-01" nType="0">
        <Node pos="l" depth="1" NCoef="0" IVar="6" Cut="2.9313650131225586e+01" cType="1" res="0.0000000000000000e+00" rms="0.0000000000000000e+00" purity="1.1305501312017441e-01" nType="0">
          <Node pos="l" depth="2" NCoef="0" IVar="-1" Cut="0.0000000000000000e+00" cType="1" res="-4.9925189465284348e-02" rms="2.2760647535324097e-01" purity="5.5762160569429398e-02" nType="-99"/>
          <Node pos="r" depth="2" NCoef="0" IVar="-1" Cut="0.0000000000000000e+00" cType="1" res="-2.5050625205039978e-02" rms="4.3123015761375427e-01" purity="2.5895065069198608e-01" nType="-99"/>
        </Node>
        <Node pos="r" depth="1" NCoef="0" IVar="0" Cut="-4.7524771653115749e-03" cType="1" res="1.3997440040111542e-01" rms="4.5338508486747742e-01" purity="6.6619783639907837e-01" nType="0">
          <Node pos="l" depth="2" NCoef="0" IVar="10" Cut="8.9507079124450684e-01" cType="1" res="2.5509122759103775e-02" rms="4.8780786991119385e-01" purity="5.3251361846923828e-01" nType="0">
            <Node pos="l" depth="3" NCoef="0" IVar="7" Cut="-1.4293360710144043e-01" cType="1" res="0.0000000000000000e+00" rms="0.0000000000000000e+00" purity="3.7546637654304504e-01" nType="0">
              <Node pos="l" depth="4" NCoef="0" IVar="-1" Cut="0.0000000000000000e+00" cType="1" res="-1.1085330508649349e-02" rms="4.8013243079185486e-01" purity="4.1724205017089844e-01" nType="-99"/>
              <Node pos="r" depth="4" NCoef="0" IVar="-1" Cut="0.0000000000000000e+00" cType="1" res="-1.9481455907225609e-02" rms="4.6363019943237305e-01" purity="3.4889915585517883e-01" nType="-99"/>
            </Node>
            <Node pos="r" depth="3" NCoef="0" IVar="0" Cut="-9.7663837671279907e-01" cType="1" res="1.2922151386737823e-01" rms="4.7154906392097473e-01" purity="6.3987112045288086e-01" nType="0">
              <Node pos="l" depth="4" NCoef="0" IVar="-1" Cut="0.0000000000000000e+00" cType="1" res="4.1042538359761238e-03" rms="4.9418979883193970e-01" purity="5.3411561250686646e-01" nType="-99"/>
              <Node pos="r" depth="4" NCoef="0" IVar="-1" Cut="0.0000000000000000e+00" cType="1" res="2.7393035590648651e-02" rms="4.3389701843261719e-01" purity="7.3117464780807495e-01" nType="-99"/>
            </Node>
          </Node>
          <Node pos="r" depth="2" NCoef="0" IVar="2" Cut="2.9916510581970215e+00" cType="1" res="3.4310474991798401e-01" rms="2.8905072808265686e-01" purity="9.0343409776687622e-01" nType="0">
            <Node pos="l" depth="3" NCoef="0" IVar="2" Cut="2.2794797420501709e+00" cType="1" res="0.0000000000000000e+00" rms="0.0000000000000000e+00" purity="8.1557708978652954e-01" nType="0">
              <Node pos="l" depth="4" NCoef="0" IVar="-1" Cut="0.0000000000000000e+00" cType="1" res="2.2521898150444031e-02" rms="4.4094970822334290e-01" purity="7.2352570295333862e-01" nType="-99"/>
              <Node pos="r" depth="4" NCoef="0" IVar="-1" Cut="0.0000000000000000e+00" cType="1" res="4.5924644917249680e-02" rms="2.7888461947441101e-01" purity="9.1084760427474976e-01" nType="-99"/>
            </Node>
            <Node pos="r" depth="3" NCoef="0" IVar="0" Cut="8.8280928134918213e-01" cType="1" res="4.1068580746650696e-01" rms="1.4866080880165100e-01" purity="9.7675657272338867e-01" nType="0">
              <Node pos="l" depth="4" NCoef="0" IVar="-1" Cut="0.0000000000000000e+00" cType="1" res="5.2131604403257370e-02" rms="1.7913264036178589e-01" purity="9.6518588066101074e-01" nType="-99"/>
              <Node pos="r" depth="4" NCoef="0" IVar="-1" Cut="0.0000000000000000e+00" cType="1" res="5.5238395929336548e-02" rms="1.0652140527963638e-01" purity="9.8889249563217163e-01" nType="-99"/>
            </Node>
          </Node>
        </Node>
      </Node>
    </BinaryTree>
    <BinaryTree type="DecisionTree" boostWeight="1.0000000000000000e+00" itree="4">
      <Node pos="s" depth="0" NCoef="0" IVar="6" Cut="2.9640733718872070e+01" cType="1" res="4.3537304736673832e-03" rms="4.5931026339530945e-01" purity="5.0690454244613647e-01" nType="0">
        <Node pos="l" depth="1" NCoef="0" IVar="-1" Cut="0.0000000000000000e+00" cType="1" res="-4.3780084699392319e-02" rms="2.7891528606414795e-01" purity="8.7290510535240173e-02" nType="-99"/>
        <Node pos="r" depth="1" NCoef="0" IVar="2" Cut="2.8469603061676025e+00" cType="1" res="0.0000000000000000e+00" rms="0.0000000000000000e+00" purity="6.5613746643066406e-01" nType="0">
          <Node pos="l" depth="2" NCoef="0" IVar="0" Cut="-1.0785055160522461e-01" cType="1" res="8.0215565860271454e-02" rms="4.7227007150650024e-01" purity="6.0962134599685669e-01" nType="0">
            <Node pos="l" depth="3" NCoef="0" IVar="1" Cut="3.8723585605621338e+00" cType="1" res="0.0000000000000000e+00" rms="0.0000000000000000e+00" purity="5.2549284696578979e-01" nType="0">
              <Node pos="l" depth="4" NCoef="0" IVar="-1" Cut="0.0000000000000000e+00" cType="1" res="-1.4866375364363194e-02" rms="4.8182553052902222e-01" purity="3.9502486586570740e-01" nType="-99"/>
              <Node pos="r" depth="4" NCoef="0" IVar="-1" Cut="0.0000000000000000e+00" cType="1" res="1.7602233216166496e-02" rms="4.6313831210136414e-01" purity="6.4873427152633667e-01" nType="-99"/>
            </Node>
            <Node pos="r" depth="3" NCoef="0" IVar="2" Cut="2.1940765380859375e+00" cType="1" res="1.8753013014793396e-01" rms="4.2247849702835083e-01" purity="7.4642956256866455e-01" nType="0">
              <Node pos="l" depth="4" NCoef="0" IVar="-1" Cut="0.0000000000000000e+00" cType="1" res="1.0756165720522404e-02" rms="4.7205233573913574e-01" purity="6.3628852367401123e-01" nType="-99"/>
              <Node pos="r" depth="4" NCoef="0" IVar="-1" Cut="0.0000000000000000e+00" cType="1" res="3.7921886891126633e-02" rms="3.3763322234153748e-01" purity="8.5403972864151001e-01" nType="-99"/>
            </Node>
          </Node>
          <Node pos="r" depth="2" NCoef="0" IVar="0" Cut="-8.7819337844848633e-01" cType="1" res="1.6198284924030304e-01" rms="4.2856872081756592e-01" purity="6.9584572315216064e-01" nType="0">
            <Node pos="l" depth="3" NCoef="0" IVar="11" Cut="7.5770676136016846e-02" cType="1" res="0.0000000000000000e+00" rms="0.0000000000000000e+00" purity="3.6967691779136658e-01" nType="0">
              <Node pos="l" depth="4" NCoef="0" IVar="-1" Cut="0.0000000000000000e+00" cType="1" res="-1.3028211891651154e-02" rms="4.7492101788520813e-01" purity="3.8768813014030457e-01" nType="-99"/>
              <Node pos="r" depth="4" NCoef="0" IVar="-1" Cut="0.0000000000000000e+00" cType="1" res="-1.7641033977270126e-02" rms="4.6765199303627014e-01" purity="3.5349640250205994e-01" nType="-99"/>
            </Node>
            <Node pos="r" depth="3" NCoef="0" IVar="1" Cut="4.2507147789001465e+00" cType="1" res="0.0000000000000000e+00" rms="0.0000000000000000e+00" purity="9.1722732782363892e-01" nType="0">
              <Node pos="l" depth="4" NCoef="0" IVar="-1" Cut="0.0000000000000000e+00" cType="1" res="5.0688266754150391e-02" rms="2.0961686968803406e-01" purity="9.4945895671844482e-01" nType="-99"/>
              <Node pos="r" depth="4" NCoef="0" IVar="-1" Cut="0.0000000000000000e+00" cType="1" res="3.1592331826686859e-02" rms="3.5804492235183716e-01" purity="8.0636018514633179e-01" nType="-99"/>
            </Node>
          </Node>
        </Node>
      </Node>
    </BinaryTree>
    <BinaryTree type="DecisionTree" boostWeight="1.0000000000000000e+00" itree="5">
      <Node pos="s" depth="0" NCoef="0" IVar="6" Cut="2.9659626007080078e+01" cType="1" res="0.0000000000000000e+00" rms="0.0000000000000000e+00" purity="5.0033003091812134e-01" nType="0">
        <Node pos="l" depth="1" NCoef="0" IVar="-1" Cut="0.0000000000000000e+00" cType="1" res="-4.1655648499727249e-02" rms="2.7881106734275818e-01" purity="8.7602004408836365e-02" nType="-99"/>
        <Node pos="r" depth="1" NCoef="0" IVar="6" Cut="3.0883739471435547e+01" cType="1" res="0.0000000000000000e+00" rms="0.0000000000000000e+00" purity="6.4964461326599121e-01" nType="0">
          <Node pos="l" depth="2" NCoef="0" IVar="0" Cut="-3.9883157610893250e-01" cType="1" res="1.5589627623558044e-01" rms="4.2642372846603394e-01" purity="7.0775753259658813e-01" nType="0">
            <Node pos="l" depth="3" NCoef="0" IVar="6" Cut="3.0679729461669922e+01" cType="1" res="-1.0736841708421707e-02" rms="4.8219725489616394e-01" purity="5.0075054168701172e-01" nType="0">
              <Node pos="l" depth="4" NCoef="0" IVar="-1" Cut="0.0000000000000000e+00" cType="1" res="-2.5463782250881195e-02" rms="4.3821525573730469e-01" purity="2.9937857389450073e-01" nType="-99"/>
              <Node pos="r" depth="4" NCoef="0" IVar="-1" Cut="0.0000000000000000e+00" cType="1" res="2.1989895030856133e-02" rms="4.5267200469970703e-01" purity="6.9657516479492188e-01" nType="-99"/>
            </Node>
            <Node pos="r" depth="3" NCoef="0" IVar="2" Cut="2.1620776653289795e+00" cType="1" res="2.8015333414077759e-01" rms="3.2848528027534485e-01" purity="8.6212122440338135e-01" nType="0">
              <Node pos="l" depth="4" NCoef="0" IVar="-1" Cut="0.0000000000000000e+00" cType="1" res="1.4918020926415920e-02" rms="4.5997276902198792e-01" purity="6.6841346025466919e-01" nType="-99"/>
              <Node pos="r" depth="4" NCoef="0" IVar="-1" Cut="0.0000000000000000e+00" cType="1" res="4.2263384908437729e-02" rms="2.7739059925079346e-01" purity="9.0583145618438721e-01" nType="-99"/>
            </Node>
          </Node>
          <Node pos="r" depth="2" NCoef="0" IVar="-1" Cut="0.0000000000000000e+00" cType="1" res="-1.2932565063238144e-02" rms="4.7903037071228027e-01" purity="3.8276591897010803e-01" nType="-99"/>
        </Node>
      </Node>
    </BinaryTree>
    <BinaryTree type="DecisionTree" boostWeight="1.0000000000000000e+00" itree="6">
      <Node pos="s" depth="0" NCoef="0" IVar="6" Cut="2.9429056167602539e+01" cType="1" res="0.0000000000000000e+00" rms="0.0000000000000000e+00" purity="5.0173926353454590e-01" nType="0">
        <Node pos="l" depth="1" NCoef="0" IVar="-1" Cut="0.0000000000000000e+00" cType="1" res="-4.2268797755241394e-02" rms="2.4562515318393707e-01" purity="6.5856516361236572e-02" nType="-99"/>
        <Node pos="r" depth="1" NCoef="0" IVar="0" Cut="-6.5579503774642944e-01" cType="1" res="9.2757254838943481e-02" rms="4.4434782862663269e-01" purity="6.3352060317993164e-01" nType="0">
          <Node pos="l" depth="2" NCoef="0" IVar="12" Cut="1.5486879348754883e+00" cType="1" res="-6.0050949454307556e-02" rms="4.7365343570709229e-01" purity="4.2623552680015564e-01" nType="0">
            <Node pos="l" depth="3" NCoef="0" IVar="0" Cut="-1.2890436649322510e+00" cType="1" res="3.5248249769210815e-02" rms="4.8160314559936523e-01" purity="5.4168432950973511e-01" nType="0">
              <Node pos="l" depth="4" NCoef="0" IVar="-1" Cut="0.0000000000000000e+00" cType="1" res="-6.5255076624453068e-03" rms="4.8594859242439270e-01" purity="4.4372841715812683e-01" nType="-99"/>
              <Node pos="r" depth="4" NCoef="0" IVar="-1" Cut="0.0000000000000000e+00" cType="1" res="1.2318590655922890e-02" rms="4.6926003694534302e-01" purity="6.1019361019134521e-01" nType="-99"/>
            </Node>
            <Node pos="r" depth="3" NCoef="0" IVar="-1" Cut="0.0000000000000000e+00" cType="1" res="-2.7310548350214958e-02" rms="4.1866892576217651e-01" purity="2.4371506273746490e-01" nType="-99"/>
          </Node>
          <Node pos="r" depth="2" NCoef="0" IVar="2" Cut="2.3611180782318115e+00" cType="1" res="2.0128583908081055e-01" rms="3.8726672530174255e-01" purity="7.8074014186859131e-01" nType="0">
            <Node pos="l" depth="3" NCoef="0" IVar="10" Cut="1.0705715417861938e+00" cType="1" res="4.3322436511516571e-02" rms="4.7476604580879211e-01" purity="5.9438377618789673e-01" nType="0">
              <Node pos="l" depth="4" NCoef="0" IVar="-1" Cut="0.0000000000000000e+00" cType="1" res="-7.0476168766617775e-03" rms="4.8380386829376221e-01" purity="4.8966816067695618e-01" nType="-99"/>
              <Node pos="r" depth="4" NCoef="0" IVar="-1" Cut="0.0000000000000000e+00" cType="1" res="1.8926672637462616e-02" rms="4.4297224283218384e-01" purity="7.0337134599685669e-01" nType="-99"/>
            </Node>
            <Node pos="r" depth="3" NCoef="0" IVar="1" Cut="4.4666504859924316e+00" cType="1" res="0.0000000000000000e+00" rms="0.0000000000000000e+00" purity="8.5769182443618774e-01" nType="0">
              <Node pos="l" depth="4" NCoef="0" IVar="-1" Cut="0.0000000000000000e+00" cType="1" res="4.0293782949447632e-02" rms="2.8604140877723694e-01" purity="8.9108699560165405e-01" nType="-99"/>
              <Node pos="r" depth="4" NCoef="0" IVar="-1" Cut="0.0000000000000000e+00" cType="1" res="2.2140616551041603e-02" rms="3.9954760670661926e-01" purity="7.5495457649230957e-01" nType="-99"/>
            </Node>
          </Node>
        </Node>
      </Node>
    </BinaryTree>
    <BinaryTree type="DecisionTree" boostWeight="1.0000000000000000e+00" itree="7">
      <Node pos="s" depth="0" NCoef="0" IVar="6" Cut="2.9640733718872070e+01" cType="1" res="2.9391155112534761e-03" rms="4.3357762694358826e-01" purity="5.0573211908340454e-01" nType="0">
        <Node pos="l" depth="1" NCoef="0" IVar="-1" Cut="0.0000000000000000e+00" cType="1" res="-3.7934266030788422e-02" rms="2.8091779351234436e-01" purity="8.9721299707889557e-02" nType="-99"/>
        <Node pos="r" depth="1" NCoef="0" IVar="12" Cut="2.5738031864166260e+00" cType="1" res="0.0000000000000000e+00" rms="0.0000000000000000e+00" purity="6.5313702821731567e-01" nType="0">
          <Node pos="l" depth="2" NCoef="0" IVar="1" Cut="4.1862397193908691e+00" cType="1" res="0.0000000000000000e+00" rms="0.0000000000000000e+00" purity="6.9315004348754883e-01" nType="0">
            <Node pos="l" depth="3" NCoef="0" IVar="2" Cut="2.8469603061676025e+00" cType="1" res="2.0388202369213104e-01" rms="3.9537471532821655e-01" purity="7.6789814233779907e-01" nType="0">
              <Node pos="l" depth="4" NCoef="0" IVar="-1" Cut="0.0000000000000000e+00" cType="1" res="1.2282598763704300e-02" rms="4.5966395735740662e-01" purity="6.3554817438125610e-01" nType="-99"/>
              <Node pos="r" depth="4" NCoef="0" IVar="-1" Cut="0.0000000000000000e+00" cType="1" res="3.7642300128936768e-02" rms="3.2260006666183472e-01" purity="8.5962921380996704e-01" nType="-99"/>
            </Node>
            <Node pos="r" depth="3" NCoef="0" IVar="0" Cut="-2.3074610531330109e-01" cType="1" res="1.0890275239944458e-02" rms="4.4596257805824280e-01" purity="5.6052452325820923e-01" nType="0">
              <Node pos="l" depth="4" NCoef="0" IVar="-1" Cut="0.0000000000000000e+00" cType="1" res="-2.5982968509197235e-02" rms="4.2510232329368591e-01" purity="2.9545077681541443e-01" nType="-99"/>
              <Node pos="r" depth="4" NCoef="0" IVar="-1" Cut="0.0000000000000000e+00" cType="1" res="3.4607317298650742e-02" rms="3.2939437031745911e-01" purity="8.6652153730392456e-01" nType="-99"/>
            </Node>
          </Node>
          <Node pos="r" depth="2" NCoef="0" IVar="-1" Cut="0.0000000000000000e+00" cType="1" res="-2.4746401235461235e-02" rms="4.2418622970581055e-01" purity="3.0465936660766602e-01" nType="-99"/>
        </Node>
      </Node>
    </BinaryTree>
    <BinaryTree type="DecisionTree" boostWeight="1.0000000000000000e+00" itree="8">
      <Node pos="s" depth="0" NCoef="0" IVar="6" Cut="2.9813388824462891e+01" cType="1" res="-6.5602459944784641e-03" rms="4.2371600866317749e-01" purity="4.9282705783843994e-01" nType="0">
        <Node pos="l" depth="1" NCoef="0" IVar="12" Cut="1.2515240907669067e+00" cType="1" res="-2.5643938779830933e-01" rms="2.8785079717636108e-01" purity="1.0178264230489731e-01" nType="0">
          <Node pos="l" depth="2" NCoef="0" IVar="-1" Cut="0.0000000000000000e+00" cType="1" res="-3.3612113445997238e-02" rms="3.1229197978973389e-01" purity="1.2119814008474350e-01" nType="-99"/>
          <Node pos="r" depth="2" NCoef="0" IVar="-1" Cut="0.0000000000000000e+00" cType="1" res="-3.8545053452253342e-02" rms="2.5844591856002808e-01" purity="8.1266388297080994e-02" nType="-99"/>
        </Node>
        <Node pos="r" depth="1" NCoef="0" IVar="0" Cut="-2.3074610531330109e-01" cType="1" res="1.0814296454191208e-01" rms="4.2672550678253174e-01" purity="6.7233008146286011e-01" nType="0">
          <Node pos="l" depth="2" NCoef="0" IVar="1" Cut="4.0080246925354004e+00" cType="1" res="6.8458588793873787e-04" rms="4.7349303960800171e-01" purity="5.1317054033279419e-01" nType="0">
            <Node pos="l" depth="3" NCoef="0" IVar="2" Cut="2.9674177169799805e+00" cType="1" res="8.7758645415306091e-02" rms="4.6728166937828064e-01" purity="6.1257779598236084e-01" nType="0">
              <Node pos="l" depth="4" NCoef="0" IVar="-1" Cut="0.0000000000000000e+00" cType="1" res="-7.0696990005671978e-03" rms="4.8194044828414917e-01" purity="4.5808359980583191e-01" nType="-99"/>
              <Node pos="r" depth="4" NCoef="0" IVar="-1" Cut="0.0000000000000000e+00" cType="1" res="3.5134244710206985e-02" rms="3.7663301825523376e-01" purity="8.0938661098480225e-01" nType="-99"/>
            </Node>
            <Node pos="r" depth="3" NCoef="0" IVar="3" Cut="-1.0262155532836914e-01" cType="1" res="-1.0746385157108307e-01" rms="4.5862883329391479e-01" purity="3.8970389962196350e-01" nType="0">
              <Node pos="l" depth="4" NCoef="0" IVar="-1" Cut="0.0000000000000000e+00" cType="1" res="-1.5681998804211617e-02" rms="4.5560383796691895e-01" purity="3.7480071187019348e-01" nType="-99"/>
              <Node pos="r" depth="4" NCoef="0" IVar="-1" Cut="0.0000000000000000e+00" cType="1" res="-1.2201774865388870e-02" rms="4.6118494868278503e-01" purity="4.0432175993919373e-01" nType="-99"/>
            </Node>
          </Node>
          <Node pos="r" depth="2" NCoef="0" IVar="0" Cut="2.4689906835556030e-01" cType="1" res="2.5060543417930603e-01" rms="3.0112314224243164e-01" purity="8.8333499431610107e-01" nType="0">
            <Node pos="l" depth="3" NCoef="0" IVar="-1" Cut="0.0000000000000000e+00" cType="1" res="2.3336708545684814e-02" rms="3.9390912652015686e-01" purity="7.7655768394470215e-01" nType="-99"/>
            <Node pos="r" depth="3" NCoef="0" IVar="2" Cut="3.4848930835723877e+00" cType="1" res="2.8958609700202942e-01" rms="2.3205271363258362e-01" purity="9.3676680326461792e-01" nType="0">
              <Node pos="l" depth="4" NCoef="0" IVar="-1" Cut="0.0000000000000000e+00" cType="1" res="3.6368373781442642e-02" rms="2.9526406526565552e-01" purity="8.9437979459762573e-01" nType="-99"/>
              <Node pos="r" depth="4" NCoef="0" IVar="-1" Cut="0.0000000000000000e+00" cType="1" res="4.6482875943183899e-02" rms="1.0905753821134567e-01" purity="9.8768931627273560e-01" nType="-99"/>
            </Node>
          </Node>
        </Node>
      </Node>
    </BinaryTree>
    <BinaryTree type="DecisionTree" boostWeight="1.0000000000000000e+00" itree="9">
      <Node pos="s" depth="0" NCoef="0" IVar="0" Cut="3.3872127532958984e-01" cType="1" res="1.3130316510796547e-02" rms="4.1911378502845764e-01" purity="5.1922065019607544e-01" nType="0">
        <Node pos="l" depth="1" NCoef="0" IVar="6" Cut="3.0194654464721680e+01" cType="1" res="-4.8105288296937943e-02" rms="4.2833909392356873e-01" purity="4.2484959959983826e-01" nType="0">
          <Node pos="l" depth="2" NCoef="0" IVar="-1" Cut="0.0000000000000000e+00" cType="1" res="-3.6262042820453644e-02" rms="2.9357400536537170e-01" purity="1.0924313962459564e-01" nType="-99"/>
          <Node pos="r" depth="2" NCoef="0" IVar="6" Cut="3.0881660461425781e+01" cType="1" res="0.0000000000000000e+00" rms="0.0000000000000000e+00" purity="6.3715004920959473e-01" nType="0">
            <Node pos="l" depth="3" NCoef="0" IVar="0" Cut="-6.9047337770462036e-01" cType="1" res="1.4586775004863739e-01" rms="4.2351624369621277e-01" purity="7.1817761659622192e-01" nType="0">
              <Node pos="l" depth="4" NCoef="0" IVar="-1" Cut="0.0000000000000000e+00" cType="1" res="7.9052746295928955e-03" rms="4.6918365359306335e-01" purity="5.8948373794555664e-01" nType="-99"/>
              <Node pos="r" depth="4" NCoef="0" IVar="-1" Cut="0.0000000000000000e+00" cType="1" res="2.7360480278730392e-02" rms="3.7938135862350464e-01" purity="8.0456686019897461e-01" nType="-99"/>
            </Node>
            <Node pos="r" depth="3" NCoef="0" IVar="-1" Cut="0.0000000000000000e+00" cType="1" res="-6.4876554533839226e-03" rms="4.7599703073501587e-01" purity="4.2156863212585449e-01" nType="-99"/>
          </Node>
        </Node>
        <Node pos="r" depth="1" NCoef="0" IVar="12" Cut="1.6660292148590088e+00" cType="1" res="0.0000000000000000e+00" rms="0.0000000000000000e+00" purity="8.3217042684555054e-01" nType="0">
          <Node pos="l" depth="2" NCoef="0" IVar="0" Cut="8.5546422004699707e-01" cType="1" res="2.6443952322006226e-01" rms="2.5368669629096985e-01" purity="8.9261382818222046e-01" nType="0">
            <Node pos="l" depth="3" NCoef="0" IVar="-1" Cut="0.0000000000000000e+00" cType="1" res="3.2386541366577148e-02" rms="2.9362726211547852e-01" purity="8.4211999177932739e-01" nType="-99"/>
            <Node pos="r" depth="3" NCoef="0" IVar="-1" Cut="0.0000000000000000e+00" cType="1" res="4.3719094246625900e-02" rms="2.0365868508815765e-01" purity="9.3874937295913696e-01" nType="-99"/>
          </Node>
          <Node pos="r" depth="2" NCoef="0" IVar="-1" Cut="0.0000000000000000e+00" cType="1" res="1.6996398568153381e-02" rms="3.8108840584754944e-01" purity="7.1210134029388428e-01" nType="-99"/>
        </Node>
      </Node>
    </BinaryTree>
    <BinaryTree type="DecisionTree" boostWeight="1.0000000000000000e+00" itree="10">
      <Node pos="s" depth="0" NCoef="0" IVar="6" Cut="2.9934701919555664e+01" cType="1" res="-1.2311115860939026e-02" rms="4.1220000386238098e-01" purity="4.8708900809288025e-01" nType="0">
        <Node pos="l" depth="1" NCoef="0" IVar="0" Cut="1.2057205289602280e-01" cType="1" res="-2.0739425718784332e-01" rms="3.0811125040054321e-01" purity="1.3209722936153412e-01" nType="0">
          <Node pos="l" depth="2" NCoef="0" IVar="-1" Cut="0.0000000000000000e+00" cType="1" res="-3.6877103149890900e-02" rms="2.4924169480800629e-01" purity="7.2755739092826843e-02" nType="-99"/>
          <Node pos="r" depth="2" NCoef="0" IVar="-1" Cut="0.0000000000000000e+00" cType="1" res="-3.0251292046159506e-03" rms="4.4232475757598877e-01" purity="3.9070221781730652e-01" nType="-99"/>
        </Node>
        <Node pos="r" depth="1" NCoef="0" IVar="6" Cut="3.0939437866210938e+01" cType="1" res="8.2005381584167480e-02" rms="4.2292121052742004e-01" purity="6.5871626138687134e-01" nType="0">
          <Node pos="l" depth="2" NCoef="0" IVar="10" Cut="7.3464941978454590e-01" cType="1" res="1.3807691633701324e-01" rms="4.0072199702262878e-01" purity="7.4116766452789307e-01" nType="0">
            <Node pos="l" depth="3" NCoef="0" IVar="0" Cut="2.5711059570312500e-02" cType="1" res="2.4186143651604652e-02" rms="4.3444383144378662e-01" purity="6.1562877893447876e-01" nType="0">
              <Node pos="l" depth="4" NCoef="0" IVar="-1" Cut="0.0000000000000000e+00" cType="1" res="-1.2233342975378036e-02" rms="4.6375858783721924e-01" purity="4.3922564387321472e-01" nType="-99"/>
              <Node pos="r" depth="4" NCoef="0" IVar="-1" Cut="0.0000000000000000e+00" cType="1" res="2.5752518326044083e-02" rms="3.3675703406333923e-01" purity="8.4398913383483887e-01" nType="-99"/>
            </Node>
            <Node pos="r" depth="3" NCoef="0" IVar="6" Cut="3.0269599914550781e+01" cType="1" res="1.8488799035549164e-01" rms="3.7613812088966370e-01" purity="7.9276627302169800e-01" nType="0">
              <Node pos="l" depth="4" NCoef="0" IVar="-1" Cut="0.0000000000000000e+00" cType="1" res="8.5207996889948845e-03" rms="3.9725154638290405e-01" purity="6.6813969612121582e-01" nType="-99"/>
              <Node pos="r" depth="4" NCoef="0" IVar="-1" Cut="0.0000000000000000e+00" cType="1" res="2.8743071481585503e-02" rms="3.6675003170967102e-01" purity="8.1768268346786499e-01" nType="-99"/>
            </Node>
          </Node>
          <Node pos="r" depth="2" NCoef="0" IVar="-1" Cut="0.0000000000000000e+00" cType="1" res="-2.4965059012174606e-02" rms="4.2160493135452271e-01" purity="2.5570207834243774e-01" nType="-99"/>
        </Node>
      </Node>
    </BinaryTree>
    <BinaryTree type="DecisionTree" boostWeight="1.0000000000000000e+00" itree="11">
      <Node pos="s" depth="0" NCoef="0" IVar="6" Cut="2.9813388824462891e+01" cType="1" res="0.0000000000000000e+00" rms="0.0000000000000000e+00" purity="5.2598941326141357e-01" nType="0">
        <Node pos="l" depth="1" NCoef="0" IVar="7" Cut="2.9581308364868164e-02" cType="1" res="-2.0027069747447968e-01" rms="3.0100274085998535e-01" purity="1.1697030812501907e-01" nType="0">
          <Node pos="l" depth="2" NCoef="0" IVar="-1" Cut="0.0000000000000000e+00" cType="1" res="-2.8709823265671730e-02" rms="3.1216296553611755e-01" purity="1.2727223336696625e-01" nType="-99"/>
          <Node pos="r" depth="2" NCoef="0" IVar="-1" Cut="0.0000000000000000e+00" cType="1" res="-3.1120391562581062e-02" rms="2.8987148404121399e-01" purity="1.0722698271274567e-01" nType="-99"/>
        </Node>
        <Node pos="r" depth="1" NCoef="0" IVar="6" Cut="3.0973434448242188e+01" cType="1" res="1.1544169485569000e-01" rms="4.0471643209457397e-01" purity="7.0030879974365234e-01" nType="0">
          <Node pos="l" depth="2" NCoef="0" IVar="0" Cut="5.8442372083663940e-01" cType="1" res="1.5372440218925476e-01" rms="3.8599935173988342e-01" purity="7.6008498668670654e-01" nType="0">
            <Node pos="l" depth="3" NCoef="0" IVar="12" Cut="1.8018360137939453e+00" cType="1" res="1.2103910744190216e-01" rms="4.2122691869735718e-01" purity="7.0001262426376343e-01" nType="0">
              <Node pos="l" depth="4" NCoef="0" IVar="-1" Cut="0.0000000000000000e+00" cType="1" res="2.0610997453331947e-02" rms="4.0777963399887085e-01" purity="7.4185353517532349e-01" nType="-99"/>
              <Node pos="r" depth="4" NCoef="0" IVar="-1" Cut="0.0000000000000000e+00" cType="1" res="-2.6848949491977692e-03" rms="4.5149442553520203e-01" purity="5.0964373350143433e-01" nType="-99"/>
            </Node>
            <Node pos="r" depth="3" NCoef="0" IVar="2" Cut="3.9513523578643799e+00" cType="1" res="2.5511771440505981e-01" rms="2.1722657978534698e-01" purity="9.4643586874008179e-01" nType="0">
              <Node pos="l" depth="4" NCoef="0" IVar="-1" Cut="0.0000000000000000e+00" cType="1" res="3.5051312297582626e-02" rms="2.6524084806442261e-01" purity="9.1775763034820557e-01" nType="-99"/>
              <Node pos="r" depth="4" NCoef="0" IVar="-1" Cut="0.0000000000000000e+00" cType="1" res="4.3874241411685944e-02" rms="1.0735458880662918e-01" purity="9.8893576860427856e-01" nType="-99"/>
            </Node>
          </Node>
          <Node pos="r" depth="2" NCoef="0" IVar="-1" Cut="0.0000000000000000e+00" cType="1" res="-2.1018326282501221e-02" rms="4.2874002456665039e-01" purity="2.6984688639640808e-01" nType="-99"/>
        </Node>
      </Node>
    </BinaryTree>
    <BinaryTree type="DecisionTree" boostWeight="1.0000000000000000e+00" itree="12">
      <Node pos="s" depth="0" NCoef="0" IVar="0" Cut="-6.2358045578002930e-01" cType="1" res="-3.1922156922519207e-03" rms="3.9383614063262939e-01" purity="4.8934578895568848e-01" nType="0">
        <Node pos="l" depth="1" NCoef="0" IVar="6" Cut="3.0708145141601562e+01" cType="1" res="0.0000000000000000e+00" rms="0.0000000000000000e+00" purity="3.0615559220314026e-01" nType="0">
          <Node pos="l" depth="2" NCoef="0" IVar="-1" Cut="0.0000000000000000e+00" cType="1" res="-3.1030168756842613e-02" rms="2.8695040941238403e-01" purity="1.3127459585666656e-01" nType="-99"/>
          <Node pos="r" depth="2" NCoef="0" IVar="12" Cut="1.5507270097732544e+00" cType="1" res="3.3068481832742691e-02" rms="4.6239712834358215e-01" purity="5.3211122751235962e-01" nType="0">
            <Node pos="l" depth="3" NCoef="0" IVar="11" Cut="6.9308221340179443e-02" cType="1" res="1.5161366760730743e-01" rms="4.4435632228851318e-01" purity="7.0283192396163940e-01" nType="0">
              <Node pos="l" depth="4" NCoef="0" IVar="-1" Cut="0.0000000000000000e+00" cType="1" res="2.6625404134392738e-02" rms="4.1376444697380066e-01" purity="7.5768125057220459e-01" nType="-99"/>
              <Node pos="r" depth="4" NCoef="0" IVar="-1" Cut="0.0000000000000000e+00" cType="1" res="1.3975561596453190e-02" rms="4.6413359045982361e-01" purity="6.5629833936691284e-01" nType="-99"/>
            </Node>
            <Node pos="r" depth="3" NCoef="0" IVar="-1" Cut="0.0000000000000000e+00" cType="1" res="-1.6326718032360077e-02" rms="4.3842062354087830e-01" purity="3.0599585175514221e-01" nType="-99"/>
          </Node>
        </Node>
        <Node pos="r" depth="1" NCoef="0" IVar="6" Cut="3.0035779953002930e+01" cType="1" res="8.2898423075675964e-02" rms="3.7451699376106262e-01" purity="6.4868402481079102e-01" nType="0">
          <Node pos="l" depth="2" NCoef="0" IVar="7" Cut="3.0413031578063965e-02" cType="1" res="-1.0904487967491150e-01" rms="3.7285470962524414e-01" purity="2.5490009784698486e-01" nType="0">
            <Node pos="l" depth="3" NCoef="0" IVar="-1" Cut="0.0000000000000000e+00" cType="1" res="-1.5510175377130508e-02" rms="3.7283667922019958e-01" purity="2.5905787944793701e-01" nType="-99"/>
            <Node pos="r" depth="3" NCoef="0" IVar="-1" Cut="0.0000000000000000e+00" cType="1" res="-1.6564870253205299e-02" rms="3.7283673882484436e-01" purity="2.5055196881294250e-01" nType="-99"/>
          </Node>
          <Node pos="r" depth="2" NCoef="0" IVar="12" Cut="2.0898966789245605e+00" cType="1" res="1.6965420544147491e-01" rms="3.4153440594673157e-01" purity="8.2666903734207153e-01" nType="0">
            <Node pos="l" depth="3" NCoef="0" IVar="6" Cut="3.0651920318603516e+01" cType="1" res="2.1190299093723297e-01" rms="2.9950952529907227e-01" purity="8.8265824317932129e-01" nType="0">
              <Node pos="l" depth="4" NCoef="0" IVar="-1" Cut="0.0000000000000000e+00" cType="1" res="3.8249511271715164e-02" rms="2.1851657330989838e-01" purity="9.4455462694168091e-01" nType="-99"/>
              <Node pos="r" depth="4" NCoef="0" IVar="-1" Cut="0.0000000000000000e+00" cType="1" res="1.3852912001311779e-02" rms="4.3484079837799072e-01" purity="7.1166604757308960e-01" nType="-99"/>
            </Node>
            <Node pos="r" depth="3" NCoef="0" IVar="-1" Cut="0.0000000000000000e+00" cType="1" res="-2.6606281753629446e-03" rms="4.3982860445976257e-01" purity="5.7623612880706787e-01" nType="-99"/>
          </Node>
        </Node>
      </Node>
    </BinaryTree>
    <BinaryTree type="DecisionTree" boostWeight="1.0000000000000000e+00" itree="13">
      <Node pos="s" depth="0" NCoef="0" IVar="6" Cut="2.9511835098266602e+01" cType="1" res="5.0698937848210335e-03" rms="3.9674532413482666e-01" purity="5.0996023416519165e-01" nType="0">
        <Node pos="l" depth="1" NCoef="0" IVar="-1" Cut="0.0000000000000000e+00" cType="1" res="-3.3003251999616623e-02" rms="2.5153008103370667e-01" purity="7.1455575525760651e-02" nType="-99"/>
        <Node pos="r" depth="1" NCoef="0" IVar="0" Cut="2.5626721978187561e-01" cType="1" res="7.5614392757415771e-02" rms="4.1107645630836487e-01" purity="6.5645462274551392e-01" nType="0">
          <Node pos="l" depth="2" NCoef="0" IVar="12" Cut="1.8018360137939453e+00" cType="1" res="1.7463432624936104e-02" rms="4.4623851776123047e-01" purity="5.5179691314697266e-01" nType="0">
            <Node pos="l" depth="3" NCoef="0" IVar="10" Cut="7.3464941978454590e-01" cType="1" res="0.0000000000000000e+00" rms="0.0000000000000000e+00" purity="6.2766003608703613e-01" nType="0">
              <Node pos="l" depth="4" NCoef="0" IVar="-1" Cut="0.0000000000000000e+00" cType="1" res="-1.1643147096037865e-02" rms="4.5282900333404541e-01" purity="4.4618585705757141e-01" nType="-99"/>
              <Node pos="r" depth="4" NCoef="0" IVar="-1" Cut="0.0000000000000000e+00" cType="1" res="1.6721617430448532e-02" rms="4.2304623126983643e-01" purity="6.9933420419692993e-01" nType="-99"/>
            </Node>
            <Node pos="r" depth="3" NCoef="0" IVar="3" Cut="-1.6709196567535400e-01" cType="1" res="-1.1433175951242447e-01" rms="4.3199640512466431e-01" purity="3.3428210020065308e-01" nType="0">
              <Node pos="l" depth="4" NCoef="0" IVar="-1" Cut="0.0000000000000000e+00" cType="1" res="-1.4903906732797623e-02" rms="4.2932811379432678e-01" purity="3.3133199810981750e-01" nType="-99"/>
              <Node pos="r" depth="4" NCoef="0" IVar="-1" Cut="0.0000000000000000e+00" cType="1" res="-1.5786133706569672e-02" rms="4.3443715572357178e-01" purity="3.3702731132507324e-01" nType="-99"/>
            </Node>
          </Node>
          <Node pos="r" depth="2" NCoef="0" IVar="2" Cut="2.4476914405822754e+00" cType="1" res="2.1974602341651917e-01" rms="2.5517031550407410e-01" purity="9.1585701704025269e-01" nType="0">
            <Node pos="l" depth="3" NCoef="0" IVar="-1" Cut="0.0000000000000000e+00" cType="1" res="1.9337870180606842e-02" rms="3.8085690140724182e-01" purity="7.7882802486419678e-01" nType="-99"/>
            <Node pos="r" depth="3" NCoef="0" IVar="0" Cut="1.1001392602920532e+00" cType="1" res="2.5076869130134583e-01" rms="1.8066297471523285e-01" purity="9.6529805660247803e-01" nType="0">
              <Node pos="l" depth="4" NCoef="0" IVar="-1" Cut="0.0000000000000000e+00" cType="1" res="3.7350017577409744e-02" rms="2.0398579537868500e-01" purity="9.5152831077575684e-01" nType="-99"/>
              <Node pos="r" depth="4" NCoef="0" IVar="-1" Cut="0.0000000000000000e+00" cType="1" res="4.4157296419143677e-02" rms="1.3789197802543640e-01" purity="9.8418778181076050e-01" nType="-99"/>
            </Node>
          </Node>
        </Node>
      </Node>
    </BinaryTree>
    <BinaryTree type="DecisionTree" boostWeight="1.0000000000000000e+00" itree="14">
      <Node pos="s" depth="0" NCoef="0" IVar="6" Cut="2.9813388824462891e+01" cType="1" res="0.0000000000000000e+00" rms="0.0000000000000000e+00" purity="4.9134039878845215e-01" nType="0">
        <Node pos="l" depth="1" NCoef="0" IVar="8" Cut="1.9325613975524902e+00" cType="1" res="0.0000000000000000e+00" rms="0.0000000000000000e+00" purity="1.0238611698150635e-01" nType="0">
          <Node pos="l" depth="2" NCoef="0" IVar="-1" Cut="0.0000000000000000e+00" cType="1" res="-2.9564399272203445e-02" rms="2.8170874714851379e-01" purity="1.0147853940725327e-01" nType="-99"/>
          <Node pos="r" depth="2" NCoef="0" IVar="-1" Cut="0.0000000000000000e+00" cType="1" res="-2.8955155983567238e-02" rms="2.8472658991813660e-01" purity="1.0330796241760254e-01" nType="-99"/>
        </Node>
        <Node pos="r" depth="1" NCoef="0" IVar="12" Cut="1.9536416530609131e+00" cType="1" res="0.0000000000000000e+00" rms="0.0000000000000000e+00" purity="6.6900569200515747e-01" nType="0">
          <Node pos="l" depth="2" NCoef="0" IVar="2" Cut="2.2815058231353760e+00" cType="1" res="0.0000000000000000e+00" rms="0.0000000000000000e+00" purity="7.3646473884582520e-01" nType="0">
            <Node pos="l" depth="3" NCoef="0" IVar="9" Cut="7.8088021278381348e-01" cType="1" res="0.0000000000000000e+00" rms="0.0000000000000000e+00" purity="5.8686637878417969e-01" nType="0">
              <Node pos="l" depth="4" NCoef="0" IVar="-1" Cut="0.0000000000000000e+00" cType="1" res="1.4178866986185312e-03" rms="4.5187231898307800e-01" purity="6.3871288299560547e-01" nType="-99"/>
              <Node pos="r" depth="4" NCoef="0" IVar="-1" Cut="0.0000000000000000e+00" cType="1" res="-9.4215106219053268e-03" rms="4.9223351478576660e-01" purity="5.3856539726257324e-01" nType="-99"/>
            </Node>
            <Node pos="r" depth="3" NCoef="0" IVar="6" Cut="3.0883886337280273e+01" cType="1" res="0.0000000000000000e+00" rms="0.0000000000000000e+00" purity="7.7324444055557251e-01" nType="0">
              <Node pos="l" depth="4" NCoef="0" IVar="-1" Cut="0.0000000000000000e+00" cType="1" res="2.5225549936294556e-02" rms="3.3496397733688354e-01" purity="8.2181078195571899e-01" nType="-99"/>
              <Node pos="r" depth="4" NCoef="0" IVar="-1" Cut="0.0000000000000000e+00" cType="1" res="1.1730033438652754e-03" rms="4.6853092312812805e-01" purity="4.9074164032936096e-01" nType="-99"/>
            </Node>
          </Node>
          <Node pos="r" depth="2" NCoef="0" IVar="0" Cut="-1.4075136184692383e-01" cType="1" res="-7.5670406222343445e-02" rms="4.2866653203964233e-01" purity="4.3675446510314941e-01" nType="0">
            <Node pos="l" depth="3" NCoef="0" IVar="-1" Cut="0.0000000000000000e+00" cType="1" res="-2.1463489159941673e-02" rms="4.1509699821472168e-01" purity="2.6153025031089783e-01" nType="-99"/>
            <Node pos="r" depth="3" NCoef="0" IVar="-1" Cut="0.0000000000000000e+00" cType="1" res="9.6479868516325951e-03" rms="4.1285577416419983e-01" purity="7.2734993696212769e-01" nType="-99"/>
          </Node>
        </Node>
      </Node>
    </BinaryTree>
    <BinaryTree type="DecisionTree" boostWeight="1.0000000000000000e+00" itree="15">
      <Node pos="s" depth="0" NCoef="0" IVar="6" Cut="2.9934701919555664e+01" cType="1" res="-5.9544376563280821e-04" rms="3.9058527350425720e-01" purity="5.0448697805404663e-01" nType="0">
        <Node pos="l" depth="1" NCoef="0" IVar="10" Cut="1.3749399185180664e+00" cType="1" res="0.0000000000000000e+00" rms="0.0000000000000000e+00" purity="1.3150425255298615e-01" nType="0">
          <Node pos="l" depth="2" NCoef="0" IVar="-1" Cut="0.0000000000000000e+00" cType="1" res="-3.1686220318078995e-02" rms="2.5594717264175415e-01" purity="8.6252190172672272e-02" nType="-99"/>
          <Node pos="r" depth="2" NCoef="0" IVar="-1" Cut="0.0000000000000000e+00" cType="1" res="-1.3217264786362648e-02" rms="3.7422713637351990e-01" purity="2.2846981883049011e-01" nType="-99"/>
        </Node>
        <Node pos="r" depth="1" NCoef="0" IVar="0" Cut="1.7123253643512726e-01" cType="1" res="7.9324439167976379e-02" rms="4.0500485897064209e-01" purity="6.9224703311920166e-01" nType="0">
          <Node pos="l" depth="2" NCoef="0" IVar="12" Cut="1.9536416530609131e+00" cType="1" res="2.9897017404437065e-02" rms="4.4915404915809631e-01" purity="5.8798438310623169e-01" nType="0">
            <Node pos="l" depth="3" NCoef="0" IVar="2" Cut="3.5089583396911621e+00" cType="1" res="7.0481590926647186e-02" rms="4.4289708137512207e-01" purity="6.6151195764541626e-01" nType="0">
              <Node pos="l" depth="4" NCoef="0" IVar="-1" Cut="0.0000000000000000e+00" cType="1" res="1.3927629217505455e-02" rms="4.4190791249275208e-01" purity="6.9551002979278564e-01" nType="-99"/>
              <Node pos="r" depth="4" NCoef="0" IVar="-1" Cut="0.0000000000000000e+00" cType="1" res="-1.0770016349852085e-02" rms="4.1635403037071228e-01" purity="5.0649422407150269e-01" nType="-99"/>
            </Node>
            <Node pos="r" depth="3" NCoef="0" IVar="-1" Cut="0.0000000000000000e+00" cType="1" res="-1.5089175663888454e-02" rms="4.4175159931182861e-01" purity="3.2882392406463623e-01" nType="-99"/>
          </Node>
          <Node pos="r" depth="2" NCoef="0" IVar="6" Cut="3.0477785110473633e+01" cType="1" res="1.8504254519939423e-01" rms="2.5878584384918213e-01" purity="9.1524958610534668e-01" nType="0">
            <Node pos="l" depth="3" NCoef="0" IVar="0" Cut="9.6878927946090698e-01" cType="1" res="2.1968367695808411e-01" rms="1.7053909599781036e-01" purity="9.6820759773254395e-01" nType="0">
              <Node pos="l" depth="4" NCoef="0" IVar="-1" Cut="0.0000000000000000e+00" cType="1" res="3.4132156521081924e-02" rms="2.1976792812347412e-01" purity="9.4549542665481567e-01" nType="-99"/>
              <Node pos="r" depth="4" NCoef="0" IVar="-1" Cut="0.0000000000000000e+00" cType="1" res="4.0587902069091797e-02" rms="1.1211043596267700e-01" purity="9.8711597919464111e-01" nType="-99"/>
            </Node>
            <Node pos="r" depth="3" NCoef="0" IVar="-1" Cut="0.0000000000000000e+00" cType="1" res="2.0209452137351036e-02" rms="3.4907159209251404e-01" purity="8.3171778917312622e-01" nType="-99"/>
          </Node>
        </Node>
      </Node>
    </BinaryTree>
    <BinaryTree type="DecisionTree" boostWeight="1.0000000000000000e+00" itree="16">
      <Node pos="s" depth="0" NCoef="0" IVar="9" Cut="4.6910104155540466e-01" cType="1" res="0.0000000000000000e+00" rms="0.0000000000000000e+00" purity="4.8291137814521790e-01" nType="0">
        <Node pos="l" depth="1" NCoef="0" IVar="10" Cut="9.7464931011199951e-01" cType="1" res="-6.2942191958427429e-02" rms="3.7339490652084351e-01" purity="4.1656604409217834e-01" nType="0">
          <Node pos="l" depth="2" NCoef="0" IVar="7" Cut="-7.4021816253662109e-03" cType="1" res="0.0000000000000000e+00" rms="0.0000000000000000e+00" purity="2.0327165722846985e-01" nType="0">
            <Node pos="l" depth="3" NCoef="0" IVar="-1" Cut="0.0000000000000000e+00" cType="1" res="-3.4246206283569336e-02" rms="3.1702086329460144e-01" purity="1.8005844950675964e-01" nType="-99"/>
            <Node pos="r" depth="3" NCoef="0" IVar="-1" Cut="0.0000000000000000e+00" cType="1" res="-2.7630813419818878e-02" rms="3.3762121200561523e-01" purity="2.3359452188014984e-01" nType="-99"/>
          </Node>
          <Node pos="r" depth="2" NCoef="0" IVar="6" Cut="3.0105342864990234e+01" cType="1" res="8.6060442030429840e-02" rms="3.5812014341354370e-01" purity="6.3200080394744873e-01" nType="0">
            <Node pos="l" depth="3" NCoef="0" IVar="-1" Cut="0.0000000000000000e+00" cType="1" res="-1.0085589252412319e-02" rms="3.6295700073242188e-01" purity="2.7794462442398071e-01" nType="-99"/>
            <Node pos="r" depth="3" NCoef="0" IVar="12" Cut="1.3971422910690308e+00" cType="1" res="1.6782645881175995e-01" rms="3.2783406972885132e-01" purity="8.2644408941268921e-01" nType="0">
              <Node pos="l" depth="4" NCoef="0" IVar="-1" Cut="0.0000000000000000e+00" cType="1" res="3.6680210381746292e-02" rms="2.4200667440891266e-01" purity="9.3169611692428589e-01" nType="-99"/>
              <Node pos="r" depth="4" NCoef="0" IVar="-1" Cut="0.0000000000000000e+00" cType="1" res="1.0396097786724567e-02" rms="3.9952933788299561e-01" purity="6.7956900596618652e-01" nType="-99"/>
            </Node>
          </Node>
        </Node>
        <Node pos="r" depth="1" NCoef="0" IVar="6" Cut="2.9735094070434570e+01" cType="1" res="0.0000000000000000e+00" rms="0.0000000000000000e+00" purity="5.6309956312179565e-01" nType="0">
          <Node pos="l" depth="2" NCoef="0" IVar="-1" Cut="0.0000000000000000e+00" cType="1" res="-2.6411652565002441e-02" rms="2.8720924258232117e-01" purity="1.0075750201940536e-01" nType="-99"/>
          <Node pos="r" depth="2" NCoef="0" IVar="8" Cut="1.3084317445755005e+00" cType="1" res="1.2437204271554947e-01" rms="3.9210140705108643e-01" purity="7.3775333166122437e-01" nType="0">
            <Node pos="l" depth="3" NCoef="0" IVar="-1" Cut="0.0000000000000000e+00" cType="1" res="-6.4329090528190136e-03" rms="4.1566610336303711e-01" purity="5.6527471542358398e-01" nType="-99"/>
            <Node pos="r" depth="3" NCoef="0" IVar="10" Cut="5.6112289428710938e-01" cType="1" res="0.0000000000000000e+00" rms="0.0000000000000000e+00" purity="7.7754354476928711e-01" nType="0">
              <Node pos="l" depth="4" NCoef="0" IVar="-1" Cut="0.0000000000000000e+00" cType="1" res="1.8772773444652557e-02" rms="3.6210376024246216e-01" purity="7.6517760753631592e-01" nType="-99"/>
              <Node pos="r" depth="4" NCoef="0" IVar="-1" Cut="0.0000000000000000e+00" cType="1" res="2.5000449270009995e-02" rms="3.7941443920135498e-01" purity="7.8153926134109497e-01" nType="-99"/>
            </Node>
          </Node>
        </Node>
      </Node>
    </BinaryTree>
    <BinaryTree type="DecisionTree" boostWeight="1.0000000000000000e+00" itree="17">
      <Node pos="s" depth="0" NCoef="0" IVar="6" Cut="2.9877567291259766e+01" cType="1" res="8.1454729661345482e-03" rms="3.7991565465927124e-01" purity="5.1261830329895020e-01" nType="0">
        <Node pos="l" depth="1" NCoef="0" IVar="6" Cut="2.9366704940795898e+01" cType="1" res="0.0000000000000000e+00" rms="0.0000000000000000e+00" purity="1.2405440211296082e-01" nType="0">
          <Node pos="l" depth="2" NCoef="0" IVar="-1" Cut="0.0000000000000000e+00" cType="1" res="-3.1081546097993851e-02" rms="2.3483048379421234e-01" purity="6.0801435261964798e-02" nType="-99"/>
          <Node pos="r" depth="2" NCoef="0" IVar="-1" Cut="0.0000000000000000e+00" cType="1" res="-7.4784145690500736e-03" rms="4.1105717420578003e-01" purity="2.8655037283897400e-01" nType="-99"/>
        </Node>
        <Node pos="r" depth="1" NCoef="0" IVar="0" Cut="-3.3624279499053955e-01" cType="1" res="7.4697084724903107e-02" rms="3.9322054386138916e-01" purity="6.8837529420852661e-01" nType="0">
          <Node pos="l" depth="2" NCoef="0" IVar="12" Cut="1.3482860326766968e+00" cType="1" res="6.3795037567615509e-04" rms="4.4550535082817078e-01" purity="5.2148085832595825e-01" nType="0">
            <Node pos="l" depth="3" NCoef="0" IVar="8" Cut="2.4632341861724854e+00" cType="1" res="6.7579656839370728e-02" rms="4.4237738847732544e-01" purity="6.4812111854553223e-01" nType="0">
              <Node pos="l" depth="4" NCoef="0" IVar="-1" Cut="0.0000000000000000e+00" cType="1" res="1.8551668152213097e-02" rms="4.0602195262908936e-01" purity="7.2095477581024170e-01" nType="-99"/>
              <Node pos="r" depth="4" NCoef="0" IVar="-1" Cut="0.0000000000000000e+00" cType="1" res="-5.2899285219609737e-03" rms="4.7344401478767395e-01" purity="5.3608584403991699e-01" nType="-99"/>
            </Node>
            <Node pos="r" depth="3" NCoef="0" IVar="12" Cut="1.8533959388732910e+00" cType="1" res="-8.6609221994876862e-02" rms="4.3432953953742981e-01" purity="3.5642674565315247e-01" nType="0">
              <Node pos="l" depth="4" NCoef="0" IVar="-1" Cut="0.0000000000000000e+00" cType="1" res="6.0747154057025909e-03" rms="4.5080929994583130e-01" purity="5.7270389795303345e-01" nType="-99"/>
              <Node pos="r" depth="4" NCoef="0" IVar="-1" Cut="0.0000000000000000e+00" cType="1" res="-2.0487122237682343e-02" rms="4.1067832708358765e-01" purity="2.5039696693420410e-01" nType="-99"/>
            </Node>
          </Node>
          <Node pos="r" depth="2" NCoef="0" IVar="6" Cut="3.0613658905029297e+01" cType="1" res="1.5687438845634460e-01" rms="3.0516177415847778e-01" purity="8.7356412410736084e-01" nType="0">
            <Node pos="l" depth="3" NCoef="0" IVar="2" Cut="3.3854320049285889e+00" cType="1" res="1.9730973243713379e-01" rms="2.2304005920886993e-01" purity="9.4059431552886963e-01" nType="0">
              <Node pos="l" depth="4" NCoef="0" IVar="-1" Cut="0.0000000000000000e+00" cType="1" res="2.9271997511386871e-02" rms="2.8110650181770325e-01" purity="9.0295499563217163e-01" nType="-99"/>
              <Node pos="r" depth="4" NCoef="0" IVar="-1" Cut="0.0000000000000000e+00" cType="1" res="3.9034392684698105e-02" rms="1.2907387316226959e-01" purity="9.8225730657577515e-01" nType="-99"/>
            </Node>
            <Node pos="r" depth="3" NCoef="0" IVar="-1" Cut="0.0000000000000000e+00" cType="1" res="7.5054005719721317e-03" rms="4.3600168824195862e-01" purity="7.0029789209365845e-01" nType="-99"/>
          </Node>
        </Node>
      </Node>
    </BinaryTree>
    <BinaryTree type="DecisionTree" boostWeight="1.0000000000000000e+00" itree="18">
      <Node pos="s" depth="0" NCoef="0" IVar="0" Cut="-9.7200393676757812e-02" cType="1" res="4.9454630352556705e-03" rms="3.7778899073600769e-01" purity="5.0922244787216187e-01" nType="0">
        <Node pos="l" depth="1" NCoef="0" IVar="6" Cut="3.0579256057739258e+01" cType="1" res="-5.6992061436176300e-02" rms="3.8920992612838745e-01" purity="3.6903962492942810e-01" nType="0">
          <Node pos="l" depth="2" NCoef="0" IVar="-1" Cut="0.0000000000000000e+00" cType="1" res="-2.6386953890323639e-02" rms="2.8493264317512512e-01" purity="1.3870304822921753e-01" nType="-99"/>
          <Node pos="r" depth="2" NCoef="0" IVar="6" Cut="3.0973136901855469e+01" cType="1" res="3.3008299767971039e-02" rms="4.4507250189781189e-01" purity="5.7759803533554077e-01" nType="0">
            <Node pos="l" depth="3" NCoef="0" IVar="9" Cut="5.7581663131713867e-01" cType="1" res="8.2076951861381531e-02" rms="4.3980967998504639e-01" purity="6.7167115211486816e-01" nType="0">
              <Node pos="l" depth="4" NCoef="0" IVar="-1" Cut="0.0000000000000000e+00" cType="1" res="3.8005103124305606e-04" rms="4.5503875613212585e-01" purity="5.9094101190567017e-01" nType="-99"/>
              <Node pos="r" depth="4" NCoef="0" IVar="-1" Cut="0.0000000000000000e+00" cType="1" res="2.7894113212823868e-02" rms="3.8271561264991760e-01" purity="7.9883176088333130e-01" nType="-99"/>
            </Node>
            <Node pos="r" depth="3" NCoef="0" IVar="-1" Cut="0.0000000000000000e+00" cType="1" res="-1.6901405528187752e-02" rms="4.2469924688339233e-01" purity="2.7469435334205627e-01" nType="-99"/>
          </Node>
        </Node>
        <Node pos="r" depth="1" NCoef="0" IVar="6" Cut="2.9733167648315430e+01" cType="1" res="1.2401772290468216e-01" rms="3.2300293445587158e-01" purity="7.7871799468994141e-01" nType="0">
          <Node pos="l" depth="2" NCoef="0" IVar="-1" Cut="0.0000000000000000e+00" cType="1" res="-3.1687824521213770e-03" rms="4.1793891787528992e-01" purity="2.6681098341941833e-01" nType="-99"/>
          <Node pos="r" depth="2" NCoef="0" IVar="2" Cut="2.2556271553039551e+00" cType="1" res="1.5621288120746613e-01" rms="2.8795376420021057e-01" purity="8.9331322908401489e-01" nType="0">
            <Node pos="l" depth="3" NCoef="0" IVar="-1" Cut="0.0000000000000000e+00" cType="1" res="4.7001647762954235e-03" rms="4.4051617383956909e-01" purity="7.0919138193130493e-01" nType="-99"/>
            <Node pos="r" depth="3" NCoef="0" IVar="12" Cut="1.3994058370590210e+00" cType="1" res="1.9299003481864929e-01" rms="2.1023097634315491e-01" purity="9.4762402772903442e-01" nType="0">
              <Node pos="l" depth="4" NCoef="0" IVar="-1" Cut="0.0000000000000000e+00" cType="1" res="3.7801571190357208e-02" rms="1.5929973125457764e-01" purity="9.7414523363113403e-01" nType="-99"/>
              <Node pos="r" depth="4" NCoef="0" IVar="-1" Cut="0.0000000000000000e+00" cType="1" res="2.9208753257989883e-02" rms="2.6637703180313110e-01" purity="9.0888196229934692e-01" nType="-99"/>
            </Node>
          </Node>
        </Node>
      </Node>
    </BinaryTree>
    <BinaryTree type="DecisionTree" boostWeight="1.0000000000000000e+00" itree="19">
      <Node pos="s" depth="0" NCoef="0" IVar="0" Cut="6.7107391357421875e-01" cType="1" res="1.3354705646634102e-02" rms="3.7553882598876953e-01" purity="5.2385509014129639e-01" nType="0">
        <Node pos="l" depth="1" NCoef="0" IVar="6" Cut="3.0283803939819336e+01" cType="1" res="-1.7762662842869759e-02" rms="3.8754537701606750e-01" purity="4.5629769563674927e-01" nType="0">
          <Node pos="l" depth="2" NCoef="0" IVar="0" Cut="-3.6618044972419739e-01" cType="1" res="-1.4729997515678406e-01" rms="3.0006366968154907e-01" purity="1.3143256306648254e-01" nType="0">
            <Node pos="l" depth="3" NCoef="0" IVar="-1" Cut="0.0000000000000000e+00" cType="1" res="-3.0702015385031700e-02" rms="2.6704260706901550e-01" purity="8.6398154497146606e-02" nType="-99"/>
            <Node pos="r" depth="3" NCoef="0" IVar="-1" Cut="0.0000000000000000e+00" cType="1" res="-9.0711219236254692e-03" rms="3.7314659357070923e-01" purity="2.7661669254302979e-01" nType="-99"/>
          </Node>
          <Node pos="r" depth="2" NCoef="0" IVar="12" Cut="2.2614960670471191e+00" cType="1" res="0.0000000000000000e+00" rms="0.0000000000000000e+00" purity="6.7780631780624390e-01" nType="0">
            <Node pos="l" depth="3" NCoef="0" IVar="1" Cut="4.2181887626647949e+00" cType="1" res="0.0000000000000000e+00" rms="0.0000000000000000e+00" purity="7.2916191816329956e-01" nType="0">
              <Node pos="l" depth="4" NCoef="0" IVar="-1" Cut="0.0000000000000000e+00" cType="1" res="2.1117560565471649e-02" rms="3.8209468126296997e-01" purity="7.8380626440048218e-01" nType="-99"/>
              <Node pos="r" depth="4" NCoef="0" IVar="-1" Cut="0.0000000000000000e+00" cType="1" res="-2.9981373809278011e-03" rms="4.3264469504356384e-01" purity="5.9701275825500488e-01" nType="-99"/>
            </Node>
            <Node pos="r" depth="3" NCoef="0" IVar="-1" Cut="0.0000000000000000e+00" cType="1" res="-1.2237797491252422e-02" rms="4.3868440389633179e-01" purity="3.6356201767921448e-01" nType="-99"/>
          </Node>
        </Node>
        <Node pos="r" depth="1" NCoef="0" IVar="2" Cut="3.4555773735046387e+00" cType="1" res="0.0000000000000000e+00" rms="0.0000000000000000e+00" purity="8.8392370939254761e-01" nType="0">
          <Node pos="l" depth="2" NCoef="0" IVar="-1" Cut="0.0000000000000000e+00" cType="1" res="2.6787238195538521e-02" rms="2.8784045577049255e-01" purity="8.2630264759063721e-01" nType="-99"/>
          <Node pos="r" depth="2" NCoef="0" IVar="-1" Cut="0.0000000000000000e+00" cType="1" res="3.7693310528993607e-02" rms="1.9278377294540405e-01" purity="9.3695402145385742e-01" nType="-99"/>
        </Node>
      </Node>
    </BinaryTree>
    <BinaryTree type="DecisionTree" boostWeight="1.0000000000000000e+00" itree="20">
      <Node pos="s" depth="0" NCoef="0" IVar="6" Cut="2.9934701919555664e+01" cType="1" res="-1.2234495021402836e-02" rms="3.7277099490165710e-01" purity="4.8746758699417114e-01" nType="0">
        <Node pos="l" depth="1" NCoef="0" IVar="12" Cut="1.4036868810653687e+00" cType="1" res="-1.3000470399856567e-01" rms="2.9297673702239990e-01" purity="1.2370288372039795e-01" nType="0">
          <Node pos="l" depth="2" NCoef="0" IVar="-1" Cut="0.0000000000000000e+00" cType="1" res="-1.8888084217905998e-02" rms="3.2679966092109680e-01" purity="1.5552747249603271e-01" nType="-99"/>
          <Node pos="r" depth="2" NCoef="0" IVar="-1" Cut="0.0000000000000000e+00" cType="1" res="-2.8416084125638008e-02" rms="2.4528108537197113e-01" purity="8.6503006517887115e-02" nType="-99"/>
        </Node>
        <Node pos="r" depth="1" NCoef="0" IVar="6" Cut="3.0939437866210938e+01" cType="1" res="5.0639919936656952e-02" rms="3.9491918683052063e-01" purity="6.8167197704315186e-01" nType="0">
          <Node pos="l" depth="2" NCoef="0" IVar="2" Cut="2.5204138755798340e+00" cType="1" res="7.7131249010562897e-02" rms="3.8123163580894470e-01" purity="7.4746352434158325e-01" nType="0">
            <Node pos="l" depth="3" NCoef="0" IVar="2" Cut="2.0652670860290527e+00" cType="1" res="-7.5008198618888855e-03" rms="4.5355549454689026e-01" purity="6.3785535097122192e-01" nType="0">
              <Node pos="l" depth="4" NCoef="0" IVar="-1" Cut="0.0000000000000000e+00" cType="1" res="-1.4902958646416664e-02" rms="4.8266068100929260e-01" purity="5.5562788248062134e-01" nType="-99"/>
              <Node pos="r" depth="4" NCoef="0" IVar="-1" Cut="0.0000000000000000e+00" cType="1" res="7.7893370762467384e-03" rms="4.2238965630531311e-01" purity="6.9109374284744263e-01" nType="-99"/>
            </Node>
            <Node pos="r" depth="3" NCoef="0" IVar="0" Cut="-3.9875316619873047e-01" cType="1" res="1.1662162840366364e-01" rms="3.3505848050117493e-01" purity="7.9860812425613403e-01" nType="0">
              <Node pos="l" depth="4" NCoef="0" IVar="-1" Cut="0.0000000000000000e+00" cType="1" res="6.3348053954541683e-03" rms="4.2745214700698853e-01" purity="6.1865901947021484e-01" nType="-99"/>
              <Node pos="r" depth="4" NCoef="0" IVar="-1" Cut="0.0000000000000000e+00" cType="1" res="3.2010268419981003e-02" rms="2.2055961191654205e-01" purity="9.4281029701232910e-01" nType="-99"/>
            </Node>
          </Node>
          <Node pos="r" depth="2" NCoef="0" IVar="-1" Cut="0.0000000000000000e+00" cType="1" res="-1.3499137014150620e-02" rms="4.3550568819046021e-01" purity="3.0832615494728088e-01" nType="-99"/>
        </Node>
      </Node>
    </BinaryTree>
    <BinaryTree type="DecisionTree" boostWeight="1.0000000000000000e+00" itree="21">
      <Node pos="s" depth="0" NCoef="0" IVar="0" Cut="6.7107391357421875e-01" cType="1" res="2.7805345598608255e-04" rms="3.7243252992630005e-01" purity="5.0804859399795532e-01" nType="0">
        <Node pos="l" depth="1" NCoef="0" IVar="6" Cut="3.0115901947021484e+01" cType="1" res="0.0000000000000000e+00" rms="0.0000000000000000e+00" purity="4.4024705886840820e-01" nType="0">
          <Node pos="l" depth="2" NCoef="0" IVar="-1" Cut="0.0000000000000000e+00" cType="1" res="-2.4233736097812653e-02" rms="2.8465715050697327e-01" purity="1.1139959841966629e-01" nType="-99"/>
          <Node pos="r" depth="2" NCoef="0" IVar="0" Cut="-2.7273556590080261e-01" cType="1" res="3.2737020403146744e-02" rms="4.1974604129791260e-01" purity="6.3593786954879761e-01" nType="0">
            <Node pos="l" depth="3" NCoef="0" IVar="10" Cut="2.0815627574920654e+00" cType="1" res="-5.3480328060686588e-03" rms="4.4937035441398621e-01" purity="5.3889608383178711e-01" nType="0">
              <Node pos="l" depth="4" NCoef="0" IVar="-1" Cut="0.0000000000000000e+00" cType="1" res="-4.6976935118436813e-03" rms="4.5080426335334778e-01" purity="5.0581479072570801e-01" nType="-99"/>
              <Node pos="r" depth="4" NCoef="0" IVar="-1" Cut="0.0000000000000000e+00" cType="1" res="2.2607497870922089e-02" rms="4.0051159262657166e-01" purity="7.3393988609313965e-01" nType="-99"/>
            </Node>
            <Node pos="r" depth="3" NCoef="0" IVar="2" Cut="2.5894937515258789e+00" cType="1" res="0.0000000000000000e+00" rms="0.0000000000000000e+00" purity="8.3464139699935913e-01" nType="0">
              <Node pos="l" depth="4" NCoef="0" IVar="-1" Cut="0.0000000000000000e+00" cType="1" res="3.0000759288668633e-03" rms="4.3521156907081604e-01" purity="6.9262057542800903e-01" nType="-99"/>
              <Node pos="r" depth="4" NCoef="0" IVar="-1" Cut="0.0000000000000000e+00" cType="1" res="3.2563883811235428e-02" rms="2.1581798791885376e-01" purity="9.4238668680191040e-01" nType="-99"/>
            </Node>
          </Node>
        </Node>
        <Node pos="r" depth="1" NCoef="0" IVar="11" Cut="-6.1717534065246582e-01" cType="1" res="0.0000000000000000e+00" rms="0.0000000000000000e+00" purity="8.7598073482513428e-01" nType="0">
          <Node pos="l" depth="2" NCoef="0" IVar="-1" Cut="0.0000000000000000e+00" cType="1" res="3.6000493913888931e-02" rms="2.2446407377719879e-01" purity="9.2603904008865356e-01" nType="-99"/>
          <Node pos="r" depth="2" NCoef="0" IVar="-1" Cut="0.0000000000000000e+00" cType="1" res="2.6544526219367981e-02" rms="2.6545423269271851e-01" purity="8.5119366645812988e-01" nType="-99"/>
        </Node>
      </Node>
    </BinaryTree>
    <BinaryTree type="DecisionTree" boostWeight="1.0000000000000000e+00" itree="22">
      <Node pos="s" depth="0" NCoef="0" IVar="6" Cut="2.9879375457763672e+01" cType="1" res="-2.0377333275973797e-03" rms="3.6216050386428833e-01" purity="4.9500265717506409e-01" nType="0">
        <Node pos="l" depth="1" NCoef="0" IVar="6" Cut="2.9368835449218750e+01" cType="1" res="-1.1678223311901093e-01" rms="2.7818688750267029e-01" purity="1.1002139747142792e-01" nType="0">
          <Node pos="l" depth="2" NCoef="0" IVar="-1" Cut="0.0000000000000000e+00" cType="1" res="-2.8906036168336868e-02" rms="2.2274222970008850e-01" purity="5.4881986230611801e-02" nType="-99"/>
          <Node pos="r" depth="2" NCoef="0" IVar="-1" Cut="0.0000000000000000e+00" cType="1" res="-9.5277894288301468e-03" rms="3.7166801095008850e-01" purity="2.4016734957695007e-01" nType="-99"/>
        </Node>
        <Node pos="r" depth="1" NCoef="0" IVar="1" Cut="4.6289000511169434e+00" cType="1" res="5.8913338929414749e-02" rms="3.8602417707443237e-01" purity="6.9950062036514282e-01" nType="0">
          <Node pos="l" depth="2" NCoef="0" IVar="9" Cut="3.1571552157402039e-01" cType="1" res="0.0000000000000000e+00" rms="0.0000000000000000e+00" purity="7.3496818542480469e-01" nType="0">
            <Node pos="l" depth="3" NCoef="0" IVar="10" Cut="1.1391501426696777e+00" cType="1" res="2.0182522013783455e-02" rms="3.9601290225982666e-01" purity="6.6340160369873047e-01" nType="0">
              <Node pos="l" depth="4" NCoef="0" IVar="-1" Cut="0.0000000000000000e+00" cType="1" res="-1.1950140818953514e-02" rms="4.3422704935073853e-01" purity="4.9274489283561707e-01" nType="-99"/>
              <Node pos="r" depth="4" NCoef="0" IVar="-1" Cut="0.0000000000000000e+00" cType="1" res="1.9861692562699318e-02" rms="3.2726266980171204e-01" purity="8.2440310716629028e-01" nType="-99"/>
            </Node>
            <Node pos="r" depth="3" NCoef="0" IVar="8" Cut="1.6077613830566406e+00" cType="1" res="1.4606013894081116e-01" rms="3.6046037077903748e-01" purity="7.8925210237503052e-01" nType="0">
              <Node pos="l" depth="4" NCoef="0" IVar="-1" Cut="0.0000000000000000e+00" cType="1" res="-4.6060088789090514e-04" rms="3.9510816335678101e-01" purity="6.3734650611877441e-01" nType="-99"/>
              <Node pos="r" depth="4" NCoef="0" IVar="-1" Cut="0.0000000000000000e+00" cType="1" res="3.0785627663135529e-02" rms="3.2950231432914734e-01" purity="8.4643697738647461e-01" nType="-99"/>
            </Node>
          </Node>
          <Node pos="r" depth="2" NCoef="0" IVar="9" Cut="5.7404440641403198e-01" cType="1" res="-7.0921957492828369e-02" rms="3.7696638703346252e-01" purity="5.5932503938674927e-01" nType="0">
            <Node pos="l" depth="3" NCoef="0" IVar="-1" Cut="0.0000000000000000e+00" cType="1" res="-2.3724161088466644e-02" rms="3.6179754137992859e-01" purity="4.2948940396308899e-01" nType="-99"/>
            <Node pos="r" depth="3" NCoef="0" IVar="-1" Cut="0.0000000000000000e+00" cType="1" res="4.5888279564678669e-03" rms="3.7044504284858704e-01" purity="7.1219050884246826e-01" nType="-99"/>
          </Node>
        </Node>
      </Node>
    </BinaryTree>
    <BinaryTree type="DecisionTree" boostWeight="1.0000000000000000e+00" itree="23">
      <Node pos="s" depth="0" NCoef="0" IVar="6" Cut="2.9934701919555664e+01" cType="1" res="-5.9789572842419147e-03" rms="3.6397257447242737e-01" purity="4.9467563629150391e-01" nType="0">
        <Node pos="l" depth="1" NCoef="0" IVar="12" Cut="1.3816173076629639e+00" cType="1" res="-1.0121376812458038e-01" rms="2.9039627313613892e-01" purity="1.2706449627876282e-01" nType="0">
          <Node pos="l" depth="2" NCoef="0" IVar="-1" Cut="0.0000000000000000e+00" cType="1" res="-1.3112205080688000e-02" rms="3.2832890748977661e-01" purity="1.6802579164505005e-01" nType="-99"/>
          <Node pos="r" depth="2" NCoef="0" IVar="-1" Cut="0.0000000000000000e+00" cType="1" res="-2.6590552181005478e-02" rms="2.4002759158611298e-01" purity="8.4202192723751068e-02" nType="-99"/>
        </Node>
        <Node pos="r" depth="1" NCoef="0" IVar="12" Cut="1.9536416530609131e+00" cType="1" res="0.0000000000000000e+00" rms="0.0000000000000000e+00" purity="6.8463563919067383e-01" nType="0">
          <Node pos="l" depth="2" NCoef="0" IVar="9" Cut="3.2747876644134521e-01" cType="1" res="6.4239867031574249e-02" rms="3.7691426277160645e-01" purity="7.3591345548629761e-01" nType="0">
            <Node pos="l" depth="3" NCoef="0" IVar="10" Cut="1.0879354476928711e+00" cType="1" res="-1.6010079532861710e-02" rms="3.9108356833457947e-01" purity="6.3453745841979980e-01" nType="0">
              <Node pos="l" depth="4" NCoef="0" IVar="-1" Cut="0.0000000000000000e+00" cType="1" res="-1.9885666668415070e-02" rms="4.0886905789375305e-01" purity="4.1397500038146973e-01" nType="-99"/>
              <Node pos="r" depth="4" NCoef="0" IVar="-1" Cut="0.0000000000000000e+00" cType="1" res="1.7220979556441307e-02" rms="3.3489164710044861e-01" purity="8.3664554357528687e-01" nType="-99"/>
            </Node>
            <Node pos="r" depth="3" NCoef="0" IVar="2" Cut="2.5204138755798340e+00" cType="1" res="1.2820310890674591e-01" rms="3.5237270593643188e-01" purity="8.1671524047851562e-01" nType="0">
              <Node pos="l" depth="4" NCoef="0" IVar="-1" Cut="0.0000000000000000e+00" cType="1" res="8.5606491193175316e-03" rms="4.2673969268798828e-01" purity="7.0790135860443115e-01" nType="-99"/>
              <Node pos="r" depth="4" NCoef="0" IVar="-1" Cut="0.0000000000000000e+00" cType="1" res="2.7297316119074821e-02" rms="3.0132806301116943e-01" purity="8.7242740392684937e-01" nType="-99"/>
            </Node>
          </Node>
          <Node pos="r" depth="2" NCoef="0" IVar="12" Cut="2.4084138870239258e+00" cType="1" res="-3.8000460714101791e-02" rms="4.1663143038749695e-01" purity="4.8634648323059082e-01" nType="0">
            <Node pos="l" depth="3" NCoef="0" IVar="-1" Cut="0.0000000000000000e+00" cType="1" res="1.7019690945744514e-02" rms="3.9742246270179749e-01" purity="7.0798796415328979e-01" nType="-99"/>
            <Node pos="r" depth="3" NCoef="0" IVar="-1" Cut="0.0000000000000000e+00" cType="1" res="-1.8447186797857285e-02" rms="4.0178793668746948e-01" purity="3.5133141279220581e-01" nType="-99"/>
          </Node>
        </Node>
      </Node>
    </BinaryTree>
    <BinaryTree type="DecisionTree" boostWeight="1.0000000000000000e+00" itree="24">
      <Node pos="s" depth="0" NCoef="0" IVar="6" Cut="2.9934701919555664e+01" cType="1" res="-1.0581936221569777e-03" rms="3.6254984140396118e-01" purity="5.0107431411743164e-01" nType="0">
        <Node pos="l" depth="1" NCoef="0" IVar="6" Cut="2.9599685668945312e+01" cType="1" res="-9.7143836319446564e-02" rms="2.8792056441307068e-01" purity="1.2391286343336105e-01" nType="0">
          <Node pos="l" depth="2" NCoef="0" IVar="-1" Cut="0.0000000000000000e+00" cType="1" res="-2.3702338337898254e-02" rms="2.5079983472824097e-01" purity="7.4401170015335083e-02" nType="-99"/>
          <Node pos="r" depth="2" NCoef="0" IVar="-1" Cut="0.0000000000000000e+00" cType="1" res="-6.3080266118049622e-03" rms="4.0019577741622925e-01" purity="3.2456940412521362e-01" nType="-99"/>
        </Node>
        <Node pos="r" depth="1" NCoef="0" IVar="12" Cut="2.2744584083557129e+00" cType="1" res="0.0000000000000000e+00" rms="0.0000000000000000e+00" purity="7.0607125759124756e-01" nType="0">
          <Node pos="l" depth="2" NCoef="0" IVar="1" Cut="4.6289000511169434e+00" cType="1" res="7.2270728647708893e-02" rms="3.7868973612785339e-01" purity="7.5441944599151611e-01" nType="0">
            <Node pos="l" depth="3" NCoef="0" IVar="2" Cut="2.3720805644989014e+00" cType="1" res="0.0000000000000000e+00" rms="0.0000000000000000e+00" purity="7.7442109584808350e-01" nType="0">
              <Node pos="l" depth="4" NCoef="0" IVar="-1" Cut="0.0000000000000000e+00" cType="1" res="-2.0112022757530212e-03" rms="4.5502904057502747e-01" purity="6.3242661952972412e-01" nType="-99"/>
              <Node pos="r" depth="4" NCoef="0" IVar="-1" Cut="0.0000000000000000e+00" cType="1" res="1.9302684813737869e-02" rms="3.4667631983757019e-01" purity="8.0846667289733887e-01" nType="-99"/>
            </Node>
            <Node pos="r" depth="3" NCoef="0" IVar="-1" Cut="0.0000000000000000e+00" cType="1" res="-3.6355541087687016e-03" rms="3.8625651597976685e-01" purity="6.6386151313781738e-01" nType="-99"/>
          </Node>
          <Node pos="r" depth="2" NCoef="0" IVar="-1" Cut="0.0000000000000000e+00" cType="1" res="-1.0900659486651421e-02" rms="4.1403552889823914e-01" purity="4.1632473468780518e-01" nType="-99"/>
        </Node>
      </Node>
    </BinaryTree>
    <BinaryTree type="DecisionTree" boostWeight="1.0000000000000000e+00" itree="25">
      <Node pos="s" depth="0" NCoef="0" IVar="12" Cut="2.7348105907440186e+00" cType="1" res="0.0000000000000000e+00" rms="0.0000000000000000e+00" purity="4.8974063992500305e-01" nType="0">
        <Node pos="l" depth="1" NCoef="0" IVar="6" Cut="2.9468261718750000e+01" cType="1" res="0.0000000000000000e+00" rms="0.0000000000000000e+00" purity="5.2351707220077515e-01" nType="0">
          <Node pos="l" depth="2" NCoef="0" IVar="-1" Cut="0.0000000000000000e+00" cType="1" res="-2.3041622713208199e-02" rms="2.5178167223930359e-01" purity="7.2477586567401886e-02" nType="-99"/>
          <Node pos="r" depth="2" NCoef="0" IVar="0" Cut="-1.1074124574661255e+00" cType="1" res="4.0314748883247375e-02" rms="3.8345116376876831e-01" purity="6.6543519496917725e-01" nType="0">
